<?xml version="1.0"?>
<MethodSetup Method="BDT::BDTG_vbfpol_nsel2_v7">
  <GeneralInfo>
    <Info name="TMVA Release" value="4.2.1 [262657]"/>
    <Info name="ROOT Release" value="6.30/09 [400905]"/>
    <Info name="Creator" value="ceballos"/>
    <Info name="Date" value="Fri Mar 20 11:31:35 2026"/>
    <Info name="Host" value="Linux cmsbuild145.cern.ch 4.18.0-553.8.1.el8_10.x86_64 #1 SMP Tue Jul 2 07:26:33 EDT 2024 x86_64 x86_64 x86_64 GNU/Linux"/>
    <Info name="Dir" value="/home/submit/ceballos/cms/MitAnalysisRunIII/rdf/mva_training"/>
    <Info name="Training events" value="382220"/>
    <Info name="TrainingTime" value="2.22011704e+02"/>
    <Info name="AnalysisType" value="Classification"/>
  </GeneralInfo>
  <Options>
    <Option name="V" modified="Yes">False</Option>
    <Option name="VerbosityLevel" modified="No">Default</Option>
    <Option name="VarTransform" modified="No">None</Option>
    <Option name="H" modified="Yes">False</Option>
    <Option name="CreateMVAPdfs" modified="No">False</Option>
    <Option name="IgnoreNegWeightsInTraining" modified="No">False</Option>
    <Option name="NTrees" modified="Yes">1000</Option>
    <Option name="MaxDepth" modified="Yes">3</Option>
    <Option name="MinNodeSize" modified="Yes">5%</Option>
    <Option name="nCuts" modified="Yes">1000</Option>
    <Option name="BoostType" modified="Yes">Grad</Option>
    <Option name="AdaBoostR2Loss" modified="No">quadratic</Option>
    <Option name="UseBaggedBoost" modified="Yes">True</Option>
    <Option name="Shrinkage" modified="Yes">1.000000e-01</Option>
    <Option name="AdaBoostBeta" modified="No">5.000000e-01</Option>
    <Option name="UseRandomisedTrees" modified="No">False</Option>
    <Option name="UseNvars" modified="No">4</Option>
    <Option name="UsePoissonNvars" modified="No">True</Option>
    <Option name="BaggedSampleFraction" modified="No">3.000000e-01</Option>
    <Option name="UseYesNoLeaf" modified="No">True</Option>
    <Option name="NegWeightTreatment" modified="Yes">ignorenegweightsintraining</Option>
    <Option name="Css" modified="No">1.000000e+00</Option>
    <Option name="Cts_sb" modified="No">1.000000e+00</Option>
    <Option name="Ctb_ss" modified="No">1.000000e+00</Option>
    <Option name="Cbb" modified="No">1.000000e+00</Option>
    <Option name="NodePurityLimit" modified="No">5.000000e-01</Option>
    <Option name="SeparationType" modified="No">giniindex</Option>
    <Option name="RegressionLossFunctionBDTG" modified="No">huber</Option>
    <Option name="HuberQuantile" modified="No">7.000000e-01</Option>
    <Option name="DoBoostMonitor" modified="No">False</Option>
    <Option name="UseFisherCuts" modified="No">False</Option>
    <Option name="MinLinCorrForFisher" modified="No">8.000000e-01</Option>
    <Option name="UseExclusiveVars" modified="No">False</Option>
    <Option name="DoPreselection" modified="No">False</Option>
    <Option name="SigToBkgFraction" modified="No">1.000000e+00</Option>
    <Option name="PruneMethod" modified="No">nopruning</Option>
    <Option name="PruneStrength" modified="No">0.000000e+00</Option>
    <Option name="PruningValFraction" modified="No">5.000000e-01</Option>
    <Option name="SkipNormalization" modified="No">False</Option>
    <Option name="nEventsMin" modified="No">0</Option>
    <Option name="UseBaggedGrad" modified="No">False</Option>
    <Option name="GradBaggingFraction" modified="Yes">3.000000e-01</Option>
    <Option name="UseNTrainEvents" modified="No">0</Option>
    <Option name="NNodesMax" modified="No">0</Option>
  </Options>
  <Variables NVar="18">
    <Variable VarIndex="0" Expression="vbs_dphijj" Label="vbs_dphijj" Title="vbs_dphijj" Unit="" Internal="vbs_dphijj" Type="F" Min="0.00000000e+00" Max="3.14158392e+00"/>
    <Variable VarIndex="1" Expression="vbs_ptj1" Label="vbs_ptj1" Title="vbs_ptj1" Unit="" Internal="vbs_ptj1" Type="F" Min="3.02277584e+01" Max="2.04429895e+03"/>
    <Variable VarIndex="2" Expression="vbs_ptj2" Label="vbs_ptj2" Title="vbs_ptj2" Unit="" Internal="vbs_ptj2" Type="F" Min="3.00000057e+01" Max="9.67266418e+02"/>
    <Variable VarIndex="3" Expression="vbs_etaj1" Label="vbs_etaj1" Title="vbs_etaj1" Unit="" Internal="vbs_etaj1" Type="F" Min="3.24100256e-06" Max="4.69921875e+00"/>
    <Variable VarIndex="4" Expression="vbs_zepvv" Label="vbs_zepvv" Title="vbs_zepvv" Unit="" Internal="vbs_zepvv" Type="F" Min="1.61755096e-07" Max="9.99947548e-01"/>
    <Variable VarIndex="5" Expression="vbs_zepmax" Label="vbs_zepmax" Title="vbs_zepmax" Unit="" Internal="vbs_zepmax" Type="F" Min="5.24204981e-04" Max="1.76402581e+00"/>
    <Variable VarIndex="6" Expression="vbs_ptvv" Label="vbs_ptvv" Title="vbs_ptvv" Unit="" Internal="vbs_ptvv" Type="F" Min="4.27633554e-01" Max="2.01188391e+03"/>
    <Variable VarIndex="7" Expression="vbs_detavvj1" Label="vbs_detavvj1" Title="vbs_detavvj1" Unit="" Internal="vbs_detavvj1" Type="F" Min="5.36181142e-05" Max="9.67299175e+00"/>
    <Variable VarIndex="8" Expression="vbs_detavvj2" Label="vbs_detavvj2" Title="vbs_detavvj2" Unit="" Internal="vbs_detavvj2" Type="F" Min="2.82763558e-05" Max="1.04885616e+01"/>
    <Variable VarIndex="9" Expression="mllDef" Label="mllDef" Title="mllDef" Unit="" Internal="mllDef" Type="F" Min="2.00018826e+01" Max="2.98117529e+03"/>
    <Variable VarIndex="10" Expression="drllDef" Label="drllDef" Title="drllDef" Unit="" Internal="drllDef" Type="F" Min="3.92272502e-01" Max="5.79928875e+00"/>
    <Variable VarIndex="11" Expression="dphillDef" Label="dphillDef" Title="dphillDef" Unit="" Internal="dphillDef" Type="F" Min="0.00000000e+00" Max="3.14158630e+00"/>
    <Variable VarIndex="12" Expression="ptl1Def" Label="ptl1Def" Title="ptl1Def" Unit="" Internal="ptl1Def" Type="F" Min="2.50000458e+01" Max="1.62287695e+03"/>
    <Variable VarIndex="13" Expression="ptl2Def" Label="ptl2Def" Title="ptl2Def" Unit="" Internal="ptl2Def" Type="F" Min="2.00000362e+01" Max="1.30911267e+03"/>
    <Variable VarIndex="14" Expression="dPhilMETMinDef" Label="dPhilMETMinDef" Title="dPhilMETMinDef" Unit="" Internal="dPhilMETMinDef" Type="F" Min="4.52995300e-06" Max="3.13480926e+00"/>
    <Variable VarIndex="15" Expression="mtwmaxDef" Label="mtwmaxDef" Title="mtwmaxDef" Unit="" Internal="mtwmaxDef" Type="F" Min="2.12147072e-01" Max="3.11410083e+03"/>
    <Variable VarIndex="16" Expression="mtwminDef" Label="mtwminDef" Title="mtwminDef" Unit="" Internal="mtwminDef" Type="F" Min="0.00000000e+00" Max="4.50455414e+02"/>
    <Variable VarIndex="17" Expression="PuppiMET_ptDef" Label="PuppiMET_ptDef" Title="PuppiMET_ptDef" Unit="" Internal="PuppiMET_ptDef" Type="F" Min="3.00002899e+01" Max="1.66211646e+03"/>
  </Variables>
  <Spectators NSpec="0"/>
  <Classes NClass="2">
    <Class Name="Signal" Index="0"/>
    <Class Name="Background" Index="1"/>
  </Classes>
  <Transformations NTransformations="0"/>
  <MVAPdfs/>
  <Weights NTrees="1000" AnalysisType="1">
    <BinaryTree type="DecisionTree" boostWeight="1.0000000000000000e+00" itree="0">
      <Node pos="s" depth="0" NCoef="0" IVar="6" Cut="1.3316241455078125e+02" cType="1" res="1.0924654779955745e-03" rms="4.9999880790710449e-01" purity="5.0109249353408813e-01" nType="0">
        <Node pos="l" depth="1" NCoef="0" IVar="12" Cut="7.7795326232910156e+01" cType="1" res="1.1867988109588623e-01" rms="4.8571091890335083e-01" purity="6.1867988109588623e-01" nType="0">
          <Node pos="l" depth="2" NCoef="0" IVar="5" Cut="2.0873814821243286e-01" cType="1" res="1.9270859658718109e-01" rms="4.6137121319770813e-01" purity="6.9270861148834229e-01" nType="0">
            <Node pos="l" depth="3" NCoef="0" IVar="-1" Cut="0.0000000000000000e+00" cType="1" res="1.7203079536557198e-02" rms="4.9254578351974487e-01" purity="5.8601540327072144e-01" nType="-99"/>
            <Node pos="r" depth="3" NCoef="0" IVar="-1" Cut="0.0000000000000000e+00" cType="1" res="4.5523781329393387e-02" rms="4.4518494606018066e-01" purity="7.2761887311935425e-01" nType="-99"/>
          </Node>
          <Node pos="r" depth="2" NCoef="0" IVar="12" Cut="1.0115682983398438e+02" cType="1" res="-7.5332358479499817e-02" rms="4.9429246783256531e-01" purity="4.2466762661933899e-01" nType="0">
            <Node pos="l" depth="3" NCoef="0" IVar="-1" Cut="0.0000000000000000e+00" cType="1" res="-9.4170327065512538e-04" rms="4.9997782707214355e-01" purity="4.9529144167900085e-01" nType="-99"/>
            <Node pos="r" depth="3" NCoef="0" IVar="-1" Cut="0.0000000000000000e+00" cType="1" res="-2.8445698320865631e-02" rms="4.7934439778327942e-01" purity="3.5777151584625244e-01" nType="-99"/>
          </Node>
        </Node>
        <Node pos="r" depth="1" NCoef="0" IVar="8" Cut="3.0789873600006104e+00" cType="1" res="-1.7579767107963562e-01" rms="4.6807605028152466e-01" purity="3.2420232892036438e-01" nType="0">
          <Node pos="l" depth="2" NCoef="0" IVar="6" Cut="2.1122038269042969e+02" cType="1" res="-2.4099633097648621e-01" rms="4.3808761239051819e-01" purity="2.5900366902351379e-01" nType="0">
            <Node pos="l" depth="3" NCoef="0" IVar="-1" Cut="0.0000000000000000e+00" cType="1" res="-3.3185597509145737e-02" rms="4.7166502475738525e-01" purity="3.3407199382781982e-01" nType="-99"/>
            <Node pos="r" depth="3" NCoef="0" IVar="-1" Cut="0.0000000000000000e+00" cType="1" res="-6.6218316555023193e-02" rms="3.7467101216316223e-01" purity="1.6890841722488403e-01" nType="-99"/>
          </Node>
          <Node pos="r" depth="2" NCoef="0" IVar="6" Cut="2.0448759460449219e+02" cType="1" res="-5.0165198743343353e-02" rms="4.9747708439826965e-01" purity="4.4983479380607605e-01" nType="0">
            <Node pos="l" depth="3" NCoef="0" IVar="-1" Cut="0.0000000000000000e+00" cType="1" res="3.5445261746644974e-03" rms="4.9968582391738892e-01" purity="5.1772260665893555e-01" nType="-99"/>
            <Node pos="r" depth="3" NCoef="0" IVar="-1" Cut="0.0000000000000000e+00" cType="1" res="-2.7679014950990677e-02" rms="4.8046520352363586e-01" purity="3.6160492897033691e-01" nType="-99"/>
          </Node>
        </Node>
      </Node>
    </BinaryTree>
    <BinaryTree type="DecisionTree" boostWeight="1.0000000000000000e+00" itree="1">
      <Node pos="s" depth="0" NCoef="0" IVar="6" Cut="1.3972526550292969e+02" cType="1" res="-1.2113120174035430e-03" rms="4.9284815788269043e-01" purity="4.9863722920417786e-01" nType="0">
        <Node pos="l" depth="1" NCoef="0" IVar="12" Cut="7.7810188293457031e+01" cType="1" res="1.0060574114322662e-01" rms="4.8374941945075989e-01" purity="6.1140114068984985e-01" nType="0">
          <Node pos="l" depth="2" NCoef="0" IVar="6" Cut="8.4059677124023438e+01" cType="1" res="1.6833539307117462e-01" rms="4.6282285451889038e-01" purity="6.8664985895156860e-01" nType="0">
            <Node pos="l" depth="3" NCoef="0" IVar="-1" Cut="0.0000000000000000e+00" cType="1" res="4.3611072003841400e-02" rms="4.3957111239433289e-01" purity="7.3686873912811279e-01" nType="-99"/>
            <Node pos="r" depth="3" NCoef="0" IVar="-1" Cut="0.0000000000000000e+00" cType="1" res="1.7807830125093460e-02" rms="4.8758167028427124e-01" purity="6.0584342479705811e-01" nType="-99"/>
          </Node>
          <Node pos="r" depth="2" NCoef="0" IVar="8" Cut="3.0143091678619385e+00" cType="1" res="-6.6333226859569550e-02" rms="4.9362111091613770e-01" purity="4.2592927813529968e-01" nType="0">
            <Node pos="l" depth="3" NCoef="0" IVar="-1" Cut="0.0000000000000000e+00" cType="1" res="-2.4260224774479866e-02" rms="4.8211601376533508e-01" purity="3.7042135000228882e-01" nType="-99"/>
            <Node pos="r" depth="3" NCoef="0" IVar="-1" Cut="0.0000000000000000e+00" cType="1" res="1.7540695844218135e-03" rms="4.9925100803375244e-01" purity="5.0184661149978638e-01" nType="-99"/>
          </Node>
        </Node>
        <Node pos="r" depth="1" NCoef="0" IVar="8" Cut="3.0735478401184082e+00" cType="1" res="-1.6931228339672089e-01" rms="4.6064782142639160e-01" purity="3.1246277689933777e-01" nType="0">
          <Node pos="l" depth="2" NCoef="0" IVar="6" Cut="2.1895118713378906e+02" cType="1" res="-2.2738236188888550e-01" rms="4.3045693635940552e-01" purity="2.4792587757110596e-01" nType="0">
            <Node pos="l" depth="3" NCoef="0" IVar="-1" Cut="0.0000000000000000e+00" cType="1" res="-3.2708384096622467e-02" rms="4.6599948406219482e-01" purity="3.1894645094871521e-01" nType="-99"/>
            <Node pos="r" depth="3" NCoef="0" IVar="-1" Cut="0.0000000000000000e+00" cType="1" res="-6.1142224818468094e-02" rms="3.6896798014640808e-01" purity="1.6256463527679443e-01" nType="-99"/>
          </Node>
          <Node pos="r" depth="2" NCoef="0" IVar="2" Cut="6.8243324279785156e+01" cType="1" res="-5.6262854486703873e-02" rms="4.9520307779312134e-01" purity="4.3810161948204041e-01" nType="0">
            <Node pos="l" depth="3" NCoef="0" IVar="-1" Cut="0.0000000000000000e+00" cType="1" res="4.8466967418789864e-03" rms="4.9909237027168274e-01" purity="5.1909542083740234e-01" nType="-99"/>
            <Node pos="r" depth="3" NCoef="0" IVar="-1" Cut="0.0000000000000000e+00" cType="1" res="-2.3564917966723442e-02" rms="4.8325493931770325e-01" purity="3.7620034813880920e-01" nType="-99"/>
          </Node>
        </Node>
      </Node>
    </BinaryTree>
    <BinaryTree type="DecisionTree" boostWeight="1.0000000000000000e+00" itree="2">
      <Node pos="s" depth="0" NCoef="0" IVar="6" Cut="1.3076124572753906e+02" cType="1" res="-1.4275320572778583e-03" rms="4.8671689629554749e-01" purity="4.9848476052284241e-01" nType="0">
        <Node pos="l" depth="1" NCoef="0" IVar="12" Cut="8.0574043273925781e+01" cType="1" res="9.7083084285259247e-02" rms="4.7889348864555359e-01" purity="6.1947774887084961e-01" nType="0">
          <Node pos="l" depth="2" NCoef="0" IVar="5" Cut="2.4318259954452515e-01" cType="1" res="1.5495769679546356e-01" rms="4.6071222424507141e-01" purity="6.9006210565567017e-01" nType="0">
            <Node pos="l" depth="3" NCoef="0" IVar="-1" Cut="0.0000000000000000e+00" cType="1" res="1.5024916268885136e-02" rms="4.8781561851501465e-01" purity="6.0314363241195679e-01" nType="-99"/>
            <Node pos="r" depth="3" NCoef="0" IVar="-1" Cut="0.0000000000000000e+00" cType="1" res="3.9202738553285599e-02" rms="4.4125214219093323e-01" purity="7.3326218128204346e-01" nType="-99"/>
          </Node>
          <Node pos="r" depth="2" NCoef="0" IVar="12" Cut="1.0241918945312500e+02" cType="1" res="-7.2391115128993988e-02" rms="4.9074837565422058e-01" purity="4.1278579831123352e-01" nType="0">
            <Node pos="l" depth="3" NCoef="0" IVar="-1" Cut="0.0000000000000000e+00" cType="1" res="-1.7600388964638114e-03" rms="4.9888625741004944e-01" purity="4.8351529240608215e-01" nType="-99"/>
            <Node pos="r" depth="3" NCoef="0" IVar="-1" Cut="0.0000000000000000e+00" cType="1" res="-2.5340504944324493e-02" rms="4.7710025310516357e-01" purity="3.5265019536018372e-01" nType="-99"/>
          </Node>
        </Node>
        <Node pos="r" depth="1" NCoef="0" IVar="8" Cut="3.4396991729736328e+00" cType="1" res="-1.4310790598392487e-01" rms="4.6230712532997131e-01" purity="3.2446956634521484e-01" nType="0">
          <Node pos="l" depth="2" NCoef="0" IVar="6" Cut="2.0575988769531250e+02" cType="1" res="-1.8797323107719421e-01" rms="4.4102376699447632e-01" purity="2.7202349901199341e-01" nType="0">
            <Node pos="l" depth="3" NCoef="0" IVar="-1" Cut="0.0000000000000000e+00" cType="1" res="-2.4546125903725624e-02" rms="4.7606977820396423e-01" purity="3.5169020295143127e-01" nType="-99"/>
            <Node pos="r" depth="3" NCoef="0" IVar="-1" Cut="0.0000000000000000e+00" cType="1" res="-5.2838832139968872e-02" rms="3.8580814003944397e-01" purity="1.8380568921566010e-01" nType="-99"/>
          </Node>
          <Node pos="r" depth="2" NCoef="0" IVar="-1" Cut="0.0000000000000000e+00" cType="1" res="-3.4543435322120786e-04" rms="4.9797749519348145e-01" purity="4.8974078893661499e-01" nType="-99"/>
        </Node>
      </Node>
    </BinaryTree>
    <BinaryTree type="DecisionTree" boostWeight="1.0000000000000000e+00" itree="3">
      <Node pos="s" depth="0" NCoef="0" IVar="6" Cut="1.3611882019042969e+02" cType="1" res="7.1755185490474105e-04" rms="4.8187381029129028e-01" purity="5.0088691711425781e-01" nType="0">
        <Node pos="l" depth="1" NCoef="0" IVar="12" Cut="6.7807029724121094e+01" cType="1" res="8.6161211133003235e-02" rms="4.7705474495887756e-01" purity="6.1688423156738281e-01" nType="0">
          <Node pos="l" depth="2" NCoef="0" IVar="6" Cut="8.4441177368164062e+01" cType="1" res="1.5534871816635132e-01" rms="4.5294654369354248e-01" purity="7.0631796121597290e-01" nType="0">
            <Node pos="l" depth="3" NCoef="0" IVar="-1" Cut="0.0000000000000000e+00" cType="1" res="4.0017548948526382e-02" rms="4.2952269315719604e-01" purity="7.5375008583068848e-01" nType="-99"/>
            <Node pos="r" depth="3" NCoef="0" IVar="-1" Cut="0.0000000000000000e+00" cType="1" res="1.5274946577847004e-02" rms="4.8429560661315918e-01" purity="6.1668616533279419e-01" nType="-99"/>
          </Node>
          <Node pos="r" depth="2" NCoef="0" IVar="12" Cut="1.0102864837646484e+02" cType="1" res="-2.6993419975042343e-02" rms="4.9357554316520691e-01" purity="4.7061738371849060e-01" nType="0">
            <Node pos="l" depth="3" NCoef="0" IVar="-1" Cut="0.0000000000000000e+00" cType="1" res="4.2654634453356266e-03" rms="4.9576082825660706e-01" purity="5.3797191381454468e-01" nType="-99"/>
            <Node pos="r" depth="3" NCoef="0" IVar="-1" Cut="0.0000000000000000e+00" cType="1" res="-2.0706340670585632e-02" rms="4.8036551475524902e-01" purity="3.6436033248901367e-01" nType="-99"/>
          </Node>
        </Node>
        <Node pos="r" depth="1" NCoef="0" IVar="8" Cut="3.0131273269653320e+00" cType="1" res="-1.3526205718517303e-01" rms="4.5765450596809387e-01" purity="3.1628260016441345e-01" nType="0">
          <Node pos="l" depth="2" NCoef="0" IVar="6" Cut="2.5613540649414062e+02" cType="1" res="-1.8674181401729584e-01" rms="4.2817884683609009e-01" purity="2.4803280830383301e-01" nType="0">
            <Node pos="l" depth="3" NCoef="0" IVar="-1" Cut="0.0000000000000000e+00" cType="1" res="-2.9941262677311897e-02" rms="4.5542579889297485e-01" purity="2.9734456539154053e-01" nType="-99"/>
            <Node pos="r" depth="3" NCoef="0" IVar="-1" Cut="0.0000000000000000e+00" cType="1" res="-5.7382643222808838e-02" rms="3.3964863419532776e-01" purity="1.3306838274002075e-01" nType="-99"/>
          </Node>
          <Node pos="r" depth="2" NCoef="0" IVar="15" Cut="1.3879182434082031e+02" cType="1" res="-4.4339194893836975e-02" rms="4.9256068468093872e-01" purity="4.3682444095611572e-01" nType="0">
            <Node pos="l" depth="3" NCoef="0" IVar="-1" Cut="0.0000000000000000e+00" cType="1" res="2.7819492388516665e-03" rms="4.9656185507774353e-01" purity="4.9633085727691650e-01" nType="-99"/>
            <Node pos="r" depth="3" NCoef="0" IVar="-1" Cut="0.0000000000000000e+00" cType="1" res="-2.8133416548371315e-02" rms="4.7046405076980591e-01" purity="3.3885315060615540e-01" nType="-99"/>
          </Node>
        </Node>
      </Node>
    </BinaryTree>
    <BinaryTree type="DecisionTree" boostWeight="1.0000000000000000e+00" itree="4">
      <Node pos="s" depth="0" NCoef="0" IVar="12" Cut="9.0282745361328125e+01" cType="1" res="-6.9662102032452822e-04" rms="4.7759279608726501e-01" purity="4.9915394186973572e-01" nType="0">
        <Node pos="l" depth="1" NCoef="0" IVar="6" Cut="1.6901582336425781e+02" cType="1" res="6.9163613021373749e-02" rms="4.7441029548645020e-01" purity="5.9780287742614746e-01" nType="0">
          <Node pos="l" depth="2" NCoef="0" IVar="5" Cut="2.1196594834327698e-01" cType="1" res="1.0399886220693588e-01" rms="4.6975740790367126e-01" purity="6.4934641122817993e-01" nType="0">
            <Node pos="l" depth="3" NCoef="0" IVar="-1" Cut="0.0000000000000000e+00" cType="1" res="1.9179413793608546e-03" rms="4.9253430962562561e-01" purity="5.4057681560516357e-01" nType="-99"/>
            <Node pos="r" depth="3" NCoef="0" IVar="-1" Cut="0.0000000000000000e+00" cType="1" res="2.7822222560644150e-02" rms="4.5708730816841125e-01" purity="6.8698477745056152e-01" nType="-99"/>
          </Node>
          <Node pos="r" depth="2" NCoef="0" IVar="-1" Cut="0.0000000000000000e+00" cType="1" res="-2.5987146422266960e-02" rms="4.5221593976020813e-01" purity="3.0759724974632263e-01" nType="-99"/>
        </Node>
        <Node pos="r" depth="1" NCoef="0" IVar="2" Cut="7.0356918334960938e+01" cType="1" res="-1.3610433042049408e-01" rms="4.5406219363212585e-01" purity="3.0794605612754822e-01" nType="0">
          <Node pos="l" depth="2" NCoef="0" IVar="8" Cut="2.7174482345581055e+00" cType="1" res="-3.3382333815097809e-02" rms="4.8930165171623230e-01" purity="4.2283201217651367e-01" nType="0">
            <Node pos="l" depth="3" NCoef="0" IVar="-1" Cut="0.0000000000000000e+00" cType="1" res="-2.0822077989578247e-02" rms="4.6794965863227844e-01" purity="3.3363851904869080e-01" nType="-99"/>
            <Node pos="r" depth="3" NCoef="0" IVar="-1" Cut="0.0000000000000000e+00" cType="1" res="3.3787793945521116e-03" rms="4.9839708209037781e-01" purity="4.8804131150245667e-01" nType="-99"/>
          </Node>
          <Node pos="r" depth="2" NCoef="0" IVar="12" Cut="1.4016313171386719e+02" cType="1" res="-1.9116292893886566e-01" rms="4.2387124896049500e-01" purity="2.4636761844158173e-01" nType="0">
            <Node pos="l" depth="3" NCoef="0" IVar="-1" Cut="0.0000000000000000e+00" cType="1" res="-2.6230234652757645e-02" rms="4.5969289541244507e-01" purity="3.1852096319198608e-01" nType="-99"/>
            <Node pos="r" depth="3" NCoef="0" IVar="-1" Cut="0.0000000000000000e+00" cType="1" res="-5.5264241993427277e-02" rms="3.5957345366477966e-01" purity="1.5622468292713165e-01" nType="-99"/>
          </Node>
        </Node>
      </Node>
    </BinaryTree>
    <BinaryTree type="DecisionTree" boostWeight="1.0000000000000000e+00" itree="5">
      <Node pos="s" depth="0" NCoef="0" IVar="12" Cut="8.5295394897460938e+01" cType="1" res="-4.0953615098260343e-04" rms="4.7391015291213989e-01" purity="4.9931854009628296e-01" nType="0">
        <Node pos="l" depth="1" NCoef="0" IVar="17" Cut="1.2959252929687500e+02" cType="1" res="6.7595556378364563e-02" rms="4.7117078304290771e-01" purity="6.0584634542465210e-01" nType="0">
          <Node pos="l" depth="2" NCoef="0" IVar="5" Cut="2.6771283149719238e-01" cType="1" res="1.0342791676521301e-01" rms="4.6507433056831360e-01" purity="6.6082447767257690e-01" nType="0">
            <Node pos="l" depth="3" NCoef="0" IVar="-1" Cut="0.0000000000000000e+00" cType="1" res="7.9906079918146133e-03" rms="4.8559165000915527e-01" purity="5.8312594890594482e-01" nType="-99"/>
            <Node pos="r" depth="3" NCoef="0" IVar="-1" Cut="0.0000000000000000e+00" cType="1" res="2.9758946970105171e-02" rms="4.4637316465377808e-01" purity="7.1124094724655151e-01" nType="-99"/>
          </Node>
          <Node pos="r" depth="2" NCoef="0" IVar="17" Cut="1.7192013549804688e+02" cType="1" res="-9.7354888916015625e-02" rms="4.6385118365287781e-01" purity="3.5276055335998535e-01" nType="0">
            <Node pos="l" depth="3" NCoef="0" IVar="-1" Cut="0.0000000000000000e+00" cType="1" res="-8.1890486180782318e-03" rms="4.8874607682228088e-01" purity="4.4110310077667236e-01" nType="-99"/>
            <Node pos="r" depth="3" NCoef="0" IVar="-1" Cut="0.0000000000000000e+00" cType="1" res="-3.3990290015935898e-02" rms="4.2357611656188965e-01" purity="2.5009346008300781e-01" nType="-99"/>
          </Node>
        </Node>
        <Node pos="r" depth="1" NCoef="0" IVar="8" Cut="3.6601665019989014e+00" cType="1" res="-1.1573832482099533e-01" rms="4.5589214563369751e-01" purity="3.1865972280502319e-01" nType="0">
          <Node pos="l" depth="2" NCoef="0" IVar="2" Cut="5.7765319824218750e+01" cType="1" res="-1.5051692724227905e-01" rms="4.3731537461280823e-01" purity="2.7222001552581787e-01" nType="0">
            <Node pos="l" depth="3" NCoef="0" IVar="-1" Cut="0.0000000000000000e+00" cType="1" res="-9.3032410368323326e-03" rms="4.8513996601104736e-01" purity="3.9656919240951538e-01" nType="-99"/>
            <Node pos="r" depth="3" NCoef="0" IVar="-1" Cut="0.0000000000000000e+00" cType="1" res="-3.6221072077751160e-02" rms="4.2162379622459412e-01" purity="2.4316474795341492e-01" nType="-99"/>
          </Node>
          <Node pos="r" depth="2" NCoef="0" IVar="-1" Cut="0.0000000000000000e+00" cType="1" res="1.2234279711265117e-04" rms="4.9574583768844604e-01" purity="4.7401732206344604e-01" nType="-99"/>
        </Node>
      </Node>
    </BinaryTree>
    <BinaryTree type="DecisionTree" boostWeight="1.0000000000000000e+00" itree="6">
      <Node pos="s" depth="0" NCoef="0" IVar="6" Cut="1.1295665740966797e+02" cType="1" res="1.9043404608964920e-03" rms="4.7111105918884277e-01" purity="5.0154536962509155e-01" nType="0">
        <Node pos="l" depth="1" NCoef="0" IVar="12" Cut="6.8349372863769531e+01" cType="1" res="8.2620412111282349e-02" rms="4.6486169099807739e-01" purity="6.3969928026199341e-01" nType="0">
          <Node pos="l" depth="2" NCoef="0" IVar="5" Cut="2.6555618643760681e-01" cType="1" res="1.3435849547386169e-01" rms="4.4336637854576111e-01" purity="7.2415822744369507e-01" nType="0">
            <Node pos="l" depth="3" NCoef="0" IVar="-1" Cut="0.0000000000000000e+00" cType="1" res="1.6347082331776619e-02" rms="4.7556471824645996e-01" purity="6.4769232273101807e-01" nType="-99"/>
            <Node pos="r" depth="3" NCoef="0" IVar="-1" Cut="0.0000000000000000e+00" cType="1" res="3.5378906875848770e-02" rms="4.1773498058319092e-01" purity="7.7319729328155518e-01" nType="-99"/>
          </Node>
          <Node pos="r" depth="2" NCoef="0" IVar="12" Cut="1.0010594940185547e+02" cType="1" res="-1.5954025089740753e-02" rms="4.8833915591239929e-01" purity="4.7878301143646240e-01" nType="0">
            <Node pos="l" depth="3" NCoef="0" IVar="-1" Cut="0.0000000000000000e+00" cType="1" res="4.4293003156781197e-03" rms="4.9197992682456970e-01" purity="5.5203437805175781e-01" nType="-99"/>
            <Node pos="r" depth="3" NCoef="0" IVar="-1" Cut="0.0000000000000000e+00" cType="1" res="-1.5860075131058693e-02" rms="4.7586822509765625e-01" purity="3.5887074470520020e-01" nType="-99"/>
          </Node>
        </Node>
        <Node pos="r" depth="1" NCoef="0" IVar="8" Cut="2.8919160366058350e+00" cType="1" res="-8.1388920545578003e-02" rms="4.6294793486595154e-01" purity="3.5898035764694214e-01" nType="0">
          <Node pos="l" depth="2" NCoef="0" IVar="15" Cut="1.7356478881835938e+02" cType="1" res="-1.3035166263580322e-01" rms="4.3857502937316895e-01" purity="2.8723669052124023e-01" nType="0">
            <Node pos="l" depth="3" NCoef="0" IVar="-1" Cut="0.0000000000000000e+00" cType="1" res="-2.1583322435617447e-02" rms="4.5456892251968384e-01" purity="3.2341754436492920e-01" nType="-99"/>
            <Node pos="r" depth="3" NCoef="0" IVar="-1" Cut="0.0000000000000000e+00" cType="1" res="-4.7156859189271927e-02" rms="3.6422136425971985e-01" purity="1.6343760490417480e-01" nType="-99"/>
          </Node>
          <Node pos="r" depth="2" NCoef="0" IVar="15" Cut="1.5989865112304688e+02" cType="1" res="-1.0440081357955933e-02" rms="4.8749616742134094e-01" purity="4.6293973922729492e-01" nType="0">
            <Node pos="l" depth="3" NCoef="0" IVar="-1" Cut="0.0000000000000000e+00" cType="1" res="5.0165359862148762e-03" rms="4.8988226056098938e-01" purity="5.0809907913208008e-01" nType="-99"/>
            <Node pos="r" depth="3" NCoef="0" IVar="-1" Cut="0.0000000000000000e+00" cType="1" res="-2.3274295032024384e-02" rms="4.6517157554626465e-01" purity="3.2997664809226990e-01" nType="-99"/>
          </Node>
        </Node>
      </Node>
    </BinaryTree>
    <BinaryTree type="DecisionTree" boostWeight="1.0000000000000000e+00" itree="7">
      <Node pos="s" depth="0" NCoef="0" IVar="6" Cut="1.6335690307617188e+02" cType="1" res="2.7397882658988237e-03" rms="4.6817979216575623e-01" purity="5.0263613462448120e-01" nType="0">
        <Node pos="l" depth="1" NCoef="0" IVar="12" Cut="6.8337135314941406e+01" cType="1" res="5.1504921168088913e-02" rms="4.7170266509056091e-01" purity="5.9364694356918335e-01" nType="0">
          <Node pos="l" depth="2" NCoef="0" IVar="0" Cut="2.3579480648040771e+00" cType="1" res="1.0312255471944809e-01" rms="4.5439955592155457e-01" purity="6.8938720226287842e-01" nType="0">
            <Node pos="l" depth="3" NCoef="0" IVar="-1" Cut="0.0000000000000000e+00" cType="1" res="-6.7468150518834591e-04" rms="4.8802122473716736e-01" purity="5.5785453319549561e-01" nType="-99"/>
            <Node pos="r" depth="3" NCoef="0" IVar="-1" Cut="0.0000000000000000e+00" cType="1" res="2.7042286470532417e-02" rms="4.4167512655258179e-01" purity="7.2211486101150513e-01" nType="-99"/>
          </Node>
          <Node pos="r" depth="2" NCoef="0" IVar="8" Cut="3.1038494110107422e+00" cType="1" res="-2.3618692532181740e-02" rms="4.8611101508140564e-01" purity="4.5430785417556763e-01" nType="0">
            <Node pos="l" depth="3" NCoef="0" IVar="-1" Cut="0.0000000000000000e+00" cType="1" res="-1.3162186369299889e-02" rms="4.7905144095420837e-01" purity="4.0025261044502258e-01" nType="-99"/>
            <Node pos="r" depth="3" NCoef="0" IVar="-1" Cut="0.0000000000000000e+00" cType="1" res="7.9632401466369629e-03" rms="4.9020227789878845e-01" purity="5.3789287805557251e-01" nType="-99"/>
          </Node>
        </Node>
        <Node pos="r" depth="1" NCoef="0" IVar="2" Cut="7.9287467956542969e+01" cType="1" res="-1.1551548540592194e-01" rms="4.3750646710395813e-01" purity="2.8193527460098267e-01" nType="0">
          <Node pos="l" depth="2" NCoef="0" IVar="8" Cut="2.9319589138031006e+00" cType="1" res="-4.2150303721427917e-02" rms="4.7495087981224060e-01" purity="3.8101679086685181e-01" nType="0">
            <Node pos="l" depth="3" NCoef="0" IVar="-1" Cut="0.0000000000000000e+00" cType="1" res="-2.2268658503890038e-02" rms="4.4352641701698303e-01" purity="2.7366057038307190e-01" nType="-99"/>
            <Node pos="r" depth="3" NCoef="0" IVar="-1" Cut="0.0000000000000000e+00" cType="1" res="2.9272201936691999e-03" rms="4.9514934420585632e-01" purity="4.7891867160797119e-01" nType="-99"/>
          </Node>
          <Node pos="r" depth="2" NCoef="0" IVar="0" Cut="2.2347140312194824e+00" cType="1" res="-1.5812440216541290e-01" rms="4.0819999575614929e-01" purity="2.2439084947109222e-01" nType="0">
            <Node pos="l" depth="3" NCoef="0" IVar="-1" Cut="0.0000000000000000e+00" cType="1" res="-4.3086323887109756e-02" rms="3.7490734457969666e-01" purity="1.7641448974609375e-01" nType="-99"/>
            <Node pos="r" depth="3" NCoef="0" IVar="-1" Cut="0.0000000000000000e+00" cType="1" res="-2.1167412400245667e-02" rms="4.4336360692977905e-01" purity="2.9028630256652832e-01" nType="-99"/>
          </Node>
        </Node>
      </Node>
    </BinaryTree>
    <BinaryTree type="DecisionTree" boostWeight="1.0000000000000000e+00" itree="8">
      <Node pos="s" depth="0" NCoef="0" IVar="6" Cut="1.4599501037597656e+02" cType="1" res="3.0648719985038042e-03" rms="4.6582722663879395e-01" purity="5.0365453958511353e-01" nType="0">
        <Node pos="l" depth="1" NCoef="0" IVar="12" Cut="6.6503341674804688e+01" cType="1" res="5.3465269505977631e-02" rms="4.6875107288360596e-01" purity="6.0966259241104126e-01" nType="0">
          <Node pos="l" depth="2" NCoef="0" IVar="0" Cut="2.5494318008422852e+00" cType="1" res="9.9407546222209930e-02" rms="4.5049762725830078e-01" purity="7.0250809192657471e-01" nType="0">
            <Node pos="l" depth="3" NCoef="0" IVar="-1" Cut="0.0000000000000000e+00" cType="1" res="5.7568782940506935e-03" rms="4.8157542943954468e-01" purity="6.1044919490814209e-01" nType="-99"/>
            <Node pos="r" depth="3" NCoef="0" IVar="-1" Cut="0.0000000000000000e+00" cType="1" res="2.7122272178530693e-02" rms="4.3404379487037659e-01" purity="7.3955738544464111e-01" nType="-99"/>
          </Node>
          <Node pos="r" depth="2" NCoef="0" IVar="8" Cut="3.9732558727264404e+00" cType="1" res="-1.3445165008306503e-02" rms="4.8643004894256592e-01" purity="4.7444218397140503e-01" nType="0">
            <Node pos="l" depth="3" NCoef="0" IVar="-1" Cut="0.0000000000000000e+00" cType="1" res="-8.0788927152752876e-03" rms="4.8391181230545044e-01" purity="4.4107186794281006e-01" nType="-99"/>
            <Node pos="r" depth="3" NCoef="0" IVar="-1" Cut="0.0000000000000000e+00" cType="1" res="1.5152310021221638e-02" rms="4.8453941941261292e-01" purity="5.8718627691268921e-01" nType="-99"/>
          </Node>
        </Node>
        <Node pos="r" depth="1" NCoef="0" IVar="8" Cut="2.4931240081787109e+00" cType="1" res="-9.1233097016811371e-02" rms="4.4523888826370239e-01" purity="3.0531600117683411e-01" nType="0">
          <Node pos="l" depth="2" NCoef="0" IVar="6" Cut="2.3228657531738281e+02" cType="1" res="-1.4416351914405823e-01" rms="4.0504911541938782e-01" purity="2.1958768367767334e-01" nType="0">
            <Node pos="l" depth="3" NCoef="0" IVar="-1" Cut="0.0000000000000000e+00" cType="1" res="-2.2320507094264030e-02" rms="4.4636404514312744e-01" purity="2.8557229042053223e-01" nType="-99"/>
            <Node pos="r" depth="3" NCoef="0" IVar="-1" Cut="0.0000000000000000e+00" cType="1" res="-4.5033976435661316e-02" rms="3.3201238512992859e-01" purity="1.2777261435985565e-01" nType="-99"/>
          </Node>
          <Node pos="r" depth="2" NCoef="0" IVar="2" Cut="7.5535644531250000e+01" cType="1" res="-4.3983925133943558e-02" rms="4.7329610586166382e-01" purity="3.8184267282485962e-01" nType="0">
            <Node pos="l" depth="3" NCoef="0" IVar="-1" Cut="0.0000000000000000e+00" cType="1" res="3.8264445029199123e-03" rms="4.9223697185516357e-01" purity="4.7285971045494080e-01" nType="-99"/>
            <Node pos="r" depth="3" NCoef="0" IVar="-1" Cut="0.0000000000000000e+00" cType="1" res="-1.9626753404736519e-02" rms="4.5176711678504944e-01" purity="3.1025549769401550e-01" nType="-99"/>
          </Node>
        </Node>
      </Node>
    </BinaryTree>
    <BinaryTree type="DecisionTree" boostWeight="1.0000000000000000e+00" itree="9">
      <Node pos="s" depth="0" NCoef="0" IVar="12" Cut="9.5336410522460938e+01" cType="1" res="-2.6982913259416819e-03" rms="4.6340554952621460e-01" purity="4.9751472473144531e-01" nType="0">
        <Node pos="l" depth="1" NCoef="0" IVar="0" Cut="2.2973420619964600e+00" cType="1" res="4.0017616003751755e-02" rms="4.6622312068939209e-01" purity="5.8845901489257812e-01" nType="0">
          <Node pos="l" depth="2" NCoef="0" IVar="8" Cut="3.4066228866577148e+00" cType="1" res="-5.5879108607769012e-02" rms="4.7153583168983459e-01" purity="4.2232406139373779e-01" nType="0">
            <Node pos="l" depth="3" NCoef="0" IVar="-1" Cut="0.0000000000000000e+00" cType="1" res="-1.9830690696835518e-02" rms="4.5889902114868164e-01" purity="3.5958641767501831e-01" nType="-99"/>
            <Node pos="r" depth="3" NCoef="0" IVar="-1" Cut="0.0000000000000000e+00" cType="1" res="5.5706626735627651e-03" rms="4.8757484555244446e-01" purity="5.5834287405014038e-01" nType="-99"/>
          </Node>
          <Node pos="r" depth="2" NCoef="0" IVar="5" Cut="2.0590448379516602e-01" cType="1" res="7.4245437979698181e-02" rms="4.5949092507362366e-01" purity="6.4775657653808594e-01" nType="0">
            <Node pos="l" depth="3" NCoef="0" IVar="-1" Cut="0.0000000000000000e+00" cType="1" res="-4.9936384893953800e-03" rms="4.8378923535346985e-01" purity="5.1841300725936890e-01" nType="-99"/>
            <Node pos="r" depth="3" NCoef="0" IVar="-1" Cut="0.0000000000000000e+00" cType="1" res="2.1825181320309639e-02" rms="4.4809603691101074e-01" purity="6.8547284603118896e-01" nType="-99"/>
          </Node>
        </Node>
        <Node pos="r" depth="1" NCoef="0" IVar="2" Cut="6.1722904205322266e+01" cType="1" res="-9.7131952643394470e-02" rms="4.4272178411483765e-01" purity="2.9646068811416626e-01" nType="0">
          <Node pos="l" depth="2" NCoef="0" IVar="-1" Cut="0.0000000000000000e+00" cType="1" res="7.7696936205029488e-04" rms="4.8837465047836304e-01" purity="4.4159257411956787e-01" nType="-99"/>
          <Node pos="r" depth="2" NCoef="0" IVar="12" Cut="1.2139472198486328e+02" cType="1" res="-1.3438758254051208e-01" rms="4.1852375864982605e-01" purity="2.4288088083267212e-01" nType="0">
            <Node pos="l" depth="3" NCoef="0" IVar="-1" Cut="0.0000000000000000e+00" cType="1" res="-1.4523156918585300e-02" rms="4.6192464232444763e-01" purity="3.3263668417930603e-01" nType="-99"/>
            <Node pos="r" depth="3" NCoef="0" IVar="-1" Cut="0.0000000000000000e+00" cType="1" res="-3.7094928324222565e-02" rms="3.8867095112800598e-01" purity="1.9458344578742981e-01" nType="-99"/>
          </Node>
        </Node>
      </Node>
    </BinaryTree>
    <BinaryTree type="DecisionTree" boostWeight="1.0000000000000000e+00" itree="10">
      <Node pos="s" depth="0" NCoef="0" IVar="6" Cut="1.0349542999267578e+02" cType="1" res="-1.5327560249716043e-03" rms="4.6227526664733887e-01" purity="4.9813625216484070e-01" nType="0">
        <Node pos="l" depth="1" NCoef="0" IVar="12" Cut="6.0239013671875000e+01" cType="1" res="6.2684960663318634e-02" rms="4.5826736092567444e-01" purity="6.4809030294418335e-01" nType="0">
          <Node pos="l" depth="2" NCoef="0" IVar="4" Cut="2.9510611295700073e-01" cType="1" res="1.0821709036827087e-01" rms="4.3370944261550903e-01" purity="7.4045103788375854e-01" nType="0">
            <Node pos="l" depth="3" NCoef="0" IVar="-1" Cut="0.0000000000000000e+00" cType="1" res="1.7406689003109932e-02" rms="4.5230647921562195e-01" purity="7.0384758710861206e-01" nType="-99"/>
            <Node pos="r" depth="3" NCoef="0" IVar="-1" Cut="0.0000000000000000e+00" cType="1" res="3.5458266735076904e-02" rms="3.8941335678100586e-01" purity="8.1218278408050537e-01" nType="-99"/>
          </Node>
          <Node pos="r" depth="2" NCoef="0" IVar="15" Cut="1.3697889709472656e+02" cType="1" res="4.2457552626729012e-03" rms="4.8171311616897583e-01" purity="5.2954792976379395e-01" nType="0">
            <Node pos="l" depth="3" NCoef="0" IVar="-1" Cut="0.0000000000000000e+00" cType="1" res="8.1689581274986267e-03" rms="4.7816750407218933e-01" purity="5.9721767902374268e-01" nType="-99"/>
            <Node pos="r" depth="3" NCoef="0" IVar="-1" Cut="0.0000000000000000e+00" cType="1" res="-8.5935071110725403e-03" rms="4.8246511816978455e-01" purity="4.4093942642211914e-01" nType="-99"/>
          </Node>
        </Node>
        <Node pos="r" depth="1" NCoef="0" IVar="8" Cut="3.2638123035430908e+00" cType="1" res="-5.5461347103118896e-02" rms="4.5872133970260620e-01" purity="3.7220820784568787e-01" nType="0">
          <Node pos="l" depth="2" NCoef="0" IVar="15" Cut="1.5268266296386719e+02" cType="1" res="-8.9285038411617279e-02" rms="4.4280889630317688e-01" purity="3.1269812583923340e-01" nType="0">
            <Node pos="l" depth="3" NCoef="0" IVar="-1" Cut="0.0000000000000000e+00" cType="1" res="-1.3649570755660534e-02" rms="4.6044456958770752e-01" purity="3.5860297083854675e-01" nType="-99"/>
            <Node pos="r" depth="3" NCoef="0" IVar="-1" Cut="0.0000000000000000e+00" cType="1" res="-3.3182084560394287e-02" rms="3.9209103584289551e-01" purity="2.0512662827968597e-01" nType="-99"/>
          </Node>
          <Node pos="r" depth="2" NCoef="0" IVar="9" Cut="1.6760658264160156e+02" cType="1" res="2.3697879165410995e-02" rms="4.8482492566108704e-01" purity="5.1148265600204468e-01" nType="0">
            <Node pos="l" depth="3" NCoef="0" IVar="-1" Cut="0.0000000000000000e+00" cType="1" res="1.2985781766474247e-02" rms="4.8275831341743469e-01" purity="5.6818723678588867e-01" nType="-99"/>
            <Node pos="r" depth="3" NCoef="0" IVar="-1" Cut="0.0000000000000000e+00" cType="1" res="-9.9832713603973389e-03" rms="4.8011794686317444e-01" purity="4.0890574455261230e-01" nType="-99"/>
          </Node>
        </Node>
      </Node>
    </BinaryTree>
    <BinaryTree type="DecisionTree" boostWeight="1.0000000000000000e+00" itree="11">
      <Node pos="s" depth="0" NCoef="0" IVar="6" Cut="1.6784494018554688e+02" cType="1" res="-2.5714543880894780e-05" rms="4.6059811115264893e-01" purity="4.9953833222389221e-01" nType="0">
        <Node pos="l" depth="1" NCoef="0" IVar="12" Cut="8.8330017089843750e+01" cType="1" res="3.4318037331104279e-02" rms="4.6770298480987549e-01" purity="5.8762001991271973e-01" nType="0">
          <Node pos="l" depth="2" NCoef="0" IVar="5" Cut="2.9046088457107544e-01" cType="1" res="5.8703210204839706e-02" rms="4.6224075555801392e-01" purity="6.5371793508529663e-01" nType="0">
            <Node pos="l" depth="3" NCoef="0" IVar="-1" Cut="0.0000000000000000e+00" cType="1" res="2.1636716555804014e-03" rms="4.8100608587265015e-01" purity="5.8270269632339478e-01" nType="-99"/>
            <Node pos="r" depth="3" NCoef="0" IVar="-1" Cut="0.0000000000000000e+00" cType="1" res="2.1429227665066719e-02" rms="4.4172462821006775e-01" purity="7.1358364820480347e-01" nType="-99"/>
          </Node>
          <Node pos="r" depth="2" NCoef="0" IVar="2" Cut="5.9833393096923828e+01" cType="1" res="-4.2349860072135925e-02" rms="4.7641250491142273e-01" purity="3.7980553507804871e-01" nType="0">
            <Node pos="l" depth="3" NCoef="0" IVar="-1" Cut="0.0000000000000000e+00" cType="1" res="5.2194003947079182e-03" rms="4.9612432718276978e-01" purity="4.7482416033744812e-01" nType="-99"/>
            <Node pos="r" depth="3" NCoef="0" IVar="-1" Cut="0.0000000000000000e+00" cType="1" res="-1.5121581032872200e-02" rms="4.6424371004104614e-01" purity="3.3771526813507080e-01" nType="-99"/>
          </Node>
        </Node>
        <Node pos="r" depth="1" NCoef="0" IVar="2" Cut="9.2984375000000000e+01" cType="1" res="-8.8605277240276337e-02" rms="4.2924478650093079e-01" purity="2.7235779166221619e-01" nType="0">
          <Node pos="l" depth="2" NCoef="0" IVar="8" Cut="2.5729110240936279e+00" cType="1" res="-4.0009640157222748e-02" rms="4.6383273601531982e-01" purity="3.5146021842956543e-01" nType="0">
            <Node pos="l" depth="3" NCoef="0" IVar="-1" Cut="0.0000000000000000e+00" cType="1" res="-2.2136243060231209e-02" rms="4.1985040903091431e-01" purity="2.3416838049888611e-01" nType="-99"/>
            <Node pos="r" depth="3" NCoef="0" IVar="-1" Cut="0.0000000000000000e+00" cType="1" res="-8.0032629193738103e-04" rms="4.8602363467216492e-01" purity="4.2528057098388672e-01" nType="-99"/>
          </Node>
          <Node pos="r" depth="2" NCoef="0" IVar="5" Cut="2.7984309196472168e-01" cType="1" res="-1.3171395659446716e-01" rms="3.9101907610893250e-01" purity="2.0218685269355774e-01" nType="0">
            <Node pos="l" depth="3" NCoef="0" IVar="-1" Cut="0.0000000000000000e+00" cType="1" res="-4.1357301175594330e-02" rms="3.4669041633605957e-01" purity="1.4607629179954529e-01" nType="-99"/>
            <Node pos="r" depth="3" NCoef="0" IVar="-1" Cut="0.0000000000000000e+00" cType="1" res="-2.1770995110273361e-02" rms="4.1726034879684448e-01" purity="2.4363909661769867e-01" nType="-99"/>
          </Node>
        </Node>
      </Node>
    </BinaryTree>
    <BinaryTree type="DecisionTree" boostWeight="1.0000000000000000e+00" itree="12">
      <Node pos="s" depth="0" NCoef="0" IVar="12" Cut="1.0716225433349609e+02" cType="1" res="3.5300904419273138e-03" rms="4.5927819609642029e-01" purity="5.0367671251296997e-01" nType="0">
        <Node pos="l" depth="1" NCoef="0" IVar="17" Cut="1.2032537078857422e+02" cType="1" res="3.2761726528406143e-02" rms="4.6415224671363831e-01" purity="5.7960796356201172e-01" nType="0">
          <Node pos="l" depth="2" NCoef="0" IVar="8" Cut="3.6061992645263672e+00" cType="1" res="5.6081227958202362e-02" rms="4.6312975883483887e-01" purity="6.3792353868484497e-01" nType="0">
            <Node pos="l" depth="3" NCoef="0" IVar="-1" Cut="0.0000000000000000e+00" cType="1" res="6.5478547476232052e-03" rms="4.7079715132713318e-01" purity="6.0258591175079346e-01" nType="-99"/>
            <Node pos="r" depth="3" NCoef="0" IVar="-1" Cut="0.0000000000000000e+00" cType="1" res="2.6008782908320427e-02" rms="4.3582719564437866e-01" purity="7.2965711355209351e-01" nType="-99"/>
          </Node>
          <Node pos="r" depth="2" NCoef="0" IVar="17" Cut="1.8750045776367188e+02" cType="1" res="-4.9473643302917480e-02" rms="4.5836722850799561e-01" purity="3.7396013736724854e-01" nType="0">
            <Node pos="l" depth="3" NCoef="0" IVar="-1" Cut="0.0000000000000000e+00" cType="1" res="-4.0033864788711071e-03" rms="4.7810065746307373e-01" purity="4.4171887636184692e-01" nType="-99"/>
            <Node pos="r" depth="3" NCoef="0" IVar="-1" Cut="0.0000000000000000e+00" cType="1" res="-2.6727143675088882e-02" rms="4.0251275897026062e-01" purity="2.2224387526512146e-01" nType="-99"/>
          </Node>
        </Node>
        <Node pos="r" depth="1" NCoef="0" IVar="2" Cut="5.8262073516845703e+01" cType="1" res="-8.2070551812648773e-02" rms="4.3350511789321899e-01" purity="2.8132280707359314e-01" nType="0">
          <Node pos="l" depth="2" NCoef="0" IVar="-1" Cut="0.0000000000000000e+00" cType="1" res="6.3580363057553768e-03" rms="4.8988899588584900e-01" purity="4.6029374003410339e-01" nType="-99"/>
          <Node pos="r" depth="2" NCoef="0" IVar="15" Cut="1.8114866638183594e+02" cType="1" res="-1.1699844896793365e-01" rms="4.0822455286979675e-01" purity="2.2591416537761688e-01" nType="0">
            <Node pos="l" depth="3" NCoef="0" IVar="-1" Cut="0.0000000000000000e+00" cType="1" res="-2.0790906623005867e-02" rms="4.2555361986160278e-01" purity="2.5496804714202881e-01" nType="-99"/>
            <Node pos="r" depth="3" NCoef="0" IVar="-1" Cut="0.0000000000000000e+00" cType="1" res="-3.6253679543733597e-02" rms="3.7287288904190063e-01" purity="1.7593342065811157e-01" nType="-99"/>
          </Node>
        </Node>
      </Node>
    </BinaryTree>
    <BinaryTree type="DecisionTree" boostWeight="1.0000000000000000e+00" itree="13">
      <Node pos="s" depth="0" NCoef="0" IVar="6" Cut="9.6999168395996094e+01" cType="1" res="-9.6333387773483992e-04" rms="4.5792725682258606e-01" purity="4.9876317381858826e-01" nType="0">
        <Node pos="l" depth="1" NCoef="0" IVar="12" Cut="5.8547355651855469e+01" cType="1" res="5.3209215402603149e-02" rms="4.5330104231834412e-01" purity="6.5545618534088135e-01" nType="0">
          <Node pos="l" depth="2" NCoef="0" IVar="4" Cut="2.3842719197273254e-01" cType="1" res="9.5778152346611023e-02" rms="4.2673835158348083e-01" purity="7.5130963325500488e-01" nType="0">
            <Node pos="l" depth="3" NCoef="0" IVar="-1" Cut="0.0000000000000000e+00" cType="1" res="1.4262079261243343e-02" rms="4.5230591297149658e-01" purity="7.0245563983917236e-01" nType="-99"/>
            <Node pos="r" depth="3" NCoef="0" IVar="-1" Cut="0.0000000000000000e+00" cType="1" res="3.0207972973585129e-02" rms="3.9121547341346741e-01" purity="8.0932271480560303e-01" nType="-99"/>
          </Node>
          <Node pos="r" depth="2" NCoef="0" IVar="5" Cut="3.2785248756408691e-01" cType="1" res="2.2790837101638317e-03" rms="4.7821289300918579e-01" purity="5.4077559709548950e-01" nType="0">
            <Node pos="l" depth="3" NCoef="0" IVar="-1" Cut="0.0000000000000000e+00" cType="1" res="-5.8197476901113987e-03" rms="4.8459142446517944e-01" purity="4.9274528026580811e-01" nType="-99"/>
            <Node pos="r" depth="3" NCoef="0" IVar="-1" Cut="0.0000000000000000e+00" cType="1" res="1.0790725238621235e-02" rms="4.6377822756767273e-01" purity="6.1739277839660645e-01" nType="-99"/>
          </Node>
        </Node>
        <Node pos="r" depth="1" NCoef="0" IVar="8" Cut="2.4003534317016602e+00" cType="1" res="-4.0790852159261703e-02" rms="4.5722293853759766e-01" purity="3.8356292247772217e-01" nType="0">
          <Node pos="l" depth="2" NCoef="0" IVar="5" Cut="3.6706230044364929e-01" cType="1" res="-9.0296529233455658e-02" rms="4.2898595333099365e-01" purity="2.9543673992156982e-01" nType="0">
            <Node pos="l" depth="3" NCoef="0" IVar="-1" Cut="0.0000000000000000e+00" cType="1" res="-2.6828633621335030e-02" rms="4.1468814015388489e-01" purity="2.5754263997077942e-01" nType="-99"/>
            <Node pos="r" depth="3" NCoef="0" IVar="-1" Cut="0.0000000000000000e+00" cType="1" res="-7.6983943581581116e-03" rms="4.4974768161773682e-01" purity="3.6761868000030518e-01" nType="-99"/>
          </Node>
          <Node pos="r" depth="2" NCoef="0" IVar="15" Cut="1.7111317443847656e+02" cType="1" res="-3.0900344718247652e-03" rms="4.7415384650230408e-01" purity="4.5067504048347473e-01" nType="0">
            <Node pos="l" depth="3" NCoef="0" IVar="-1" Cut="0.0000000000000000e+00" cType="1" res="4.0558134205639362e-03" rms="4.8003539443016052e-01" purity="4.9212616682052612e-01" nType="-99"/>
            <Node pos="r" depth="3" NCoef="0" IVar="-1" Cut="0.0000000000000000e+00" cType="1" res="-2.0350156351923943e-02" rms="4.3841689825057983e-01" purity="2.8448471426963806e-01" nType="-99"/>
          </Node>
        </Node>
      </Node>
    </BinaryTree>
    <BinaryTree type="DecisionTree" boostWeight="1.0000000000000000e+00" itree="14">
      <Node pos="s" depth="0" NCoef="0" IVar="6" Cut="8.5521553039550781e+01" cType="1" res="-6.1345851281657815e-04" rms="4.5625084638595581e-01" purity="5.0003492832183838e-01" nType="0">
        <Node pos="l" depth="1" NCoef="0" IVar="12" Cut="7.0978408813476562e+01" cType="1" res="6.0137100517749786e-02" rms="4.4725406169891357e-01" purity="6.7377781867980957e-01" nType="0">
          <Node pos="l" depth="2" NCoef="0" IVar="14" Cut="1.5566055774688721e+00" cType="1" res="8.7272033095359802e-02" rms="4.2788887023925781e-01" purity="7.5020217895507812e-01" nType="0">
            <Node pos="l" depth="3" NCoef="0" IVar="-1" Cut="0.0000000000000000e+00" cType="1" res="1.3046767562627792e-02" rms="4.4473066926002502e-01" purity="7.1853780746459961e-01" nType="-99"/>
            <Node pos="r" depth="3" NCoef="0" IVar="-1" Cut="0.0000000000000000e+00" cType="1" res="2.5105733424425125e-02" rms="4.1212037205696106e-01" purity="7.7602136135101318e-01" nType="-99"/>
          </Node>
          <Node pos="r" depth="2" NCoef="0" IVar="3" Cut="2.5533223152160645e+00" cType="1" res="-9.2922262847423553e-03" rms="4.8651245236396790e-01" purity="4.7823309898376465e-01" nType="0">
            <Node pos="l" depth="3" NCoef="0" IVar="-1" Cut="0.0000000000000000e+00" cType="1" res="-6.7642019130289555e-03" rms="4.7888496518135071e-01" purity="4.5617130398750305e-01" nType="-99"/>
            <Node pos="r" depth="3" NCoef="0" IVar="-1" Cut="0.0000000000000000e+00" cType="1" res="2.7742236852645874e-03" rms="4.9275410175323486e-01" purity="4.9970975518226624e-01" nType="-99"/>
          </Node>
        </Node>
        <Node pos="r" depth="1" NCoef="0" IVar="8" Cut="2.5260317325592041e+00" cType="1" res="-3.5319134593009949e-02" rms="4.5770701766014099e-01" purity="4.0077883005142212e-01" nType="0">
          <Node pos="l" depth="2" NCoef="0" IVar="5" Cut="3.8518670201301575e-01" cType="1" res="-7.9118438065052032e-02" rms="4.3495106697082520e-01" purity="3.1760224699974060e-01" nType="0">
            <Node pos="l" depth="3" NCoef="0" IVar="-1" Cut="0.0000000000000000e+00" cType="1" res="-2.3267062380909920e-02" rms="4.2548877000808716e-01" purity="2.8373304009437561e-01" nType="-99"/>
            <Node pos="r" depth="3" NCoef="0" IVar="-1" Cut="0.0000000000000000e+00" cType="1" res="-4.8512667417526245e-03" rms="4.5125061273574829e-01" purity="3.9719098806381226e-01" nType="-99"/>
          </Node>
          <Node pos="r" depth="2" NCoef="0" IVar="6" Cut="2.5734939575195312e+02" cType="1" res="3.8023395463824272e-03" rms="4.7370406985282898e-01" purity="4.7507208585739136e-01" nType="0">
            <Node pos="l" depth="3" NCoef="0" IVar="-1" Cut="0.0000000000000000e+00" cType="1" res="4.3216515332460403e-03" rms="4.7953996062278748e-01" purity="5.1356756687164307e-01" nType="-99"/>
            <Node pos="r" depth="3" NCoef="0" IVar="-1" Cut="0.0000000000000000e+00" cType="1" res="-1.9088322296738625e-02" rms="4.3072319030761719e-01" purity="2.7169811725616455e-01" nType="-99"/>
          </Node>
        </Node>
      </Node>
    </BinaryTree>
    <BinaryTree type="DecisionTree" boostWeight="1.0000000000000000e+00" itree="15">
      <Node pos="s" depth="0" NCoef="0" IVar="6" Cut="1.9012536621093750e+02" cType="1" res="6.3937899540178478e-05" rms="4.5577076077461243e-01" purity="5.0011026859283447e-01" nType="0">
        <Node pos="l" depth="1" NCoef="0" IVar="15" Cut="1.4305705261230469e+02" cType="1" res="2.1952707320451736e-02" rms="4.6488046646118164e-01" purity="5.7232350111007690e-01" nType="0">
          <Node pos="l" depth="2" NCoef="0" IVar="5" Cut="2.2703336179256439e-01" cType="1" res="4.1842088103294373e-02" rms="4.6161833405494690e-01" purity="6.2234699726104736e-01" nType="0">
            <Node pos="l" depth="3" NCoef="0" IVar="-1" Cut="0.0000000000000000e+00" cType="1" res="-3.5706879571080208e-03" rms="4.7938454151153564e-01" purity="5.2116501331329346e-01" nType="-99"/>
            <Node pos="r" depth="3" NCoef="0" IVar="-1" Cut="0.0000000000000000e+00" cType="1" res="1.4637895859777927e-02" rms="4.5162773132324219e-01" purity="6.6497272253036499e-01" nType="-99"/>
          </Node>
          <Node pos="r" depth="2" NCoef="0" IVar="1" Cut="1.0843999481201172e+02" cType="1" res="-4.6713296324014664e-02" rms="4.6953967213630676e-01" purity="3.9962264895439148e-01" nType="0">
            <Node pos="l" depth="3" NCoef="0" IVar="-1" Cut="0.0000000000000000e+00" cType="1" res="4.2513441294431686e-03" rms="4.9443739652633667e-01" purity="4.8561787605285645e-01" nType="-99"/>
            <Node pos="r" depth="3" NCoef="0" IVar="-1" Cut="0.0000000000000000e+00" cType="1" res="-1.5770936384797096e-02" rms="4.5633324980735779e-01" purity="3.6494746804237366e-01" nType="-99"/>
          </Node>
        </Node>
        <Node pos="r" depth="1" NCoef="0" IVar="2" Cut="8.8416160583496094e+01" cType="1" res="-7.6586961746215820e-02" rms="4.1328495740890503e-01" purity="2.4723127484321594e-01" nType="0">
          <Node pos="l" depth="2" NCoef="0" IVar="-1" Cut="0.0000000000000000e+00" cType="1" res="-5.7899057865142822e-03" rms="4.5866820216178894e-01" purity="3.4221896529197693e-01" nType="-99"/>
          <Node pos="r" depth="2" NCoef="0" IVar="0" Cut="2.1968815326690674e+00" cType="1" res="-1.1236368864774704e-01" rms="3.7372115254402161e-01" purity="1.7989762127399445e-01" nType="0">
            <Node pos="l" depth="3" NCoef="0" IVar="-1" Cut="0.0000000000000000e+00" cType="1" res="-3.4772004932165146e-02" rms="3.4481942653656006e-01" purity="1.4372135698795319e-01" nType="-99"/>
            <Node pos="r" depth="3" NCoef="0" IVar="-1" Cut="0.0000000000000000e+00" cType="1" res="-1.7008306458592415e-02" rms="4.1100326180458069e-01" purity="2.3572175204753876e-01" nType="-99"/>
          </Node>
        </Node>
      </Node>
    </BinaryTree>
    <BinaryTree type="DecisionTree" boostWeight="1.0000000000000000e+00" itree="16">
      <Node pos="s" depth="0" NCoef="0" IVar="0" Cut="2.6865093708038330e+00" cType="1" res="2.2322428412735462e-03" rms="4.5505475997924805e-01" purity="5.0249868631362915e-01" nType="0">
        <Node pos="l" depth="1" NCoef="0" IVar="8" Cut="3.9650344848632812e+00" cType="1" res="-3.2268784940242767e-02" rms="4.5626896619796753e-01" purity="4.1867038607597351e-01" nType="0">
          <Node pos="l" depth="2" NCoef="0" IVar="2" Cut="9.6185699462890625e+01" cType="1" res="-5.0346024334430695e-02" rms="4.5105779170989990e-01" purity="3.8058668375015259e-01" nType="0">
            <Node pos="l" depth="3" NCoef="0" IVar="-1" Cut="0.0000000000000000e+00" cType="1" res="-5.8500147424638271e-03" rms="4.7249966859817505e-01" purity="4.3735459446907043e-01" nType="-99"/>
            <Node pos="r" depth="3" NCoef="0" IVar="-1" Cut="0.0000000000000000e+00" cType="1" res="-1.9800996407866478e-02" rms="4.1444194316864014e-01" purity="2.9553231596946716e-01" nType="-99"/>
          </Node>
          <Node pos="r" depth="2" NCoef="0" IVar="-1" Cut="0.0000000000000000e+00" cType="1" res="1.1143858544528484e-02" rms="4.7080907225608826e-01" purity="5.9800332784652710e-01" nType="-99"/>
        </Node>
        <Node pos="r" depth="1" NCoef="0" IVar="15" Cut="1.6376631164550781e+02" cType="1" res="4.8699192702770233e-02" rms="4.4924622774124146e-01" purity="6.1540096998214722e-01" nType="0">
          <Node pos="l" depth="2" NCoef="0" IVar="5" Cut="1.7916527390480042e-01" cType="1" res="6.5811112523078918e-02" rms="4.4666102528572083e-01" purity="6.5823203325271606e-01" nType="0">
            <Node pos="l" depth="3" NCoef="0" IVar="-1" Cut="0.0000000000000000e+00" cType="1" res="-5.7491520419716835e-03" rms="4.7394040226936340e-01" purity="5.1242858171463013e-01" nType="-99"/>
            <Node pos="r" depth="3" NCoef="0" IVar="-1" Cut="0.0000000000000000e+00" cType="1" res="1.8907923251390457e-02" rms="4.3853744864463806e-01" purity="6.8773537874221802e-01" nType="-99"/>
          </Node>
          <Node pos="r" depth="2" NCoef="0" IVar="-1" Cut="0.0000000000000000e+00" cType="1" res="-1.4080313965678215e-02" rms="4.4989982247352600e-01" purity="3.3246126770973206e-01" nType="-99"/>
        </Node>
      </Node>
    </BinaryTree>
    <BinaryTree type="DecisionTree" boostWeight="1.0000000000000000e+00" itree="17">
      <Node pos="s" depth="0" NCoef="0" IVar="12" Cut="1.1744559478759766e+02" cType="1" res="1.5236452454701066e-03" rms="4.5567083358764648e-01" purity="5.0092118978500366e-01" nType="0">
        <Node pos="l" depth="1" NCoef="0" IVar="0" Cut="2.3946340084075928e+00" cType="1" res="1.9656481221318245e-02" rms="4.6205130219459534e-01" purity="5.6434583663940430e-01" nType="0">
          <Node pos="l" depth="2" NCoef="0" IVar="17" Cut="1.6947357177734375e+02" cType="1" res="-2.9828656464815140e-02" rms="4.6844565868377686e-01" purity="4.3056616187095642e-01" nType="0">
            <Node pos="l" depth="3" NCoef="0" IVar="-1" Cut="0.0000000000000000e+00" cType="1" res="-2.7929649222642183e-03" rms="4.8304674029350281e-01" purity="4.8319974541664124e-01" nType="-99"/>
            <Node pos="r" depth="3" NCoef="0" IVar="-1" Cut="0.0000000000000000e+00" cType="1" res="-2.3935517296195030e-02" rms="3.9395442605018616e-01" purity="2.0986650884151459e-01" nType="-99"/>
          </Node>
          <Node pos="r" depth="2" NCoef="0" IVar="5" Cut="1.6030731797218323e-01" cType="1" res="4.4200643897056580e-02" rms="4.5686244964599609e-01" purity="6.3069933652877808e-01" nType="0">
            <Node pos="l" depth="3" NCoef="0" IVar="-1" Cut="0.0000000000000000e+00" cType="1" res="-1.0360689833760262e-02" rms="4.7679632902145386e-01" purity="4.7997763752937317e-01" nType="-99"/>
            <Node pos="r" depth="3" NCoef="0" IVar="-1" Cut="0.0000000000000000e+00" cType="1" res="1.3138087466359138e-02" rms="4.5178106427192688e-01" purity="6.5486371517181396e-01" nType="-99"/>
          </Node>
        </Node>
        <Node pos="r" depth="1" NCoef="0" IVar="2" Cut="8.0239265441894531e+01" cType="1" res="-6.4489677548408508e-02" rms="4.2516341805458069e-01" purity="2.7002099156379700e-01" nType="0">
          <Node pos="l" depth="2" NCoef="0" IVar="-1" Cut="0.0000000000000000e+00" cType="1" res="-5.1930337212979794e-04" rms="4.7527822852134705e-01" purity="3.8720563054084778e-01" nType="-99"/>
          <Node pos="r" depth="2" NCoef="0" IVar="12" Cut="1.6100407409667969e+02" cType="1" res="-1.1190483719110489e-01" rms="3.7564095854759216e-01" purity="1.8051739037036896e-01" nType="0">
            <Node pos="l" depth="3" NCoef="0" IVar="-1" Cut="0.0000000000000000e+00" cType="1" res="-1.9503211602568626e-02" rms="4.1308927536010742e-01" purity="2.3206371068954468e-01" nType="-99"/>
            <Node pos="r" depth="3" NCoef="0" IVar="-1" Cut="0.0000000000000000e+00" cType="1" res="-3.5551898181438446e-02" rms="3.3580309152603149e-01" purity="1.3365818560123444e-01" nType="-99"/>
          </Node>
        </Node>
      </Node>
    </BinaryTree>
    <BinaryTree type="DecisionTree" boostWeight="1.0000000000000000e+00" itree="18">
      <Node pos="s" depth="0" NCoef="0" IVar="12" Cut="8.6846435546875000e+01" cType="1" res="-1.8025215249508619e-03" rms="4.5358073711395264e-01" purity="4.9910929799079895e-01" nType="0">
        <Node pos="l" depth="1" NCoef="0" IVar="0" Cut="2.6614391803741455e+00" cType="1" res="2.3040883243083954e-02" rms="4.5767691731452942e-01" purity="6.0388147830963135e-01" nType="0">
          <Node pos="l" depth="2" NCoef="0" IVar="17" Cut="1.4796130371093750e+02" cType="1" res="-1.4199204742908478e-02" rms="4.6983799338340759e-01" purity="5.0823926925659180e-01" nType="0">
            <Node pos="l" depth="3" NCoef="0" IVar="-1" Cut="0.0000000000000000e+00" cType="1" res="4.5993068488314748e-04" rms="4.7946465015411377e-01" purity="5.6958556175231934e-01" nType="-99"/>
            <Node pos="r" depth="3" NCoef="0" IVar="-1" Cut="0.0000000000000000e+00" cType="1" res="-1.8870975822210312e-02" rms="4.2153388261795044e-01" purity="2.5676888227462769e-01" nType="-99"/>
          </Node>
          <Node pos="r" depth="2" NCoef="0" IVar="5" Cut="3.3563724160194397e-01" cType="1" res="5.6335039436817169e-02" rms="4.4388666749000549e-01" purity="6.8938940763473511e-01" nType="0">
            <Node pos="l" depth="3" NCoef="0" IVar="-1" Cut="0.0000000000000000e+00" cType="1" res="5.3689493797719479e-03" rms="4.6166783571243286e-01" purity="6.3651782274246216e-01" nType="-99"/>
            <Node pos="r" depth="3" NCoef="0" IVar="-1" Cut="0.0000000000000000e+00" cType="1" res="2.1656986325979233e-02" rms="4.1937187314033508e-01" purity="7.5056010484695435e-01" nType="-99"/>
          </Node>
        </Node>
        <Node pos="r" depth="1" NCoef="0" IVar="2" Cut="5.3559474945068359e+01" cType="1" res="-4.5872338116168976e-02" rms="4.4280594587326050e-01" purity="3.1325358152389526e-01" nType="0">
          <Node pos="l" depth="2" NCoef="0" IVar="-1" Cut="0.0000000000000000e+00" cType="1" res="6.2249857001006603e-03" rms="4.9121651053428650e-01" purity="4.6950769424438477e-01" nType="-99"/>
          <Node pos="r" depth="2" NCoef="0" IVar="8" Cut="2.2241673469543457e+00" cType="1" res="-6.3314758241176605e-02" rms="4.2902556061744690e-01" purity="2.7736526727676392e-01" nType="0">
            <Node pos="l" depth="3" NCoef="0" IVar="-1" Cut="0.0000000000000000e+00" cType="1" res="-2.4359032511711121e-02" rms="3.8863402605056763e-01" purity="2.0418277382850647e-01" nType="-99"/>
            <Node pos="r" depth="3" NCoef="0" IVar="-1" Cut="0.0000000000000000e+00" cType="1" res="-7.8704804182052612e-03" rms="4.5531600713729858e-01" purity="3.3290636539459229e-01" nType="-99"/>
          </Node>
        </Node>
      </Node>
    </BinaryTree>
    <BinaryTree type="DecisionTree" boostWeight="1.0000000000000000e+00" itree="19">
      <Node pos="s" depth="0" NCoef="0" IVar="8" Cut="3.5730450153350830e+00" cType="1" res="-1.3276196550577879e-03" rms="4.5323476195335388e-01" purity="4.9891808629035950e-01" nType="0">
        <Node pos="l" depth="1" NCoef="0" IVar="6" Cut="6.1654018402099609e+01" cType="1" res="-1.9414123147726059e-02" rms="4.5097774267196655e-01" purity="4.5497271418571472e-01" nType="0">
          <Node pos="l" depth="2" NCoef="0" IVar="12" Cut="6.0635425567626953e+01" cType="1" res="3.7856999784708023e-02" rms="4.4550034403800964e-01" purity="6.7411017417907715e-01" nType="0">
            <Node pos="l" depth="3" NCoef="0" IVar="-1" Cut="0.0000000000000000e+00" cType="1" res="1.6627052798867226e-02" rms="4.2251271009445190e-01" purity="7.6056122779846191e-01" nType="-99"/>
            <Node pos="r" depth="3" NCoef="0" IVar="-1" Cut="0.0000000000000000e+00" cType="1" res="-4.9207890406250954e-03" rms="4.7974237799644470e-01" purity="5.1221370697021484e-01" nType="-99"/>
          </Node>
          <Node pos="r" depth="2" NCoef="0" IVar="5" Cut="4.0164488554000854e-01" cType="1" res="-3.3612631261348724e-02" rms="4.5120230317115784e-01" purity="4.0064471960067749e-01" nType="0">
            <Node pos="l" depth="3" NCoef="0" IVar="-1" Cut="0.0000000000000000e+00" cType="1" res="-1.0990206152200699e-02" rms="4.4961678981781006e-01" purity="3.7578824162483215e-01" nType="-99"/>
            <Node pos="r" depth="3" NCoef="0" IVar="-1" Cut="0.0000000000000000e+00" cType="1" res="2.4079568684101105e-03" rms="4.5291697978973389e-01" purity="4.7326570749282837e-01" nType="-99"/>
          </Node>
        </Node>
        <Node pos="r" depth="1" NCoef="0" IVar="9" Cut="9.9893333435058594e+01" cType="1" res="5.0698649138212204e-02" rms="4.5568031072616577e-01" purity="6.2532800436019897e-01" nType="0">
          <Node pos="l" depth="2" NCoef="0" IVar="-1" Cut="0.0000000000000000e+00" cType="1" res="2.2524949163198471e-02" rms="4.2488420009613037e-01" purity="7.3077386617660522e-01" nType="-99"/>
          <Node pos="r" depth="2" NCoef="0" IVar="13" Cut="5.3484981536865234e+01" cType="1" res="1.5803439542651176e-02" rms="4.7287756204605103e-01" purity="5.5171787738800049e-01" nType="0">
            <Node pos="l" depth="3" NCoef="0" IVar="-1" Cut="0.0000000000000000e+00" cType="1" res="8.5985818877816200e-03" rms="4.6578571200370789e-01" purity="6.1087501049041748e-01" nType="-99"/>
            <Node pos="r" depth="3" NCoef="0" IVar="-1" Cut="0.0000000000000000e+00" cType="1" res="-5.2595590241253376e-03" rms="4.8212164640426636e-01" purity="4.4964206218719482e-01" nType="-99"/>
          </Node>
        </Node>
      </Node>
    </BinaryTree>
    <BinaryTree type="DecisionTree" boostWeight="1.0000000000000000e+00" itree="20">
      <Node pos="s" depth="0" NCoef="0" IVar="8" Cut="4.1179695129394531e+00" cType="1" res="5.5267952848225832e-04" rms="4.5258092880249023e-01" purity="5.0061666965484619e-01" nType="0">
        <Node pos="l" depth="1" NCoef="0" IVar="15" Cut="1.5987495422363281e+02" cType="1" res="-1.3017863035202026e-02" rms="4.5234194397926331e-01" purity="4.6964681148529053e-01" nType="0">
          <Node pos="l" depth="2" NCoef="0" IVar="13" Cut="6.2755432128906250e+01" cType="1" res="2.5816215202212334e-03" rms="4.5955955982208252e-01" purity="5.2229672670364380e-01" nType="0">
            <Node pos="l" depth="3" NCoef="0" IVar="-1" Cut="0.0000000000000000e+00" cType="1" res="2.7625302318483591e-03" rms="4.6110120415687561e-01" purity="5.4797238111495972e-01" nType="-99"/>
            <Node pos="r" depth="3" NCoef="0" IVar="-1" Cut="0.0000000000000000e+00" cType="1" res="-1.9642209634184837e-02" rms="4.3513923883438110e-01" purity="2.8841438889503479e-01" nType="-99"/>
          </Node>
          <Node pos="r" depth="2" NCoef="0" IVar="7" Cut="2.4842686653137207e+00" cType="1" res="-7.5917817652225494e-02" rms="4.1609713435173035e-01" purity="2.5735300779342651e-01" nType="0">
            <Node pos="l" depth="3" NCoef="0" IVar="-1" Cut="0.0000000000000000e+00" cType="1" res="-2.6606352999806404e-02" rms="3.9150968194007874e-01" purity="2.1446949243545532e-01" nType="-99"/>
            <Node pos="r" depth="3" NCoef="0" IVar="-1" Cut="0.0000000000000000e+00" cType="1" res="-7.6579879969358444e-03" rms="4.4124379754066467e-01" purity="3.1110012531280518e-01" nType="-99"/>
          </Node>
        </Node>
        <Node pos="r" depth="1" NCoef="0" IVar="9" Cut="9.8912811279296875e+01" cType="1" res="7.4086315929889679e-02" rms="4.4676193594932556e-01" purity="6.6843038797378540e-01" nType="0">
          <Node pos="l" depth="2" NCoef="0" IVar="-1" Cut="0.0000000000000000e+00" cType="1" res="2.7465088292956352e-02" rms="4.0551111102104187e-01" purity="7.7528440952301025e-01" nType="-99"/>
          <Node pos="r" depth="2" NCoef="0" IVar="-1" Cut="0.0000000000000000e+00" cType="1" res="9.2262635007500648e-03" rms="4.7038173675537109e-01" purity="5.9532266855239868e-01" nType="-99"/>
        </Node>
      </Node>
    </BinaryTree>
    <BinaryTree type="DecisionTree" boostWeight="1.0000000000000000e+00" itree="21">
      <Node pos="s" depth="0" NCoef="0" IVar="0" Cut="2.6990630626678467e+00" cType="1" res="4.0275178616866469e-04" rms="4.5115929841995239e-01" purity="5.0028932094573975e-01" nType="0">
        <Node pos="l" depth="1" NCoef="0" IVar="8" Cut="1.9502545595169067e+00" cType="1" res="-2.4354241788387299e-02" rms="4.5412844419479370e-01" purity="4.1818532347679138e-01" nType="0">
          <Node pos="l" depth="2" NCoef="0" IVar="6" Cut="1.5975592041015625e+02" cType="1" res="-6.8020448088645935e-02" rms="4.2529129981994629e-01" purity="3.3096128702163696e-01" nType="0">
            <Node pos="l" depth="3" NCoef="0" IVar="-1" Cut="0.0000000000000000e+00" cType="1" res="-8.7857637554407120e-03" rms="4.7146087884902954e-01" purity="4.6561518311500549e-01" nType="-99"/>
            <Node pos="r" depth="3" NCoef="0" IVar="-1" Cut="0.0000000000000000e+00" cType="1" res="-2.7817057445645332e-02" rms="3.5200163722038269e-01" purity="1.5322503447532654e-01" nType="-99"/>
          </Node>
          <Node pos="r" depth="2" NCoef="0" IVar="2" Cut="7.5483474731445312e+01" cType="1" res="-7.0835719816386700e-03" rms="4.6390783786773682e-01" purity="4.5268374681472778e-01" nType="0">
            <Node pos="l" depth="3" NCoef="0" IVar="-1" Cut="0.0000000000000000e+00" cType="1" res="4.1230395436286926e-03" rms="4.8136037588119507e-01" purity="5.2848094701766968e-01" nType="-99"/>
            <Node pos="r" depth="3" NCoef="0" IVar="-1" Cut="0.0000000000000000e+00" cType="1" res="-7.9418169334530830e-03" rms="4.4342705607414246e-01" purity="3.7409004569053650e-01" nType="-99"/>
          </Node>
        </Node>
        <Node pos="r" depth="1" NCoef="0" IVar="5" Cut="3.1441929936408997e-01" cType="1" res="3.5248573869466782e-02" rms="4.4461721181869507e-01" purity="6.1585193872451782e-01" nType="0">
          <Node pos="l" depth="2" NCoef="0" IVar="12" Cut="6.7844810485839844e+01" cType="1" res="-1.3094908790662885e-03" rms="4.5419934391975403e-01" purity="5.4839646816253662e-01" nType="0">
            <Node pos="l" depth="3" NCoef="0" IVar="-1" Cut="0.0000000000000000e+00" cType="1" res="8.9891972020268440e-03" rms="4.5034071803092957e-01" purity="6.7637747526168823e-01" nType="-99"/>
            <Node pos="r" depth="3" NCoef="0" IVar="-1" Cut="0.0000000000000000e+00" cType="1" res="-1.3154804706573486e-02" rms="4.5311090350151062e-01" purity="3.6498916149139404e-01" nType="-99"/>
          </Node>
          <Node pos="r" depth="2" NCoef="0" IVar="15" Cut="1.2583380126953125e+02" cType="1" res="7.1373797953128815e-02" rms="4.3191221356391907e-01" purity="6.8250864744186401e-01" nType="0">
            <Node pos="l" depth="3" NCoef="0" IVar="-1" Cut="0.0000000000000000e+00" cType="1" res="2.0884549245238304e-02" rms="4.1811123490333557e-01" purity="7.4197196960449219e-01" nType="-99"/>
            <Node pos="r" depth="3" NCoef="0" IVar="-1" Cut="0.0000000000000000e+00" cType="1" res="7.5758416205644608e-03" rms="4.5978453755378723e-01" purity="5.4616963863372803e-01" nType="-99"/>
          </Node>
        </Node>
      </Node>
    </BinaryTree>
    <BinaryTree type="DecisionTree" boostWeight="1.0000000000000000e+00" itree="22">
      <Node pos="s" depth="0" NCoef="0" IVar="15" Cut="1.3293704223632812e+02" cType="1" res="1.9778185524046421e-03" rms="4.5048898458480835e-01" purity="5.0235044956207275e-01" nType="0">
        <Node pos="l" depth="1" NCoef="0" IVar="0" Cut="2.5421874523162842e+00" cType="1" res="2.1082235500216484e-02" rms="4.5238047838211060e-01" purity="5.7289308309555054e-01" nType="0">
          <Node pos="l" depth="2" NCoef="0" IVar="8" Cut="1.9518787860870361e+00" cType="1" res="-1.2401894666254520e-02" rms="4.6298518776893616e-01" purity="4.5332869887351990e-01" nType="0">
            <Node pos="l" depth="3" NCoef="0" IVar="-1" Cut="0.0000000000000000e+00" cType="1" res="-1.4196446165442467e-02" rms="4.3630257248878479e-01" purity="3.5399121046066284e-01" nType="-99"/>
            <Node pos="r" depth="3" NCoef="0" IVar="-1" Cut="0.0000000000000000e+00" cType="1" res="1.0090048890560865e-03" rms="4.7070774435997009e-01" purity="4.8784196376800537e-01" nType="-99"/>
          </Node>
          <Node pos="r" depth="2" NCoef="0" IVar="5" Cut="3.6039030551910400e-01" cType="1" res="4.6925093978643417e-02" rms="4.4229286909103394e-01" purity="6.6517221927642822e-01" nType="0">
            <Node pos="l" depth="3" NCoef="0" IVar="-1" Cut="0.0000000000000000e+00" cType="1" res="4.9967826344072819e-03" rms="4.5360675454139709e-01" purity="6.2102603912353516e-01" nType="-99"/>
            <Node pos="r" depth="3" NCoef="0" IVar="-1" Cut="0.0000000000000000e+00" cType="1" res="2.0029237493872643e-02" rms="4.2173990607261658e-01" purity="7.3239636421203613e-01" nType="-99"/>
          </Node>
        </Node>
        <Node pos="r" depth="1" NCoef="0" IVar="16" Cut="8.5951034545898438e+01" cType="1" res="-3.6914173513650894e-02" rms="4.4408115744590759e-01" purity="3.5874262452125549e-01" nType="0">
          <Node pos="l" depth="2" NCoef="0" IVar="2" Cut="5.8854484558105469e+01" cType="1" res="-5.7397149503231049e-02" rms="4.3981623649597168e-01" purity="3.1839391589164734e-01" nType="0">
            <Node pos="l" depth="3" NCoef="0" IVar="-1" Cut="0.0000000000000000e+00" cType="1" res="4.9291504546999931e-04" rms="4.9120017886161804e-01" purity="4.4285243749618530e-01" nType="-99"/>
            <Node pos="r" depth="3" NCoef="0" IVar="-1" Cut="0.0000000000000000e+00" cType="1" res="-1.8402529880404472e-02" rms="4.1951066255569458e-01" purity="2.7709981799125671e-01" nType="-99"/>
          </Node>
          <Node pos="r" depth="2" NCoef="0" IVar="11" Cut="1.6794122457504272e+00" cType="1" res="2.7186787337996066e-04" rms="4.4934111833572388e-01" purity="4.3199416995048523e-01" nType="0">
            <Node pos="l" depth="3" NCoef="0" IVar="-1" Cut="0.0000000000000000e+00" cType="1" res="7.6565374620258808e-03" rms="4.5094433426856995e-01" purity="5.3542822599411011e-01" nType="-99"/>
            <Node pos="r" depth="3" NCoef="0" IVar="-1" Cut="0.0000000000000000e+00" cType="1" res="-6.1303973197937012e-03" rms="4.4625309109687805e-01" purity="3.4998938441276550e-01" nType="-99"/>
          </Node>
        </Node>
      </Node>
    </BinaryTree>
    <BinaryTree type="DecisionTree" boostWeight="1.0000000000000000e+00" itree="23">
      <Node pos="s" depth="0" NCoef="0" IVar="8" Cut="3.8454744815826416e+00" cType="1" res="-2.1151197142899036e-03" rms="4.5064532756805420e-01" purity="4.9906870722770691e-01" nType="0">
        <Node pos="l" depth="1" NCoef="0" IVar="6" Cut="6.5079338073730469e+01" cType="1" res="-1.4864496886730194e-02" rms="4.4982761144638062e-01" purity="4.6213275194168091e-01" nType="0">
          <Node pos="l" depth="2" NCoef="0" IVar="12" Cut="5.6999530792236328e+01" cType="1" res="3.2816134393215179e-02" rms="4.4217929244041443e-01" purity="6.7717415094375610e-01" nType="0">
            <Node pos="l" depth="3" NCoef="0" IVar="-1" Cut="0.0000000000000000e+00" cType="1" res="1.6339167952537537e-02" rms="4.1466969251632690e-01" purity="7.7208626270294189e-01" nType="-99"/>
            <Node pos="r" depth="3" NCoef="0" IVar="-1" Cut="0.0000000000000000e+00" cType="1" res="-3.5932061728090048e-03" rms="4.7460868954658508e-01" purity="5.4087436199188232e-01" nType="-99"/>
          </Node>
          <Node pos="r" depth="2" NCoef="0" IVar="10" Cut="3.0629520416259766e+00" cType="1" res="-2.8113951906561852e-02" rms="4.5103588700294495e-01" purity="4.0237724781036377e-01" nType="0">
            <Node pos="l" depth="3" NCoef="0" IVar="-1" Cut="0.0000000000000000e+00" cType="1" res="-9.3310121446847916e-03" rms="4.4746062159538269e-01" purity="3.8236150145530701e-01" nType="-99"/>
            <Node pos="r" depth="3" NCoef="0" IVar="-1" Cut="0.0000000000000000e+00" cType="1" res="2.9843032825738192e-03" rms="4.6004912257194519e-01" purity="4.6742194890975952e-01" nType="-99"/>
          </Node>
        </Node>
        <Node pos="r" depth="1" NCoef="0" IVar="9" Cut="1.2062777709960938e+02" cType="1" res="4.7696296125650406e-02" rms="4.5037955045700073e-01" purity="6.4337617158889771e-01" nType="0">
          <Node pos="l" depth="2" NCoef="0" IVar="-1" Cut="0.0000000000000000e+00" cType="1" res="1.9723318517208099e-02" rms="4.2368143796920776e-01" purity="7.3693954944610596e-01" nType="-99"/>
          <Node pos="r" depth="2" NCoef="0" IVar="-1" Cut="0.0000000000000000e+00" cType="1" res="1.1072624474763870e-03" rms="4.7504898905754089e-01" purity="5.3813678026199341e-01" nType="-99"/>
        </Node>
      </Node>
    </BinaryTree>
    <BinaryTree type="DecisionTree" boostWeight="1.0000000000000000e+00" itree="24">
      <Node pos="s" depth="0" NCoef="0" IVar="6" Cut="2.4691963195800781e+02" cType="1" res="-1.5174061991274357e-03" rms="4.5144808292388916e-01" purity="4.9845156073570251e-01" nType="0">
        <Node pos="l" depth="1" NCoef="0" IVar="13" Cut="2.4194488525390625e+01" cType="1" res="7.2057829238474369e-03" rms="4.5960581302642822e-01" purity="5.3947407007217407e-01" nType="0">
          <Node pos="l" depth="2" NCoef="0" IVar="-1" Cut="0.0000000000000000e+00" cType="1" res="-1.3176799751818180e-02" rms="4.5978999137878418e-01" purity="5.1367980241775513e-01" nType="-99"/>
          <Node pos="r" depth="2" NCoef="0" IVar="13" Cut="5.2392814636230469e+01" cType="1" res="1.5059604309499264e-02" rms="4.5895648002624512e-01" purity="5.4256683588027954e-01" nType="0">
            <Node pos="l" depth="3" NCoef="0" IVar="-1" Cut="0.0000000000000000e+00" cType="1" res="6.2307300977408886e-03" rms="4.5611414313316345e-01" purity="5.9058970212936401e-01" nType="-99"/>
            <Node pos="r" depth="3" NCoef="0" IVar="-1" Cut="0.0000000000000000e+00" cType="1" res="-5.2811563946306705e-03" rms="4.6543604135513306e-01" purity="3.9484536647796631e-01" nType="-99"/>
          </Node>
        </Node>
        <Node pos="r" depth="1" NCoef="0" IVar="2" Cut="9.9823783874511719e+01" cType="1" res="-6.4468391239643097e-02" rms="3.8165348768234253e-01" purity="2.0241183042526245e-01" nType="0">
          <Node pos="l" depth="2" NCoef="0" IVar="-1" Cut="0.0000000000000000e+00" cType="1" res="-6.2644025310873985e-03" rms="4.3538889288902283e-01" purity="2.9214459657669067e-01" nType="-99"/>
          <Node pos="r" depth="2" NCoef="0" IVar="-1" Cut="0.0000000000000000e+00" cType="1" res="-2.8101703152060509e-02" rms="3.2750350236892700e-01" purity="1.2848533689975739e-01" nType="-99"/>
        </Node>
      </Node>
    </BinaryTree>
    <BinaryTree type="DecisionTree" boostWeight="1.0000000000000000e+00" itree="25">
      <Node pos="s" depth="0" NCoef="0" IVar="6" Cut="2.5013424682617188e+02" cType="1" res="2.2526425309479237e-03" rms="4.4988238811492920e-01" purity="5.0305253267288208e-01" nType="0">
        <Node pos="l" depth="1" NCoef="0" IVar="5" Cut="3.4951370954513550e-01" cType="1" res="1.0698872618377209e-02" rms="4.5782339572906494e-01" purity="5.4366457462310791e-01" nType="0">
          <Node pos="l" depth="2" NCoef="0" IVar="1" Cut="8.2844978332519531e+01" cType="1" res="-6.0954056680202484e-03" rms="4.6327266097068787e-01" purity="5.0322121381759644e-01" nType="0">
            <Node pos="l" depth="3" NCoef="0" IVar="-1" Cut="0.0000000000000000e+00" cType="1" res="1.2675362639129162e-02" rms="4.7541356086730957e-01" purity="6.3207256793975830e-01" nType="-99"/>
            <Node pos="r" depth="3" NCoef="0" IVar="-1" Cut="0.0000000000000000e+00" cType="1" res="-3.6470780614763498e-03" rms="4.6045660972595215e-01" purity="4.8256573081016541e-01" nType="-99"/>
          </Node>
          <Node pos="r" depth="2" NCoef="0" IVar="0" Cut="2.1435582637786865e+00" cType="1" res="3.8688220083713531e-02" rms="4.4719532132148743e-01" purity="6.1106759309768677e-01" nType="0">
            <Node pos="l" depth="3" NCoef="0" IVar="-1" Cut="0.0000000000000000e+00" cType="1" res="-8.0953240394592285e-03" rms="4.6376848220825195e-01" purity="4.0825542807579041e-01" nType="-99"/>
            <Node pos="r" depth="3" NCoef="0" IVar="-1" Cut="0.0000000000000000e+00" cType="1" res="1.2990959919989109e-02" rms="4.4153380393981934e-01" purity="6.5723764896392822e-01" nType="-99"/>
          </Node>
        </Node>
        <Node pos="r" depth="1" NCoef="0" IVar="2" Cut="9.9372863769531250e+01" cType="1" res="-6.1339527368545532e-02" rms="3.7887057662010193e-01" purity="1.9728183746337891e-01" nType="0">
          <Node pos="l" depth="2" NCoef="0" IVar="-1" Cut="0.0000000000000000e+00" cType="1" res="-6.2392926774919033e-03" rms="4.3660646677017212e-01" purity="2.8909453749656677e-01" nType="-99"/>
          <Node pos="r" depth="2" NCoef="0" IVar="-1" Cut="0.0000000000000000e+00" cType="1" res="-2.7311280369758606e-02" rms="3.2200777530670166e-01" purity="1.2317766994237900e-01" nType="-99"/>
        </Node>
      </Node>
    </BinaryTree>
    <BinaryTree type="DecisionTree" boostWeight="1.0000000000000000e+00" itree="26">
      <Node pos="s" depth="0" NCoef="0" IVar="8" Cut="3.7616500854492188e+00" cType="1" res="8.9616526383906603e-04" rms="4.4916212558746338e-01" purity="5.0202220678329468e-01" nType="0">
        <Node pos="l" depth="1" NCoef="0" IVar="12" Cut="1.0230177307128906e+02" cType="1" res="-1.1402867734432220e-02" rms="4.4822797179222107e-01" purity="4.6203160285949707e-01" nType="0">
          <Node pos="l" depth="2" NCoef="0" IVar="5" Cut="1.4128684997558594e-01" cType="1" res="3.0073493253439665e-03" rms="4.6063455939292908e-01" purity="5.4765301942825317e-01" nType="0">
            <Node pos="l" depth="3" NCoef="0" IVar="-1" Cut="0.0000000000000000e+00" cType="1" res="-1.5337303280830383e-02" rms="4.6829447150230408e-01" purity="4.1260835528373718e-01" nType="-99"/>
            <Node pos="r" depth="3" NCoef="0" IVar="-1" Cut="0.0000000000000000e+00" cType="1" res="3.2575658988207579e-03" rms="4.5838302373886108e-01" purity="5.6832581758499146e-01" nType="-99"/>
          </Node>
          <Node pos="r" depth="2" NCoef="0" IVar="2" Cut="6.9539451599121094e+01" cType="1" res="-4.8324234783649445e-02" rms="4.1245901584625244e-01" purity="2.4265526235103607e-01" nType="0">
            <Node pos="l" depth="3" NCoef="0" IVar="-1" Cut="0.0000000000000000e+00" cType="1" res="-1.3742119335802272e-05" rms="4.7148782014846802e-01" purity="3.6315903067588806e-01" nType="-99"/>
            <Node pos="r" depth="3" NCoef="0" IVar="-1" Cut="0.0000000000000000e+00" cType="1" res="-1.8318559974431992e-02" rms="3.8299116492271423e-01" purity="1.9175311923027039e-01" nType="-99"/>
          </Node>
        </Node>
        <Node pos="r" depth="1" NCoef="0" IVar="9" Cut="1.0283190917968750e+02" cType="1" res="4.4678792357444763e-02" rms="4.4975036382675171e-01" purity="6.4438265562057495e-01" nType="0">
          <Node pos="l" depth="2" NCoef="0" IVar="-1" Cut="0.0000000000000000e+00" cType="1" res="1.9391259178519249e-02" rms="4.1695508360862732e-01" purity="7.4910694360733032e-01" nType="-99"/>
          <Node pos="r" depth="2" NCoef="0" IVar="15" Cut="1.3458009338378906e+02" cType="1" res="1.6486130654811859e-02" rms="4.7092425823211670e-01" purity="5.6573086977005005e-01" nType="0">
            <Node pos="l" depth="3" NCoef="0" IVar="-1" Cut="0.0000000000000000e+00" cType="1" res="8.4853665903210640e-03" rms="4.6179249882698059e-01" purity="6.4683133363723755e-01" nType="-99"/>
            <Node pos="r" depth="3" NCoef="0" IVar="-1" Cut="0.0000000000000000e+00" cType="1" res="-2.8086544480174780e-03" rms="4.8165345191955566e-01" purity="4.5379951596260071e-01" nType="-99"/>
          </Node>
        </Node>
      </Node>
    </BinaryTree>
    <BinaryTree type="DecisionTree" boostWeight="1.0000000000000000e+00" itree="27">
      <Node pos="s" depth="0" NCoef="0" IVar="8" Cut="4.2543120384216309e+00" cType="1" res="-8.9460302842780948e-04" rms="4.5027202367782593e-01" purity="4.9930545687675476e-01" nType="0">
        <Node pos="l" depth="1" NCoef="0" IVar="6" Cut="2.4961656188964844e+02" cType="1" res="-9.7118318080902100e-03" rms="4.5056793093681335e-01" purity="4.7216323018074036e-01" nType="0">
          <Node pos="l" depth="2" NCoef="0" IVar="5" Cut="3.6217507719993591e-01" cType="1" res="-2.1641529165208340e-03" rms="4.6079874038696289e-01" purity="5.1535803079605103e-01" nType="0">
            <Node pos="l" depth="3" NCoef="0" IVar="-1" Cut="0.0000000000000000e+00" cType="1" res="-3.8166933227330446e-03" rms="4.6472901105880737e-01" purity="4.7863313555717468e-01" nType="-99"/>
            <Node pos="r" depth="3" NCoef="0" IVar="-1" Cut="0.0000000000000000e+00" cType="1" res="6.6551035270094872e-03" rms="4.5100310444831848e-01" purity="5.9113448858261108e-01" nType="-99"/>
          </Node>
          <Node pos="r" depth="2" NCoef="0" IVar="10" Cut="2.3104250431060791e+00" cType="1" res="-6.0949821025133133e-02" rms="3.6973297595977783e-01" purity="1.7893183231353760e-01" nType="0">
            <Node pos="l" depth="3" NCoef="0" IVar="-1" Cut="0.0000000000000000e+00" cType="1" res="-2.5009009987115860e-02" rms="3.4938007593154907e-01" purity="1.5523973107337952e-01" nType="-99"/>
            <Node pos="r" depth="3" NCoef="0" IVar="-1" Cut="0.0000000000000000e+00" cType="1" res="-8.5085248574614525e-03" rms="3.8951337337493896e-01" purity="2.0623369514942169e-01" nType="-99"/>
          </Node>
        </Node>
        <Node pos="r" depth="1" NCoef="0" IVar="9" Cut="1.2357604980468750e+02" cType="1" res="5.5839817970991135e-02" rms="4.4419661164283752e-01" purity="6.7395216226577759e-01" nType="0">
          <Node pos="l" depth="2" NCoef="0" IVar="-1" Cut="0.0000000000000000e+00" cType="1" res="2.1068491041660309e-02" rms="4.1038873791694641e-01" purity="7.6921433210372925e-01" nType="-99"/>
          <Node pos="r" depth="2" NCoef="0" IVar="-1" Cut="0.0000000000000000e+00" cType="1" res="4.0442645549774170e-03" rms="4.7803851962089539e-01" purity="5.6264209747314453e-01" nType="-99"/>
        </Node>
      </Node>
    </BinaryTree>
    <BinaryTree type="DecisionTree" boostWeight="1.0000000000000000e+00" itree="28">
      <Node pos="s" depth="0" NCoef="0" IVar="8" Cut="3.2901866436004639e+00" cType="1" res="-9.7143725724890828e-04" rms="4.4887745380401611e-01" purity="4.9830037355422974e-01" nType="0">
        <Node pos="l" depth="1" NCoef="0" IVar="6" Cut="8.1726531982421875e+01" cType="1" res="-1.5200801193714142e-02" rms="4.4478726387023926e-01" purity="4.4660735130310059e-01" nType="0">
          <Node pos="l" depth="2" NCoef="0" IVar="12" Cut="5.4665275573730469e+01" cType="1" res="1.4590536244213581e-02" rms="4.4926387071609497e-01" purity="6.4875608682632446e-01" nType="0">
            <Node pos="l" depth="3" NCoef="0" IVar="-1" Cut="0.0000000000000000e+00" cType="1" res="1.0859747417271137e-02" rms="4.2595392465591431e-01" purity="7.5003010034561157e-01" nType="-99"/>
            <Node pos="r" depth="3" NCoef="0" IVar="-1" Cut="0.0000000000000000e+00" cType="1" res="-3.7263857666403055e-03" rms="4.7059673070907593e-01" purity="5.4176425933837891e-01" nType="-99"/>
          </Node>
          <Node pos="r" depth="2" NCoef="0" IVar="8" Cut="1.9655470848083496e+00" cType="1" res="-2.8901256620883942e-02" rms="4.4203990697860718e-01" purity="3.5364311933517456e-01" nType="0">
            <Node pos="l" depth="3" NCoef="0" IVar="-1" Cut="0.0000000000000000e+00" cType="1" res="-1.3120267540216446e-02" rms="4.2242202162742615e-01" purity="3.2037669420242310e-01" nType="-99"/>
            <Node pos="r" depth="3" NCoef="0" IVar="-1" Cut="0.0000000000000000e+00" cType="1" res="-2.2401663009077311e-03" rms="4.5550587773323059e-01" purity="3.7903356552124023e-01" nType="-99"/>
          </Node>
        </Node>
        <Node pos="r" depth="1" NCoef="0" IVar="0" Cut="2.2252469062805176e+00" cType="1" res="2.9098501428961754e-02" rms="4.5594215393066406e-01" purity="6.0753977298736572e-01" nType="0">
          <Node pos="l" depth="2" NCoef="0" IVar="2" Cut="6.1796821594238281e+01" cType="1" res="-5.7116430252790451e-03" rms="4.7850888967514038e-01" purity="4.8672243952751160e-01" nType="0">
            <Node pos="l" depth="3" NCoef="0" IVar="-1" Cut="0.0000000000000000e+00" cType="1" res="6.5286261960864067e-03" rms="4.8513537645339966e-01" purity="5.7896971702575684e-01" nType="-99"/>
            <Node pos="r" depth="3" NCoef="0" IVar="-1" Cut="0.0000000000000000e+00" cType="1" res="-9.8530650138854980e-03" rms="4.6812525391578674e-01" purity="3.8834258913993835e-01" nType="-99"/>
          </Node>
          <Node pos="r" depth="2" NCoef="0" IVar="10" Cut="2.2720568180084229e+00" cType="1" res="4.6144392341375351e-02" rms="4.4347843527793884e-01" purity="6.6670179367065430e-01" nType="0">
            <Node pos="l" depth="3" NCoef="0" IVar="-1" Cut="0.0000000000000000e+00" cType="1" res="1.9503885880112648e-02" rms="4.2222839593887329e-01" purity="7.2632086277008057e-01" nType="-99"/>
            <Node pos="r" depth="3" NCoef="0" IVar="-1" Cut="0.0000000000000000e+00" cType="1" res="4.4309338554739952e-03" rms="4.5628979802131653e-01" purity="6.2381011247634888e-01" nType="-99"/>
          </Node>
        </Node>
      </Node>
    </BinaryTree>
    <BinaryTree type="DecisionTree" boostWeight="1.0000000000000000e+00" itree="29">
      <Node pos="s" depth="0" NCoef="0" IVar="15" Cut="1.5076385498046875e+02" cType="1" res="8.3852472016587853e-05" rms="4.4944262504577637e-01" purity="4.9946478009223938e-01" nType="0">
        <Node pos="l" depth="1" NCoef="0" IVar="5" Cut="1.8701262772083282e-01" cType="1" res="1.0498464107513428e-02" rms="4.5359054207801819e-01" purity="5.5594342947006226e-01" nType="0">
          <Node pos="l" depth="2" NCoef="0" IVar="13" Cut="3.1776462554931641e+01" cType="1" res="-3.7898246198892593e-02" rms="4.6541929244995117e-01" purity="4.3897309899330139e-01" nType="0">
            <Node pos="l" depth="3" NCoef="0" IVar="-1" Cut="0.0000000000000000e+00" cType="1" res="-1.9163448363542557e-02" rms="4.6474519371986389e-01" purity="4.1899690032005310e-01" nType="-99"/>
            <Node pos="r" depth="3" NCoef="0" IVar="-1" Cut="0.0000000000000000e+00" cType="1" res="-2.3986152373254299e-03" rms="4.6353951096534729e-01" purity="4.4973081350326538e-01" nType="-99"/>
          </Node>
          <Node pos="r" depth="2" NCoef="0" IVar="13" Cut="5.8584835052490234e+01" cType="1" res="2.3188371211290359e-02" rms="4.4957625865936279e-01" purity="5.8661377429962158e-01" nType="0">
            <Node pos="l" depth="3" NCoef="0" IVar="-1" Cut="0.0000000000000000e+00" cType="1" res="7.5766616500914097e-03" rms="4.4860506057739258e-01" purity="6.1599504947662354e-01" nType="-99"/>
            <Node pos="r" depth="3" NCoef="0" IVar="-1" Cut="0.0000000000000000e+00" cType="1" res="-1.1238185688853264e-02" rms="4.5061749219894409e-01" purity="3.5677507519721985e-01" nType="-99"/>
          </Node>
        </Node>
        <Node pos="r" depth="1" NCoef="0" IVar="2" Cut="5.5920555114746094e+01" cType="1" res="-3.4063711762428284e-02" rms="4.3381503224372864e-01" purity="3.1428182125091553e-01" nType="0">
          <Node pos="l" depth="2" NCoef="0" IVar="-1" Cut="0.0000000000000000e+00" cType="1" res="6.4369146712124348e-03" rms="4.8961862921714783e-01" purity="4.5851263403892517e-01" nType="-99"/>
          <Node pos="r" depth="2" NCoef="0" IVar="15" Cut="1.9891238403320312e+02" cType="1" res="-5.2183147519826889e-02" rms="4.1495668888092041e-01" purity="2.7366307377815247e-01" nType="0">
            <Node pos="l" depth="3" NCoef="0" IVar="-1" Cut="0.0000000000000000e+00" cType="1" res="-6.7961835302412510e-03" rms="4.4264683127403259e-01" purity="3.4137919545173645e-01" nType="-99"/>
            <Node pos="r" depth="3" NCoef="0" IVar="-1" Cut="0.0000000000000000e+00" cType="1" res="-2.1916365250945091e-02" rms="3.7428817152976990e-01" purity="1.8677356839179993e-01" nType="-99"/>
          </Node>
        </Node>
      </Node>
    </BinaryTree>
    <BinaryTree type="DecisionTree" boostWeight="1.0000000000000000e+00" itree="30">
      <Node pos="s" depth="0" NCoef="0" IVar="14" Cut="1.7989215850830078e+00" cType="1" res="1.7359713092446327e-03" rms="4.4885465502738953e-01" purity="5.0173866748809814e-01" nType="0">
        <Node pos="l" depth="1" NCoef="0" IVar="8" Cut="2.2232930660247803e+00" cType="1" res="-7.0481561124324799e-03" rms="4.5239156484603882e-01" purity="4.6311873197555542e-01" nType="0">
          <Node pos="l" depth="2" NCoef="0" IVar="5" Cut="4.2335075139999390e-01" cType="1" res="-3.2515008002519608e-02" rms="4.3731427192687988e-01" purity="3.9562630653381348e-01" nType="0">
            <Node pos="l" depth="3" NCoef="0" IVar="-1" Cut="0.0000000000000000e+00" cType="1" res="-1.1152708902955055e-02" rms="4.3536755442619324e-01" purity="3.6311197280883789e-01" nType="-99"/>
            <Node pos="r" depth="3" NCoef="0" IVar="-1" Cut="0.0000000000000000e+00" cType="1" res="1.9830262754112482e-03" rms="4.4058534502983093e-01" purity="4.9295175075531006e-01" nType="-99"/>
          </Node>
          <Node pos="r" depth="2" NCoef="0" IVar="13" Cut="2.6842990875244141e+01" cType="1" res="8.9772734791040421e-03" rms="4.6090605854988098e-01" purity="5.0558942556381226e-01" nType="0">
            <Node pos="l" depth="3" NCoef="0" IVar="-1" Cut="0.0000000000000000e+00" cType="1" res="-8.6474996060132980e-03" rms="4.6147298812866211e-01" purity="5.0383901596069336e-01" nType="-99"/>
            <Node pos="r" depth="3" NCoef="0" IVar="-1" Cut="0.0000000000000000e+00" cType="1" res="4.2082173749804497e-03" rms="4.6019417047500610e-01" purity="5.0594681501388550e-01" nType="-99"/>
          </Node>
        </Node>
        <Node pos="r" depth="1" NCoef="0" IVar="13" Cut="2.9235828399658203e+01" cType="1" res="4.4416874647140503e-02" rms="4.2870241403579712e-01" purity="6.8938791751861572e-01" nType="0">
          <Node pos="l" depth="2" NCoef="0" IVar="-1" Cut="0.0000000000000000e+00" cType="1" res="1.9753074739128351e-03" rms="4.3999031186103821e-01" purity="6.6806912422180176e-01" nType="-99"/>
          <Node pos="r" depth="2" NCoef="0" IVar="-1" Cut="0.0000000000000000e+00" cType="1" res="1.4935319311916828e-02" rms="4.2175519466400146e-01" purity="7.0008099079132080e-01" nType="-99"/>
        </Node>
      </Node>
    </BinaryTree>
    <BinaryTree type="DecisionTree" boostWeight="1.0000000000000000e+00" itree="31">
      <Node pos="s" depth="0" NCoef="0" IVar="8" Cut="2.5815896987915039e+00" cType="1" res="-8.2061137072741985e-04" rms="4.4827947020530701e-01" purity="5.0035005807876587e-01" nType="0">
        <Node pos="l" depth="1" NCoef="0" IVar="6" Cut="5.8490859985351562e+01" cType="1" res="-1.9710995256900787e-02" rms="4.3803942203521729e-01" purity="4.3846127390861511e-01" nType="0">
          <Node pos="l" depth="2" NCoef="0" IVar="-1" Cut="0.0000000000000000e+00" cType="1" res="7.0228944532573223e-03" rms="4.3635544180870056e-01" purity="6.8334615230560303e-01" nType="-99"/>
          <Node pos="r" depth="2" NCoef="0" IVar="10" Cut="2.5796074867248535e+00" cType="1" res="-3.2373666763305664e-02" rms="4.3758359551429749e-01" purity="3.7510383129119873e-01" nType="0">
            <Node pos="l" depth="3" NCoef="0" IVar="-1" Cut="0.0000000000000000e+00" cType="1" res="-1.3328858651220798e-02" rms="4.2758220434188843e-01" purity="3.4034931659698486e-01" nType="-99"/>
            <Node pos="r" depth="3" NCoef="0" IVar="-1" Cut="0.0000000000000000e+00" cType="1" res="-1.3616462238132954e-03" rms="4.4765883684158325e-01" purity="4.1620239615440369e-01" nType="-99"/>
          </Node>
        </Node>
        <Node pos="r" depth="1" NCoef="0" IVar="0" Cut="2.5672576427459717e+00" cType="1" res="1.7269100993871689e-02" rms="4.5713981986045837e-01" purity="5.5961573123931885e-01" nType="0">
          <Node pos="l" depth="2" NCoef="0" IVar="2" Cut="1.0741443634033203e+02" cType="1" res="-3.4791524522006512e-03" rms="4.6947193145751953e-01" purity="4.7036474943161011e-01" nType="0">
            <Node pos="l" depth="3" NCoef="0" IVar="-1" Cut="0.0000000000000000e+00" cType="1" res="1.7801929498091340e-03" rms="4.7893428802490234e-01" purity="5.1036924123764038e-01" nType="-99"/>
            <Node pos="r" depth="3" NCoef="0" IVar="-1" Cut="0.0000000000000000e+00" cType="1" res="-1.2665380723774433e-02" rms="4.2437595129013062e-01" purity="3.0381247401237488e-01" nType="-99"/>
          </Node>
          <Node pos="r" depth="2" NCoef="0" IVar="13" Cut="4.9620006561279297e+01" cType="1" res="3.9528455585241318e-02" rms="4.4244790077209473e-01" purity="6.5536689758300781e-01" nType="0">
            <Node pos="l" depth="3" NCoef="0" IVar="-1" Cut="0.0000000000000000e+00" cType="1" res="1.2248570099473000e-02" rms="4.3304741382598877e-01" purity="7.0083343982696533e-01" nType="-99"/>
            <Node pos="r" depth="3" NCoef="0" IVar="-1" Cut="0.0000000000000000e+00" cType="1" res="-9.1000931570306420e-04" rms="4.7303700447082520e-01" purity="4.8725941777229309e-01" nType="-99"/>
          </Node>
        </Node>
      </Node>
    </BinaryTree>
    <BinaryTree type="DecisionTree" boostWeight="1.0000000000000000e+00" itree="32">
      <Node pos="s" depth="0" NCoef="0" IVar="14" Cut="2.2266240119934082e+00" cType="1" res="1.5352695481851697e-04" rms="4.4767054915428162e-01" purity="5.0133621692657471e-01" nType="0">
        <Node pos="l" depth="1" NCoef="0" IVar="15" Cut="1.4393812561035156e+02" cType="1" res="-5.3328662179410458e-03" rms="4.5030462741851807e-01" purity="4.8153972625732422e-01" nType="0">
          <Node pos="l" depth="2" NCoef="0" IVar="5" Cut="1.4932954311370850e-01" cType="1" res="5.2405018359422684e-03" rms="4.5521911978721619e-01" purity="5.4334038496017456e-01" nType="0">
            <Node pos="l" depth="3" NCoef="0" IVar="-1" Cut="0.0000000000000000e+00" cType="1" res="-1.0767859406769276e-02" rms="4.6124345064163208e-01" purity="4.1097345948219299e-01" nType="-99"/>
            <Node pos="r" depth="3" NCoef="0" IVar="-1" Cut="0.0000000000000000e+00" cType="1" res="3.1732334755361080e-03" rms="4.5368689298629761e-01" purity="5.6400156021118164e-01" nType="-99"/>
          </Node>
          <Node pos="r" depth="2" NCoef="0" IVar="2" Cut="7.6289093017578125e+01" cType="1" res="-3.3982641994953156e-02" rms="4.3542185425758362e-01" purity="3.1408381462097168e-01" nType="0">
            <Node pos="l" depth="3" NCoef="0" IVar="-1" Cut="0.0000000000000000e+00" cType="1" res="1.2323894770815969e-03" rms="4.8127418756484985e-01" purity="4.1189959645271301e-01" nType="-99"/>
            <Node pos="r" depth="3" NCoef="0" IVar="-1" Cut="0.0000000000000000e+00" cType="1" res="-1.5932528302073479e-02" rms="3.9855504035949707e-01" purity="2.4677179753780365e-01" nType="-99"/>
          </Node>
        </Node>
        <Node pos="r" depth="1" NCoef="0" IVar="-1" Cut="0.0000000000000000e+00" cType="1" res="1.6133595257997513e-02" rms="4.0945675969123840e-01" purity="7.3682445287704468e-01" nType="-99"/>
      </Node>
    </BinaryTree>
    <BinaryTree type="DecisionTree" boostWeight="1.0000000000000000e+00" itree="33">
      <Node pos="s" depth="0" NCoef="0" IVar="13" Cut="2.7723838806152344e+01" cType="1" res="3.2926345011219382e-04" rms="4.4846102595329285e-01" purity="5.0022286176681519e-01" nType="0">
        <Node pos="l" depth="1" NCoef="0" IVar="5" Cut="3.2787302136421204e-01" cType="1" res="-3.5104840993881226e-02" rms="4.4988113641738892e-01" purity="5.1597410440444946e-01" nType="0">
          <Node pos="l" depth="2" NCoef="0" IVar="10" Cut="2.0843281745910645e+00" cType="1" res="-6.8545274436473846e-02" rms="4.5387950539588928e-01" purity="4.4939175248146057e-01" nType="0">
            <Node pos="l" depth="3" NCoef="0" IVar="-1" Cut="0.0000000000000000e+00" cType="1" res="-2.2269451990723610e-02" rms="4.4824242591857910e-01" purity="4.1542157530784607e-01" nType="-99"/>
