<?xml version="1.0"?>
<MethodSetup Method="BDT::BDTG_vbfpol_nsel2_v6">
  <GeneralInfo>
    <Info name="TMVA Release" value="4.2.1 [262657]"/>
    <Info name="ROOT Release" value="6.30/09 [400905]"/>
    <Info name="Creator" value="ceballos"/>
    <Info name="Date" value="Tue Mar 31 08:16:21 2026"/>
    <Info name="Host" value="Linux cmsbuild145.cern.ch 4.18.0-553.8.1.el8_10.x86_64 #1 SMP Tue Jul 2 07:26:33 EDT 2024 x86_64 x86_64 x86_64 GNU/Linux"/>
    <Info name="Dir" value="/home/submit/ceballos/cms/MitAnalysisRunIII/rdf/mva_training"/>
    <Info name="Training events" value="350855"/>
    <Info name="TrainingTime" value="2.31380115e+02"/>
    <Info name="AnalysisType" value="Classification"/>
  </GeneralInfo>
  <Options>
    <Option name="V" modified="Yes">False</Option>
    <Option name="VerbosityLevel" modified="No">Default</Option>
    <Option name="VarTransform" modified="No">None</Option>
    <Option name="H" modified="Yes">False</Option>
    <Option name="CreateMVAPdfs" modified="No">False</Option>
    <Option name="IgnoreNegWeightsInTraining" modified="No">False</Option>
    <Option name="NTrees" modified="Yes">1000</Option>
    <Option name="MaxDepth" modified="Yes">3</Option>
    <Option name="MinNodeSize" modified="Yes">5%</Option>
    <Option name="nCuts" modified="Yes">1000</Option>
    <Option name="BoostType" modified="Yes">Grad</Option>
    <Option name="AdaBoostR2Loss" modified="No">quadratic</Option>
    <Option name="UseBaggedBoost" modified="Yes">True</Option>
    <Option name="Shrinkage" modified="Yes">1.000000e-01</Option>
    <Option name="AdaBoostBeta" modified="No">5.000000e-01</Option>
    <Option name="UseRandomisedTrees" modified="No">False</Option>
    <Option name="UseNvars" modified="No">4</Option>
    <Option name="UsePoissonNvars" modified="No">True</Option>
    <Option name="BaggedSampleFraction" modified="No">3.000000e-01</Option>
    <Option name="UseYesNoLeaf" modified="No">True</Option>
    <Option name="NegWeightTreatment" modified="Yes">ignorenegweightsintraining</Option>
    <Option name="Css" modified="No">1.000000e+00</Option>
    <Option name="Cts_sb" modified="No">1.000000e+00</Option>
    <Option name="Ctb_ss" modified="No">1.000000e+00</Option>
    <Option name="Cbb" modified="No">1.000000e+00</Option>
    <Option name="NodePurityLimit" modified="No">5.000000e-01</Option>
    <Option name="SeparationType" modified="No">giniindex</Option>
    <Option name="RegressionLossFunctionBDTG" modified="No">huber</Option>
    <Option name="HuberQuantile" modified="No">7.000000e-01</Option>
    <Option name="DoBoostMonitor" modified="No">False</Option>
    <Option name="UseFisherCuts" modified="No">False</Option>
    <Option name="MinLinCorrForFisher" modified="No">8.000000e-01</Option>
    <Option name="UseExclusiveVars" modified="No">False</Option>
    <Option name="DoPreselection" modified="No">False</Option>
    <Option name="SigToBkgFraction" modified="No">1.000000e+00</Option>
    <Option name="PruneMethod" modified="No">nopruning</Option>
    <Option name="PruneStrength" modified="No">0.000000e+00</Option>
    <Option name="PruningValFraction" modified="No">5.000000e-01</Option>
    <Option name="SkipNormalization" modified="No">False</Option>
    <Option name="nEventsMin" modified="No">0</Option>
    <Option name="UseBaggedGrad" modified="No">False</Option>
    <Option name="GradBaggingFraction" modified="Yes">3.000000e-01</Option>
    <Option name="UseNTrainEvents" modified="No">0</Option>
    <Option name="NNodesMax" modified="No">0</Option>
  </Options>
  <Variables NVar="19">
    <Variable VarIndex="0" Expression="vbs_mjj" Label="vbs_mjj" Title="vbs_mjj" Unit="" Internal="vbs_mjj" Type="F" Min="5.00006195e+02" Max="1.10847393e+04"/>
    <Variable VarIndex="1" Expression="vbs_dphijj" Label="vbs_dphijj" Title="vbs_dphijj" Unit="" Internal="vbs_dphijj" Type="F" Min="0.00000000e+00" Max="3.14158392e+00"/>
    <Variable VarIndex="2" Expression="vbs_ptj1" Label="vbs_ptj1" Title="vbs_ptj1" Unit="" Internal="vbs_ptj1" Type="F" Min="5.00214233e+01" Max="1.74620520e+03"/>
    <Variable VarIndex="3" Expression="vbs_ptj2" Label="vbs_ptj2" Title="vbs_ptj2" Unit="" Internal="vbs_ptj2" Type="F" Min="5.00006256e+01" Max="9.67266418e+02"/>
    <Variable VarIndex="4" Expression="vbs_etaj1" Label="vbs_etaj1" Title="vbs_etaj1" Unit="" Internal="vbs_etaj1" Type="F" Min="3.24100256e-06" Max="4.69824219e+00"/>
    <Variable VarIndex="5" Expression="vbs_zepvv" Label="vbs_zepvv" Title="vbs_zepvv" Unit="" Internal="vbs_zepvv" Type="F" Min="1.61755096e-07" Max="9.99947548e-01"/>
    <Variable VarIndex="6" Expression="vbs_zepmax" Label="vbs_zepmax" Title="vbs_zepmax" Unit="" Internal="vbs_zepmax" Type="F" Min="5.24204981e-04" Max="1.76402581e+00"/>
    <Variable VarIndex="7" Expression="vbs_ptvv" Label="vbs_ptvv" Title="vbs_ptvv" Unit="" Internal="vbs_ptvv" Type="F" Min="4.27972913e-01" Max="1.69584839e+03"/>
    <Variable VarIndex="8" Expression="vbs_detavvj1" Label="vbs_detavvj1" Title="vbs_detavvj1" Unit="" Internal="vbs_detavvj1" Type="F" Min="5.36181142e-05" Max="9.87580681e+00"/>
    <Variable VarIndex="9" Expression="vbs_detavvj2" Label="vbs_detavvj2" Title="vbs_detavvj2" Unit="" Internal="vbs_detavvj2" Type="F" Min="2.82763558e-05" Max="1.04885616e+01"/>
    <Variable VarIndex="10" Expression="mllDef" Label="mllDef" Title="mllDef" Unit="" Internal="mllDef" Type="F" Min="2.00018826e+01" Max="2.98117529e+03"/>
    <Variable VarIndex="11" Expression="drllDef" Label="drllDef" Title="drllDef" Unit="" Internal="drllDef" Type="F" Min="9.62796733e-02" Max="5.79928875e+00"/>
    <Variable VarIndex="12" Expression="dphillDef" Label="dphillDef" Title="dphillDef" Unit="" Internal="dphillDef" Type="F" Min="0.00000000e+00" Max="3.14158392e+00"/>
    <Variable VarIndex="13" Expression="ptl1Def" Label="ptl1Def" Title="ptl1Def" Unit="" Internal="ptl1Def" Type="F" Min="2.50051060e+01" Max="1.62287695e+03"/>
    <Variable VarIndex="14" Expression="ptl2Def" Label="ptl2Def" Title="ptl2Def" Unit="" Internal="ptl2Def" Type="F" Min="2.00000362e+01" Max="1.30911267e+03"/>
    <Variable VarIndex="15" Expression="dPhilMETMinDef" Label="dPhilMETMinDef" Title="dPhilMETMinDef" Unit="" Internal="dPhilMETMinDef" Type="F" Min="4.52995300e-06" Max="3.13480926e+00"/>
    <Variable VarIndex="16" Expression="mtwmaxDef" Label="mtwmaxDef" Title="mtwmaxDef" Unit="" Internal="mtwmaxDef" Type="F" Min="2.12147072e-01" Max="3.11410083e+03"/>
    <Variable VarIndex="17" Expression="mtwminDef" Label="mtwminDef" Title="mtwminDef" Unit="" Internal="mtwminDef" Type="F" Min="0.00000000e+00" Max="4.50455414e+02"/>
    <Variable VarIndex="18" Expression="PuppiMET_ptDef" Label="PuppiMET_ptDef" Title="PuppiMET_ptDef" Unit="" Internal="PuppiMET_ptDef" Type="F" Min="3.00002899e+01" Max="1.66211646e+03"/>
  </Variables>
  <Spectators NSpec="0"/>
  <Classes NClass="2">
    <Class Name="Signal" Index="0"/>
    <Class Name="Background" Index="1"/>
  </Classes>
  <Transformations NTransformations="0"/>
  <MVAPdfs/>
  <Weights NTrees="1000" AnalysisType="1">
    <BinaryTree type="DecisionTree" boostWeight="1.0000000000000000e+00" itree="0">
      <Node pos="s" depth="0" NCoef="0" IVar="7" Cut="1.3472100830078125e+02" cType="1" res="1.2825168669223785e-03" rms="4.9999836087226868e-01" purity="5.0128251314163208e-01" nType="0">
        <Node pos="l" depth="1" NCoef="0" IVar="13" Cut="7.7389511108398438e+01" cType="1" res="1.2031305581331253e-01" rms="4.8530894517898560e-01" purity="6.2031304836273193e-01" nType="0">
          <Node pos="l" depth="2" NCoef="0" IVar="1" Cut="2.3695263862609863e+00" cType="1" res="1.9420450925827026e-01" rms="4.6074354648590088e-01" purity="6.9420450925827026e-01" nType="0">
            <Node pos="l" depth="3" NCoef="0" IVar="-1" Cut="0.0000000000000000e+00" cType="1" res="6.9625526666641235e-03" rms="4.9878659844398499e-01" purity="5.3481274843215942e-01" nType="-99"/>
            <Node pos="r" depth="3" NCoef="0" IVar="-1" Cut="0.0000000000000000e+00" cType="1" res="4.4709417968988419e-02" rms="4.4724345207214355e-01" purity="7.2354710102081299e-01" nType="-99"/>
          </Node>
          <Node pos="r" depth="2" NCoef="0" IVar="13" Cut="1.0886260986328125e+02" cType="1" res="-8.4039211273193359e-02" rms="4.9288681149482727e-01" purity="4.1596078872680664e-01" nType="0">
            <Node pos="l" depth="3" NCoef="0" IVar="-1" Cut="0.0000000000000000e+00" cType="1" res="-2.6080161333084106e-03" rms="4.9982991814613342e-01" purity="4.8695990443229675e-01" nType="-99"/>
            <Node pos="r" depth="3" NCoef="0" IVar="-1" Cut="0.0000000000000000e+00" cType="1" res="-3.8496714085340500e-02" rms="4.6146515011787415e-01" purity="3.0751642584800720e-01" nType="-99"/>
          </Node>
        </Node>
        <Node pos="r" depth="1" NCoef="0" IVar="7" Cut="2.0356068420410156e+02" cType="1" res="-1.8008418381214142e-01" rms="4.6644365787506104e-01" purity="3.1991580128669739e-01" nType="0">
          <Node pos="l" depth="2" NCoef="0" IVar="13" Cut="1.1990062713623047e+02" cType="1" res="-9.6783436834812164e-02" rms="4.9054354429244995e-01" purity="4.0321654081344604e-01" nType="0">
            <Node pos="l" depth="3" NCoef="0" IVar="-1" Cut="0.0000000000000000e+00" cType="1" res="-1.0396488010883331e-02" rms="4.9729049205780029e-01" purity="4.4801756739616394e-01" nType="-99"/>
            <Node pos="r" depth="3" NCoef="0" IVar="-1" Cut="0.0000000000000000e+00" cType="1" res="-4.6940650790929794e-02" rms="4.4149109721183777e-01" purity="2.6529675722122192e-01" nType="-99"/>
          </Node>
          <Node pos="r" depth="2" NCoef="0" IVar="9" Cut="2.9042067527770996e+00" cType="1" res="-2.7061372995376587e-01" rms="4.2043811082839966e-01" purity="2.2938627004623413e-01" nType="0">
            <Node pos="l" depth="3" NCoef="0" IVar="-1" Cut="0.0000000000000000e+00" cType="1" res="-6.6620521247386932e-02" rms="3.7288424372673035e-01" purity="1.6689740121364594e-01" nType="-99"/>
            <Node pos="r" depth="3" NCoef="0" IVar="-1" Cut="0.0000000000000000e+00" cType="1" res="-3.1225668266415596e-02" rms="4.7499889135360718e-01" purity="3.4387165307998657e-01" nType="-99"/>
          </Node>
        </Node>
      </Node>
    </BinaryTree>
    <BinaryTree type="DecisionTree" boostWeight="1.0000000000000000e+00" itree="1">
      <Node pos="s" depth="0" NCoef="0" IVar="7" Cut="1.2411534881591797e+02" cType="1" res="-1.0936707258224487e-03" rms="4.9233603477478027e-01" purity="4.9887922406196594e-01" nType="0">
        <Node pos="l" depth="1" NCoef="0" IVar="13" Cut="8.2068557739257812e+01" cType="1" res="1.2162925302982330e-01" rms="4.7774958610534668e-01" purity="6.3422363996505737e-01" nType="0">
          <Node pos="l" depth="2" NCoef="0" IVar="6" Cut="1.9301810860633850e-01" cType="1" res="1.7967167496681213e-01" rms="4.5795235037803650e-01" purity="6.9832265377044678e-01" nType="0">
            <Node pos="l" depth="3" NCoef="0" IVar="-1" Cut="0.0000000000000000e+00" cType="1" res="1.2520741671323776e-02" rms="4.9250903725624084e-01" purity="5.8050739765167236e-01" nType="-99"/>
            <Node pos="r" depth="3" NCoef="0" IVar="-1" Cut="0.0000000000000000e+00" cType="1" res="4.1555333882570267e-02" rms="4.4487595558166504e-01" purity="7.2623795270919800e-01" nType="-99"/>
          </Node>
          <Node pos="r" depth="2" NCoef="0" IVar="13" Cut="1.0289578247070312e+02" cType="1" res="-8.7525755167007446e-02" rms="4.8898988962173462e-01" purity="4.0324366092681885e-01" nType="0">
            <Node pos="l" depth="3" NCoef="0" IVar="-1" Cut="0.0000000000000000e+00" cType="1" res="3.3293478190898895e-04" rms="4.9999988079071045e-01" purity="5.0036060810089111e-01" nType="-99"/>
            <Node pos="r" depth="3" NCoef="0" IVar="-1" Cut="0.0000000000000000e+00" cType="1" res="-3.3779803663492203e-02" rms="4.6408656239509583e-01" purity="3.1486862897872925e-01" nType="-99"/>
          </Node>
        </Node>
        <Node pos="r" depth="1" NCoef="0" IVar="7" Cut="2.1519467163085938e+02" cType="1" res="-1.5428003668785095e-01" rms="4.6668168902397156e-01" purity="3.2993844151496887e-01" nType="0">
          <Node pos="l" depth="2" NCoef="0" IVar="13" Cut="1.1043554687500000e+02" cType="1" res="-8.8274538516998291e-02" rms="4.8847612738609314e-01" purity="4.0297389030456543e-01" nType="0">
            <Node pos="l" depth="3" NCoef="0" IVar="-1" Cut="0.0000000000000000e+00" cType="1" res="-7.8506376594305038e-03" rms="4.9732786417007446e-01" purity="4.5696470141410828e-01" nType="-99"/>
            <Node pos="r" depth="3" NCoef="0" IVar="-1" Cut="0.0000000000000000e+00" cType="1" res="-4.1694588959217072e-02" rms="4.4392323493957520e-01" purity="2.7108451724052429e-01" nType="-99"/>
          </Node>
          <Node pos="r" depth="2" NCoef="0" IVar="9" Cut="2.8373672962188721e+00" cType="1" res="-2.6080197095870972e-01" rms="4.0720808506011963e-01" purity="2.1207135915756226e-01" nType="0">
            <Node pos="l" depth="3" NCoef="0" IVar="-1" Cut="0.0000000000000000e+00" cType="1" res="-6.3671074807643890e-02" rms="3.5686779022216797e-01" purity="1.4979237318038940e-01" nType="-99"/>
            <Node pos="r" depth="3" NCoef="0" IVar="-1" Cut="0.0000000000000000e+00" cType="1" res="-3.3126026391983032e-02" rms="4.6551531553268433e-01" purity="3.1786021590232849e-01" nType="-99"/>
          </Node>
        </Node>
      </Node>
    </BinaryTree>
    <BinaryTree type="DecisionTree" boostWeight="1.0000000000000000e+00" itree="2">
      <Node pos="s" depth="0" NCoef="0" IVar="7" Cut="1.4702571105957031e+02" cType="1" res="-2.4235355667769909e-03" rms="4.8625004291534424e-01" purity="4.9738270044326782e-01" nType="0">
        <Node pos="l" depth="1" NCoef="0" IVar="13" Cut="8.5283332824707031e+01" cType="1" res="8.4203317761421204e-02" rms="4.8132428526878357e-01" purity="6.0385209321975708e-01" nType="0">
          <Node pos="l" depth="2" NCoef="0" IVar="1" Cut="2.2787797451019287e+00" cType="1" res="1.3924798369407654e-01" rms="4.6717295050621033e-01" purity="6.7061477899551392e-01" nType="0">
            <Node pos="l" depth="3" NCoef="0" IVar="-1" Cut="0.0000000000000000e+00" cType="1" res="-4.5288931578397751e-03" rms="4.9928402900695801e-01" purity="4.8933658003807068e-01" nType="-99"/>
            <Node pos="r" depth="3" NCoef="0" IVar="-1" Cut="0.0000000000000000e+00" cType="1" res="3.3362157642841339e-02" rms="4.5620834827423096e-01" purity="7.0043659210205078e-01" nType="-99"/>
          </Node>
          <Node pos="r" depth="2" NCoef="0" IVar="9" Cut="2.8053827285766602e+00" cType="1" res="-1.0711746662855148e-01" rms="4.8082357645034790e-01" purity="3.7180238962173462e-01" nType="0">
            <Node pos="l" depth="3" NCoef="0" IVar="-1" Cut="0.0000000000000000e+00" cType="1" res="-3.2799314707517624e-02" rms="4.6211308240890503e-01" purity="3.1523910164833069e-01" nType="-99"/>
            <Node pos="r" depth="3" NCoef="0" IVar="-1" Cut="0.0000000000000000e+00" cType="1" res="-6.9170147180557251e-03" rms="4.9451097846031189e-01" purity="4.4464787840843201e-01" nType="-99"/>
          </Node>
        </Node>
        <Node pos="r" depth="1" NCoef="0" IVar="9" Cut="3.0682752132415771e+00" cType="1" res="-1.6444732248783112e-01" rms="4.5284211635589600e-01" purity="2.9824620485305786e-01" nType="0">
          <Node pos="l" depth="2" NCoef="0" IVar="7" Cut="2.1976271057128906e+02" cType="1" res="-2.1166057884693146e-01" rms="4.2624756693840027e-01" purity="2.4576914310455322e-01" nType="0">
            <Node pos="l" depth="3" NCoef="0" IVar="-1" Cut="0.0000000000000000e+00" cType="1" res="-3.1467627733945847e-02" rms="4.6390813589096069e-01" purity="3.1890106201171875e-01" nType="-99"/>
            <Node pos="r" depth="3" NCoef="0" IVar="-1" Cut="0.0000000000000000e+00" cType="1" res="-5.4889228194952011e-02" rms="3.7329483032226562e-01" purity="1.6787707805633545e-01" nType="-99"/>
          </Node>
          <Node pos="r" depth="2" NCoef="0" IVar="1" Cut="2.0902574062347412e+00" cType="1" res="-6.0264401137828827e-02" rms="4.9079748988151550e-01" purity="4.1404443979263306e-01" nType="0">
            <Node pos="l" depth="3" NCoef="0" IVar="-1" Cut="0.0000000000000000e+00" cType="1" res="-2.6898315176367760e-02" rms="4.7231423854827881e-01" purity="3.3854439854621887e-01" nType="-99"/>
            <Node pos="r" depth="3" NCoef="0" IVar="-1" Cut="0.0000000000000000e+00" cType="1" res="4.9418108537793159e-03" rms="4.9790206551551819e-01" purity="5.0096285343170166e-01" nType="-99"/>
          </Node>
        </Node>
      </Node>
    </BinaryTree>
    <BinaryTree type="DecisionTree" boostWeight="1.0000000000000000e+00" itree="3">
      <Node pos="s" depth="0" NCoef="0" IVar="7" Cut="1.3540710449218750e+02" cType="1" res="1.6880360199138522e-03" rms="4.8070946335792542e-01" purity="5.0140190124511719e-01" nType="0">
        <Node pos="l" depth="1" NCoef="0" IVar="13" Cut="8.4081642150878906e+01" cType="1" res="9.0298995375633240e-02" rms="4.7468438744544983e-01" purity="6.2157607078552246e-01" nType="0">
          <Node pos="l" depth="2" NCoef="0" IVar="1" Cut="2.6835134029388428e+00" cType="1" res="1.3940481841564178e-01" rms="4.6044161915779114e-01" purity="6.8778920173645020e-01" nType="0">
            <Node pos="l" depth="3" NCoef="0" IVar="-1" Cut="0.0000000000000000e+00" cType="1" res="1.1796217411756516e-02" rms="4.8774060606956482e-01" purity="5.9630697965621948e-01" nType="-99"/>
            <Node pos="r" depth="3" NCoef="0" IVar="-1" Cut="0.0000000000000000e+00" cType="1" res="3.7650115787982941e-02" rms="4.3724262714385986e-01" purity="7.4043715000152588e-01" nType="-99"/>
          </Node>
          <Node pos="r" depth="2" NCoef="0" IVar="13" Cut="1.0406666564941406e+02" cType="1" res="-8.5133336484432220e-02" rms="4.8323485255241394e-01" purity="3.8502725958824158e-01" nType="0">
            <Node pos="l" depth="3" NCoef="0" IVar="-1" Cut="0.0000000000000000e+00" cType="1" res="-2.7772970497608185e-03" rms="4.9864289164543152e-01" purity="4.7491201758384705e-01" nType="-99"/>
            <Node pos="r" depth="3" NCoef="0" IVar="-1" Cut="0.0000000000000000e+00" cType="1" res="-2.8616780415177345e-02" rms="4.6281799674034119e-01" purity="3.1343635916709900e-01" nType="-99"/>
          </Node>
        </Node>
        <Node pos="r" depth="1" NCoef="0" IVar="9" Cut="3.0027141571044922e+00" cType="1" res="-1.3570502400398254e-01" rms="4.5711648464202881e-01" purity="3.1506949663162231e-01" nType="0">
          <Node pos="l" depth="2" NCoef="0" IVar="7" Cut="2.3541659545898438e+02" cType="1" res="-1.8317474424839020e-01" rms="4.3125489354133606e-01" purity="2.5811702013015747e-01" nType="0">
            <Node pos="l" depth="3" NCoef="0" IVar="-1" Cut="0.0000000000000000e+00" cType="1" res="-2.8286157175898552e-02" rms="4.6233466267585754e-01" purity="3.1910726428031921e-01" nType="-99"/>
            <Node pos="r" depth="3" NCoef="0" IVar="-1" Cut="0.0000000000000000e+00" cType="1" res="-5.3156632930040359e-02" rms="3.5996976494789124e-01" purity="1.5329487621784210e-01" nType="-99"/>
          </Node>
          <Node pos="r" depth="2" NCoef="0" IVar="7" Cut="2.0298406982421875e+02" cType="1" res="-4.1254762560129166e-02" rms="4.9118602275848389e-01" purity="4.2838758230209351e-01" nType="0">
            <Node pos="l" depth="3" NCoef="0" IVar="-1" Cut="0.0000000000000000e+00" cType="1" res="4.0083103813230991e-03" rms="4.9637445807456970e-01" purity="4.9804902076721191e-01" nType="-99"/>
            <Node pos="r" depth="3" NCoef="0" IVar="-1" Cut="0.0000000000000000e+00" cType="1" res="-2.2781683132052422e-02" rms="4.7506067156791687e-01" purity="3.4661602973937988e-01" nType="-99"/>
          </Node>
        </Node>
      </Node>
    </BinaryTree>
    <BinaryTree type="DecisionTree" boostWeight="1.0000000000000000e+00" itree="4">
      <Node pos="s" depth="0" NCoef="0" IVar="13" Cut="7.4299301147460938e+01" cType="1" res="-4.0009868098422885e-04" rms="4.7634613513946533e-01" purity="4.9964180588722229e-01" nType="0">
        <Node pos="l" depth="1" NCoef="0" IVar="7" Cut="1.0825899505615234e+02" cType="1" res="9.0492241084575653e-02" rms="4.6810185909271240e-01" purity="6.3032007217407227e-01" nType="0">
          <Node pos="l" depth="2" NCoef="0" IVar="6" Cut="2.2189480066299438e-01" cType="1" res="1.5537184476852417e-01" rms="4.4512093067169189e-01" purity="7.2286593914031982e-01" nType="0">
            <Node pos="l" depth="3" NCoef="0" IVar="-1" Cut="0.0000000000000000e+00" cType="1" res="1.3419484719634056e-02" rms="4.8265075683593750e-01" purity="6.2405717372894287e-01" nType="-99"/>
            <Node pos="r" depth="3" NCoef="0" IVar="-1" Cut="0.0000000000000000e+00" cType="1" res="3.7897467613220215e-02" rms="4.2750433087348938e-01" purity="7.5626528263092041e-01" nType="-99"/>
          </Node>
          <Node pos="r" depth="2" NCoef="0" IVar="1" Cut="2.2315020561218262e+00" cType="1" res="-3.0345687642693520e-02" rms="4.8555663228034973e-01" purity="4.5795401930809021e-01" nType="0">
            <Node pos="l" depth="3" NCoef="0" IVar="-1" Cut="0.0000000000000000e+00" cType="1" res="-2.5257596746087074e-02" rms="4.6425989270210266e-01" purity="3.3671936392784119e-01" nType="-99"/>
            <Node pos="r" depth="3" NCoef="0" IVar="-1" Cut="0.0000000000000000e+00" cType="1" res="6.7612952552735806e-03" rms="4.8926654458045959e-01" purity="5.3996735811233521e-01" nType="-99"/>
          </Node>
        </Node>
        <Node pos="r" depth="1" NCoef="0" IVar="13" Cut="1.1908053588867188e+02" cType="1" res="-1.1149072647094727e-01" rms="4.6258381009101868e-01" purity="3.3992391824722290e-01" nType="0">
          <Node pos="l" depth="2" NCoef="0" IVar="9" Cut="3.0097081661224365e+00" cType="1" res="-5.1428101956844330e-02" rms="4.8544147610664368e-01" purity="4.2334303259849548e-01" nType="0">
            <Node pos="l" depth="3" NCoef="0" IVar="-1" Cut="0.0000000000000000e+00" cType="1" res="-2.0135376602411270e-02" rms="4.7342365980148315e-01" purity="3.6616694927215576e-01" nType="-99"/>
            <Node pos="r" depth="3" NCoef="0" IVar="-1" Cut="0.0000000000000000e+00" cType="1" res="6.1497073620557785e-03" rms="4.9477812647819519e-01" purity="5.2156025171279907e-01" nType="-99"/>
          </Node>
          <Node pos="r" depth="2" NCoef="0" IVar="3" Cut="7.7399841308593750e+01" cType="1" res="-1.8656329810619354e-01" rms="4.2042106389999390e-01" purity="2.3565793037414551e-01" nType="0">
            <Node pos="l" depth="3" NCoef="0" IVar="-1" Cut="0.0000000000000000e+00" cType="1" res="-1.7903801053762436e-02" rms="4.7123211622238159e-01" purity="3.4184050559997559e-01" nType="-99"/>
            <Node pos="r" depth="3" NCoef="0" IVar="-1" Cut="0.0000000000000000e+00" cType="1" res="-4.7699209302663803e-02" rms="3.8691911101341248e-01" purity="1.8744271993637085e-01" nType="-99"/>
          </Node>
        </Node>
      </Node>
    </BinaryTree>
    <BinaryTree type="DecisionTree" boostWeight="1.0000000000000000e+00" itree="5">
      <Node pos="s" depth="0" NCoef="0" IVar="13" Cut="7.7682350158691406e+01" cType="1" res="-9.7817543428391218e-04" rms="4.7225356101989746e-01" purity="4.9883463978767395e-01" nType="0">
        <Node pos="l" depth="1" NCoef="0" IVar="1" Cut="2.2063271999359131e+00" cType="1" res="7.6133906841278076e-02" rms="4.6715822815895081e-01" purity="6.2339901924133301e-01" nType="0">
          <Node pos="l" depth="2" NCoef="0" IVar="18" Cut="1.1712817382812500e+02" cType="1" res="-1.0329858958721161e-01" rms="4.7120746970176697e-01" purity="3.6639052629470825e-01" nType="0">
            <Node pos="l" depth="3" NCoef="0" IVar="-1" Cut="0.0000000000000000e+00" cType="1" res="-9.6272863447666168e-03" rms="4.9675786495208740e-01" purity="4.5695695281028748e-01" nType="-99"/>
            <Node pos="r" depth="3" NCoef="0" IVar="-1" Cut="0.0000000000000000e+00" cType="1" res="-3.3198270946741104e-02" rms="4.3514645099639893e-01" purity="2.7101120352745056e-01" nType="-99"/>
          </Node>
          <Node pos="r" depth="2" NCoef="0" IVar="6" Cut="1.6923947632312775e-01" cType="1" res="1.1646553128957748e-01" rms="4.5663914084434509e-01" purity="6.8116766214370728e-01" nType="0">
            <Node pos="l" depth="3" NCoef="0" IVar="-1" Cut="0.0000000000000000e+00" cType="1" res="-2.6162085123360157e-03" rms="4.9017468094825745e-01" purity="5.3554868698120117e-01" nType="-99"/>
            <Node pos="r" depth="3" NCoef="0" IVar="-1" Cut="0.0000000000000000e+00" cType="1" res="2.8230462223291397e-02" rms="4.4749653339385986e-01" purity="7.0468538999557495e-01" nType="-99"/>
          </Node>
        </Node>
        <Node pos="r" depth="1" NCoef="0" IVar="9" Cut="2.9446721076965332e+00" cType="1" res="-1.0691235214471817e-01" rms="4.5848476886749268e-01" purity="3.2771193981170654e-01" nType="0">
          <Node pos="l" depth="2" NCoef="0" IVar="13" Cut="1.1730101776123047e+02" cType="1" res="-1.4839020371437073e-01" rms="4.3517857789993286e-01" purity="2.7139386534690857e-01" nType="0">
            <Node pos="l" depth="3" NCoef="0" IVar="-1" Cut="0.0000000000000000e+00" cType="1" res="-1.9697176292538643e-02" rms="4.7102543711662292e-01" purity="3.5317698121070862e-01" nType="-99"/>
            <Node pos="r" depth="3" NCoef="0" IVar="-1" Cut="0.0000000000000000e+00" cType="1" res="-4.2014528065919876e-02" rms="3.8996303081512451e-01" purity="1.9066843390464783e-01" nType="-99"/>
          </Node>
          <Node pos="r" depth="2" NCoef="0" IVar="14" Cut="5.8637897491455078e+01" cType="1" res="-3.6077994853258133e-02" rms="4.8766979575157166e-01" purity="4.2388984560966492e-01" nType="0">
            <Node pos="l" depth="3" NCoef="0" IVar="-1" Cut="0.0000000000000000e+00" cType="1" res="1.8226427491754293e-03" rms="4.9361598491668701e-01" purity="4.7490853071212769e-01" nType="-99"/>
            <Node pos="r" depth="3" NCoef="0" IVar="-1" Cut="0.0000000000000000e+00" cType="1" res="-2.3109313100576401e-02" rms="4.6711066365242004e-01" purity="3.3586651086807251e-01" nType="-99"/>
          </Node>
        </Node>
      </Node>
    </BinaryTree>
    <BinaryTree type="DecisionTree" boostWeight="1.0000000000000000e+00" itree="6">
      <Node pos="s" depth="0" NCoef="0" IVar="7" Cut="1.5777142333984375e+02" cType="1" res="8.5135613335296512e-04" rms="4.6946629881858826e-01" purity="5.0053143501281738e-01" nType="0">
        <Node pos="l" depth="1" NCoef="0" IVar="13" Cut="6.8104698181152344e+01" cType="1" res="5.7599712163209915e-02" rms="4.7122266888618469e-01" purity="5.9848093986511230e-01" nType="0">
          <Node pos="l" depth="2" NCoef="0" IVar="7" Cut="8.2950546264648438e+01" cType="1" res="1.1140208691358566e-01" rms="4.5415738224983215e-01" purity="6.9081664085388184e-01" nType="0">
            <Node pos="l" depth="3" NCoef="0" IVar="-1" Cut="0.0000000000000000e+00" cType="1" res="3.2718017697334290e-02" rms="4.2806351184844971e-01" purity="7.5310271978378296e-01" nType="-99"/>
            <Node pos="r" depth="3" NCoef="0" IVar="-1" Cut="0.0000000000000000e+00" cType="1" res="9.0437177568674088e-03" rms="4.8203730583190918e-01" purity="5.9964764118194580e-01" nType="-99"/>
          </Node>
          <Node pos="r" depth="2" NCoef="0" IVar="13" Cut="1.0693727111816406e+02" cType="1" res="-2.7201646938920021e-02" rms="4.8496142029762268e-01" purity="4.5294487476348877e-01" nType="0">
            <Node pos="l" depth="3" NCoef="0" IVar="-1" Cut="0.0000000000000000e+00" cType="1" res="2.4956117849797010e-03" rms="4.9318301677703857e-01" purity="5.2596515417098999e-01" nType="-99"/>
            <Node pos="r" depth="3" NCoef="0" IVar="-1" Cut="0.0000000000000000e+00" cType="1" res="-2.1997485309839249e-02" rms="4.5788270235061646e-01" purity="3.0657339096069336e-01" nType="-99"/>
          </Node>
        </Node>
        <Node pos="r" depth="1" NCoef="0" IVar="9" Cut="2.4061605930328369e+00" cType="1" res="-1.2469486892223358e-01" rms="4.4029197096824646e-01" purity="2.8383433818817139e-01" nType="0">
          <Node pos="l" depth="2" NCoef="0" IVar="6" Cut="3.5146734118461609e-01" cType="1" res="-1.8149603903293610e-01" rms="3.9690476655960083e-01" purity="2.0626579225063324e-01" nType="0">
            <Node pos="l" depth="3" NCoef="0" IVar="-1" Cut="0.0000000000000000e+00" cType="1" res="-4.5776586979627609e-02" rms="3.7040430307388306e-01" purity="1.7021901905536652e-01" nType="-99"/>
            <Node pos="r" depth="3" NCoef="0" IVar="-1" Cut="0.0000000000000000e+00" cType="1" res="-2.7219284325838089e-02" rms="4.2989656329154968e-01" purity="2.6276135444641113e-01" nType="-99"/>
          </Node>
          <Node pos="r" depth="2" NCoef="0" IVar="3" Cut="8.7422203063964844e+01" cType="1" res="-7.5123637914657593e-02" rms="4.6934437751770020e-01" purity="3.5152953863143921e-01" nType="0">
            <Node pos="l" depth="3" NCoef="0" IVar="-1" Cut="0.0000000000000000e+00" cType="1" res="-1.6980279469862580e-03" rms="4.8938938975334167e-01" purity="4.2569032311439514e-01" nType="-99"/>
            <Node pos="r" depth="3" NCoef="0" IVar="-1" Cut="0.0000000000000000e+00" cType="1" res="-2.7062838897109032e-02" rms="4.4440504908561707e-01" purity="2.8985059261322021e-01" nType="-99"/>
          </Node>
        </Node>
      </Node>
    </BinaryTree>
    <BinaryTree type="DecisionTree" boostWeight="1.0000000000000000e+00" itree="7">
      <Node pos="s" depth="0" NCoef="0" IVar="7" Cut="1.6098251342773438e+02" cType="1" res="1.8751703901216388e-03" rms="4.6632254123687744e-01" purity="5.0165194272994995e-01" nType="0">
        <Node pos="l" depth="1" NCoef="0" IVar="13" Cut="7.1305702209472656e+01" cType="1" res="5.3055331110954285e-02" rms="4.6957057714462280e-01" purity="5.9779328107833862e-01" nType="0">
          <Node pos="l" depth="2" NCoef="0" IVar="1" Cut="2.5580146312713623e+00" cType="1" res="1.0048185288906097e-01" rms="4.5458281040191650e-01" purity="6.8846881389617920e-01" nType="0">
            <Node pos="l" depth="3" NCoef="0" IVar="-1" Cut="0.0000000000000000e+00" cType="1" res="3.2672479283064604e-03" rms="4.8858839273452759e-01" purity="5.6207090616226196e-01" nType="-99"/>
            <Node pos="r" depth="3" NCoef="0" IVar="-1" Cut="0.0000000000000000e+00" cType="1" res="2.8160681948065758e-02" rms="4.3577590584754944e-01" purity="7.3880887031555176e-01" nType="-99"/>
          </Node>
          <Node pos="r" depth="2" NCoef="0" IVar="13" Cut="9.3006668090820312e+01" cType="1" res="-3.0898066237568855e-02" rms="4.8372042179107666e-01" purity="4.3728145956993103e-01" nType="0">
            <Node pos="l" depth="3" NCoef="0" IVar="-1" Cut="0.0000000000000000e+00" cType="1" res="3.4809084609150887e-03" rms="4.9282255768775940e-01" purity="5.3676086664199829e-01" nType="-99"/>
            <Node pos="r" depth="3" NCoef="0" IVar="-1" Cut="0.0000000000000000e+00" cType="1" res="-1.5061782673001289e-02" rms="4.7156822681427002e-01" purity="3.5001581907272339e-01" nType="-99"/>
          </Node>
        </Node>
        <Node pos="r" depth="1" NCoef="0" IVar="9" Cut="2.7451665401458740e+00" cType="1" res="-1.1768767237663269e-01" rms="4.3582203984260559e-01" purity="2.7705445885658264e-01" nType="0">
          <Node pos="l" depth="2" NCoef="0" IVar="7" Cut="2.8565243530273438e+02" cType="1" res="-1.5868747234344482e-01" rms="4.0061375498771667e-01" purity="2.1154132485389709e-01" nType="0">
            <Node pos="l" depth="3" NCoef="0" IVar="-1" Cut="0.0000000000000000e+00" cType="1" res="-2.8177376836538315e-02" rms="4.2763701081275940e-01" purity="2.5166049599647522e-01" nType="-99"/>
            <Node pos="r" depth="3" NCoef="0" IVar="-1" Cut="0.0000000000000000e+00" cType="1" res="-5.0340905785560608e-02" rms="3.1415471434593201e-01" purity="1.1162000149488449e-01" nType="-99"/>
          </Node>
          <Node pos="r" depth="2" NCoef="0" IVar="1" Cut="2.0368297100067139e+00" cType="1" res="-5.9256892651319504e-02" rms="4.7550067305564880e-01" purity="3.7042039632797241e-01" nType="0">
            <Node pos="l" depth="3" NCoef="0" IVar="-1" Cut="0.0000000000000000e+00" cType="1" res="-2.4147087708115578e-02" rms="4.5416912436485291e-01" purity="2.9959577322006226e-01" nType="-99"/>
            <Node pos="r" depth="3" NCoef="0" IVar="-1" Cut="0.0000000000000000e+00" cType="1" res="1.9497448811307549e-03" rms="4.9100545048713684e-01" purity="4.5501884818077087e-01" nType="-99"/>
          </Node>
        </Node>
      </Node>
    </BinaryTree>
    <BinaryTree type="DecisionTree" boostWeight="1.0000000000000000e+00" itree="8">
      <Node pos="s" depth="0" NCoef="0" IVar="7" Cut="1.3304130554199219e+02" cType="1" res="2.8037976007908583e-03" rms="4.6461179852485657e-01" purity="5.0277912616729736e-01" nType="0">
        <Node pos="l" depth="1" NCoef="0" IVar="13" Cut="6.5203681945800781e+01" cType="1" res="5.8950308710336685e-02" rms="4.6480777859687805e-01" purity="6.2404674291610718e-01" nType="0">
          <Node pos="l" depth="2" NCoef="0" IVar="7" Cut="7.8568244934082031e+01" cType="1" res="1.0401041060686111e-01" rms="4.4571813941001892e-01" purity="7.1420454978942871e-01" nType="0">
            <Node pos="l" depth="3" NCoef="0" IVar="-1" Cut="0.0000000000000000e+00" cType="1" res="2.9224537312984467e-02" rms="4.2368841171264648e-01" purity="7.6061141490936279e-01" nType="-99"/>
            <Node pos="r" depth="3" NCoef="0" IVar="-1" Cut="0.0000000000000000e+00" cType="1" res="1.0917282663285732e-02" rms="4.7363317012786865e-01" purity="6.4149266481399536e-01" nType="-99"/>
          </Node>
          <Node pos="r" depth="2" NCoef="0" IVar="0" Cut="9.9252197265625000e+02" cType="1" res="-1.0122447274625301e-02" rms="4.8456904292106628e-01" purity="4.8584371805191040e-01" nType="0">
            <Node pos="l" depth="3" NCoef="0" IVar="-1" Cut="0.0000000000000000e+00" cType="1" res="-1.5219970606267452e-02" rms="4.7743067145347595e-01" purity="4.2091396450996399e-01" nType="-99"/>
            <Node pos="r" depth="3" NCoef="0" IVar="-1" Cut="0.0000000000000000e+00" cType="1" res="4.7719944268465042e-03" rms="4.8491907119750977e-01" purity="5.1971912384033203e-01" nType="-99"/>
          </Node>
        </Node>
        <Node pos="r" depth="1" NCoef="0" IVar="9" Cut="3.4350945949554443e+00" cType="1" res="-8.0850467085838318e-02" rms="4.5155042409896851e-01" purity="3.2209917902946472e-01" nType="0">
          <Node pos="l" depth="2" NCoef="0" IVar="7" Cut="2.5415870666503906e+02" cType="1" res="-1.0950560867786407e-01" rms="4.3615823984146118e-01" purity="2.8053000569343567e-01" nType="0">
            <Node pos="l" depth="3" NCoef="0" IVar="-1" Cut="0.0000000000000000e+00" cType="1" res="-1.6574639827013016e-02" rms="4.6216863393783569e-01" purity="3.3388438820838928e-01" nType="-99"/>
            <Node pos="r" depth="3" NCoef="0" IVar="-1" Cut="0.0000000000000000e+00" cType="1" res="-4.0976174175739288e-02" rms="3.5690122842788696e-01" purity="1.5376825630664825e-01" nType="-99"/>
          </Node>
          <Node pos="r" depth="2" NCoef="0" IVar="-1" Cut="0.0000000000000000e+00" cType="1" res="4.7084847465157509e-03" rms="4.8957747220993042e-01" purity="4.7293087840080261e-01" nType="-99"/>
        </Node>
      </Node>
    </BinaryTree>
    <BinaryTree type="DecisionTree" boostWeight="1.0000000000000000e+00" itree="9">
      <Node pos="s" depth="0" NCoef="0" IVar="13" Cut="9.2353286743164062e+01" cType="1" res="-1.0591719765216112e-03" rms="4.6231538057327271e-01" purity="4.9932721257209778e-01" nType="0">
        <Node pos="l" depth="1" NCoef="0" IVar="1" Cut="2.1341428756713867e+00" cType="1" res="4.2966153472661972e-02" rms="4.6554324030876160e-01" purity="5.9874355792999268e-01" nType="0">
          <Node pos="l" depth="2" NCoef="0" IVar="10" Cut="8.8384254455566406e+01" cType="1" res="-8.3812914788722992e-02" rms="4.6624833345413208e-01" purity="3.5706356167793274e-01" nType="0">
            <Node pos="l" depth="3" NCoef="0" IVar="-1" Cut="0.0000000000000000e+00" cType="1" res="-2.9340071603655815e-02" rms="4.4433861970901489e-01" purity="2.9967468976974487e-01" nType="-99"/>
            <Node pos="r" depth="3" NCoef="0" IVar="-1" Cut="0.0000000000000000e+00" cType="1" res="-7.7592814341187477e-03" rms="4.7837299108505249e-01" purity="4.0382233262062073e-01" nType="-99"/>
          </Node>
          <Node pos="r" depth="2" NCoef="0" IVar="6" Cut="2.0916718244552612e-01" cType="1" res="7.0764020085334778e-02" rms="4.6074891090393066e-01" purity="6.5173476934432983e-01" nType="0">
            <Node pos="l" depth="3" NCoef="0" IVar="-1" Cut="0.0000000000000000e+00" cType="1" res="-4.4268928468227386e-03" rms="4.8190090060234070e-01" purity="5.4034602642059326e-01" nType="-99"/>
            <Node pos="r" depth="3" NCoef="0" IVar="-1" Cut="0.0000000000000000e+00" cType="1" res="2.0496513694524765e-02" rms="4.5115661621093750e-01" purity="6.8333756923675537e-01" nType="-99"/>
          </Node>
        </Node>
        <Node pos="r" depth="1" NCoef="0" IVar="9" Cut="2.4713768959045410e+00" cType="1" res="-9.5156513154506683e-02" rms="4.4083687663078308e-01" purity="2.8684031963348389e-01" nType="0">
          <Node pos="l" depth="2" NCoef="0" IVar="13" Cut="1.2796599578857422e+02" cType="1" res="-1.3939590752124786e-01" rms="4.0276527404785156e-01" purity="2.1577429771423340e-01" nType="0">
            <Node pos="l" depth="3" NCoef="0" IVar="-1" Cut="0.0000000000000000e+00" cType="1" res="-2.1072400733828545e-02" rms="4.4697883725166321e-01" purity="2.8868222236633301e-01" nType="-99"/>
            <Node pos="r" depth="3" NCoef="0" IVar="-1" Cut="0.0000000000000000e+00" cType="1" res="-3.8986172527074814e-02" rms="3.6094000935554504e-01" purity="1.5825410187244415e-01" nType="-99"/>
          </Node>
          <Node pos="r" depth="2" NCoef="0" IVar="3" Cut="9.2565979003906250e+01" cType="1" res="-5.1608428359031677e-02" rms="4.7130626440048218e-01" purity="3.5679584741592407e-01" nType="0">
            <Node pos="l" depth="3" NCoef="0" IVar="-1" Cut="0.0000000000000000e+00" cType="1" res="-1.1511358898133039e-03" rms="4.8855093121528625e-01" purity="4.1329777240753174e-01" nType="-99"/>
            <Node pos="r" depth="3" NCoef="0" IVar="-1" Cut="0.0000000000000000e+00" cType="1" res="-2.1856226027011871e-02" rms="4.4544926285743713e-01" purity="2.9319685697555542e-01" nType="-99"/>
          </Node>
        </Node>
      </Node>
    </BinaryTree>
    <BinaryTree type="DecisionTree" boostWeight="1.0000000000000000e+00" itree="10">
      <Node pos="s" depth="0" NCoef="0" IVar="7" Cut="9.9607124328613281e+01" cType="1" res="-3.7744115106761456e-03" rms="4.6036064624786377e-01" purity="4.9620869755744934e-01" nType="0">
        <Node pos="l" depth="1" NCoef="0" IVar="13" Cut="6.7658218383789062e+01" cType="1" res="6.3836805522441864e-02" rms="4.5437255501747131e-01" purity="6.5583664178848267e-01" nType="0">
          <Node pos="l" depth="2" NCoef="0" IVar="14" Cut="2.6897752761840820e+01" cType="1" res="9.9639698863029480e-02" rms="4.3614140152931213e-01" purity="7.3555272817611694e-01" nType="0">
            <Node pos="l" depth="3" NCoef="0" IVar="-1" Cut="0.0000000000000000e+00" cType="1" res="8.3084953948855400e-03" rms="4.6291035413742065e-01" purity="6.7280405759811401e-01" nType="-99"/>
            <Node pos="r" depth="3" NCoef="0" IVar="-1" Cut="0.0000000000000000e+00" cType="1" res="2.6267904788255692e-02" rms="4.2432385683059692e-01" purity="7.5745302438735962e-01" nType="-99"/>
          </Node>
          <Node pos="r" depth="2" NCoef="0" IVar="6" Cut="3.3898925781250000e-01" cType="1" res="-1.4718067832291126e-02" rms="4.8279643058776855e-01" purity="4.8093211650848389e-01" nType="0">
            <Node pos="l" depth="3" NCoef="0" IVar="-1" Cut="0.0000000000000000e+00" cType="1" res="-1.1226838454604149e-02" rms="4.8145374655723572e-01" purity="4.3190822005271912e-01" nType="-99"/>
            <Node pos="r" depth="3" NCoef="0" IVar="-1" Cut="0.0000000000000000e+00" cType="1" res="1.0009115561842918e-02" rms="4.7817450761795044e-01" purity="5.5893409252166748e-01" nType="-99"/>
          </Node>
        </Node>
        <Node pos="r" depth="1" NCoef="0" IVar="9" Cut="3.4489314556121826e+00" cType="1" res="-5.6284196674823761e-02" rms="4.5812493562698364e-01" purity="3.7223467230796814e-01" nType="0">
          <Node pos="l" depth="2" NCoef="0" IVar="16" Cut="1.5211355590820312e+02" cType="1" res="-8.3484657108783722e-02" rms="4.4687682390213013e-01" purity="3.3153444528579712e-01" nType="0">
            <Node pos="l" depth="3" NCoef="0" IVar="-1" Cut="0.0000000000000000e+00" cType="1" res="-1.1894713155925274e-02" rms="4.6221709251403809e-01" purity="3.7906411290168762e-01" nType="-99"/>
            <Node pos="r" depth="3" NCoef="0" IVar="-1" Cut="0.0000000000000000e+00" cType="1" res="-3.3842206001281738e-02" rms="3.9745807647705078e-01" purity="2.1221284568309784e-01" nType="-99"/>
          </Node>
          <Node pos="r" depth="2" NCoef="0" IVar="1" Cut="2.2943036556243896e+00" cType="1" res="3.7926875054836273e-02" rms="4.8342314362525940e-01" purity="5.1320332288742065e-01" nType="0">
            <Node pos="l" depth="3" NCoef="0" IVar="-1" Cut="0.0000000000000000e+00" cType="1" res="-4.9711489118635654e-03" rms="4.8606371879577637e-01" purity="4.1684013605117798e-01" nType="-99"/>
            <Node pos="r" depth="3" NCoef="0" IVar="-1" Cut="0.0000000000000000e+00" cType="1" res="2.1724049001932144e-02" rms="4.7115555405616760e-01" purity="6.1886376142501831e-01" nType="-99"/>
          </Node>
        </Node>
      </Node>
    </BinaryTree>
    <BinaryTree type="DecisionTree" boostWeight="1.0000000000000000e+00" itree="11">
      <Node pos="s" depth="0" NCoef="0" IVar="7" Cut="1.7119969177246094e+02" cType="1" res="9.5052545657381415e-04" rms="4.5896551012992859e-01" purity="5.0062292814254761e-01" nType="0">
        <Node pos="l" depth="1" NCoef="0" IVar="16" Cut="1.6247496032714844e+02" cType="1" res="3.4525327384471893e-02" rms="4.6585747599601746e-01" purity="5.8701896667480469e-01" nType="0">
          <Node pos="l" depth="2" NCoef="0" IVar="6" Cut="2.2762958705425262e-01" cType="1" res="5.1721230149269104e-02" rms="4.6360641717910767e-01" purity="6.2256741523742676e-01" nType="0">
            <Node pos="l" depth="3" NCoef="0" IVar="-1" Cut="0.0000000000000000e+00" cType="1" res="-3.6646586377173662e-03" rms="4.7965484857559204e-01" purity="5.2689623832702637e-01" nType="-99"/>
            <Node pos="r" depth="3" NCoef="0" IVar="-1" Cut="0.0000000000000000e+00" cType="1" res="1.6689110547304153e-02" rms="4.5454064011573792e-01" purity="6.5913212299346924e-01" nType="-99"/>
          </Node>
          <Node pos="r" depth="2" NCoef="0" IVar="-1" Cut="0.0000000000000000e+00" cType="1" res="-1.7007488757371902e-02" rms="4.6451061964035034e-01" purity="3.4857574105262756e-01" nType="-99"/>
        </Node>
        <Node pos="r" depth="1" NCoef="0" IVar="3" Cut="9.3524078369140625e+01" cType="1" res="-9.0441241860389709e-02" rms="4.2647221684455872e-01" purity="2.6544979214668274e-01" nType="0">
          <Node pos="l" depth="2" NCoef="0" IVar="0" Cut="1.2638332519531250e+03" cType="1" res="-3.9277356117963791e-02" rms="4.6128320693969727e-01" purity="3.3774623274803162e-01" nType="0">
            <Node pos="l" depth="3" NCoef="0" IVar="-1" Cut="0.0000000000000000e+00" cType="1" res="-1.8551992252469063e-02" rms="4.3679577112197876e-01" purity="2.7375555038452148e-01" nType="-99"/>
            <Node pos="r" depth="3" NCoef="0" IVar="-1" Cut="0.0000000000000000e+00" cType="1" res="2.3181037977337837e-04" rms="4.7883781790733337e-01" purity="3.9574006199836731e-01" nType="-99"/>
          </Node>
          <Node pos="r" depth="2" NCoef="0" IVar="1" Cut="2.4072685241699219e+00" cType="1" res="-1.2663440406322479e-01" rms="3.9605009555816650e-01" purity="2.1430757641792297e-01" nType="0">
            <Node pos="l" depth="3" NCoef="0" IVar="-1" Cut="0.0000000000000000e+00" cType="1" res="-3.7539470940828323e-02" rms="3.6155146360397339e-01" purity="1.6481041908264160e-01" nType="-99"/>
            <Node pos="r" depth="3" NCoef="0" IVar="-1" Cut="0.0000000000000000e+00" cType="1" res="-1.1840417049825191e-02" rms="4.4837734103202820e-01" purity="3.1304883956909180e-01" nType="-99"/>
          </Node>
        </Node>
      </Node>
    </BinaryTree>
    <BinaryTree type="DecisionTree" boostWeight="1.0000000000000000e+00" itree="12">
      <Node pos="s" depth="0" NCoef="0" IVar="13" Cut="9.4579132080078125e+01" cType="1" res="2.2142475936561823e-03" rms="4.5738697052001953e-01" purity="5.0265580415725708e-01" nType="0">
        <Node pos="l" depth="1" NCoef="0" IVar="1" Cut="1.9646668434143066e+00" cType="1" res="3.6939390003681183e-02" rms="4.6169519424438477e-01" purity="5.9951269626617432e-01" nType="0">
          <Node pos="l" depth="2" NCoef="0" IVar="-1" Cut="0.0000000000000000e+00" cType="1" res="-1.8019523471593857e-02" rms="4.5844107866287231e-01" purity="3.3117893338203430e-01" nType="-99"/>
          <Node pos="r" depth="2" NCoef="0" IVar="6" Cut="1.8579337000846863e-01" cType="1" res="5.6143872439861298e-02" rms="4.5926696062088013e-01" purity="6.4181399345397949e-01" nType="0">
            <Node pos="l" depth="3" NCoef="0" IVar="-1" Cut="0.0000000000000000e+00" cType="1" res="-7.8014074824750423e-03" rms="4.8060420155525208e-01" purity="5.0803709030151367e-01" nType="-99"/>
            <Node pos="r" depth="3" NCoef="0" IVar="-1" Cut="0.0000000000000000e+00" cType="1" res="1.6378445550799370e-02" rms="4.5207208395004272e-01" purity="6.7037171125411987e-01" nType="-99"/>
          </Node>
        </Node>
        <Node pos="r" depth="1" NCoef="0" IVar="3" Cut="7.7924957275390625e+01" cType="1" res="-7.6776832342147827e-02" rms="4.3727928400039673e-01" purity="2.8233051300048828e-01" nType="0">
          <Node pos="l" depth="2" NCoef="0" IVar="-1" Cut="0.0000000000000000e+00" cType="1" res="-4.8438357189297676e-03" rms="4.7319263219833374e-01" purity="3.6392953991889954e-01" nType="-99"/>
          <Node pos="r" depth="2" NCoef="0" IVar="16" Cut="1.8839601135253906e+02" cType="1" res="-1.0245230048894882e-01" rms="4.1672027111053467e-01" purity="2.4362930655479431e-01" nType="0">
            <Node pos="l" depth="3" NCoef="0" IVar="-1" Cut="0.0000000000000000e+00" cType="1" res="-1.6308881342411041e-02" rms="4.3622028827667236e-01" purity="2.7982920408248901e-01" nType="-99"/>
            <Node pos="r" depth="3" NCoef="0" IVar="-1" Cut="0.0000000000000000e+00" cType="1" res="-3.9973400533199310e-02" rms="3.5505259037017822e-01" purity="1.5576769411563873e-01" nType="-99"/>
          </Node>
        </Node>
      </Node>
    </BinaryTree>
    <BinaryTree type="DecisionTree" boostWeight="1.0000000000000000e+00" itree="13">
      <Node pos="s" depth="0" NCoef="0" IVar="1" Cut="2.5641548633575439e+00" cType="1" res="-7.0884323213249445e-04" rms="4.5631927251815796e-01" purity="4.9943614006042480e-01" nType="0">
        <Node pos="l" depth="1" NCoef="0" IVar="9" Cut="2.2412166595458984e+00" cType="1" res="-5.3665641695261002e-02" rms="4.5448142290115356e-01" purity="3.7006157636642456e-01" nType="0">
          <Node pos="l" depth="2" NCoef="0" IVar="7" Cut="1.1732699584960938e+02" cType="1" res="-1.0484547913074493e-01" rms="4.2260596156120300e-01" purity="2.9215899109840393e-01" nType="0">
            <Node pos="l" depth="3" NCoef="0" IVar="-1" Cut="0.0000000000000000e+00" cType="1" res="-9.9503491073846817e-03" rms="4.8218148946762085e-01" purity="4.9030181765556335e-01" nType="-99"/>
            <Node pos="r" depth="3" NCoef="0" IVar="-1" Cut="0.0000000000000000e+00" cType="1" res="-2.9648672789335251e-02" rms="3.9327299594879150e-01" purity="2.1118910610675812e-01" nType="-99"/>
          </Node>
          <Node pos="r" depth="2" NCoef="0" IVar="3" Cut="1.0946647644042969e+02" cType="1" res="-2.1160833537578583e-02" rms="4.7073274850845337e-01" purity="4.1953825950622559e-01" nType="0">
            <Node pos="l" depth="3" NCoef="0" IVar="-1" Cut="0.0000000000000000e+00" cType="1" res="4.3758304673247039e-04" rms="4.8172399401664734e-01" purity="4.5946508646011353e-01" nType="-99"/>
            <Node pos="r" depth="3" NCoef="0" IVar="-1" Cut="0.0000000000000000e+00" cType="1" res="-1.9906474277377129e-02" rms="4.2925611138343811e-01" purity="3.0133283138275146e-01" nType="-99"/>
          </Node>
        </Node>
        <Node pos="r" depth="1" NCoef="0" IVar="16" Cut="1.6943716430664062e+02" cType="1" res="4.5426577329635620e-02" rms="4.5289504528045654e-01" purity="6.1214601993560791e-01" nType="0">
          <Node pos="l" depth="2" NCoef="0" IVar="6" Cut="2.5882729887962341e-01" cType="1" res="6.3032470643520355e-02" rms="4.5142796635627747e-01" purity="6.5074431896209717e-01" nType="0">
            <Node pos="l" depth="3" NCoef="0" IVar="-1" Cut="0.0000000000000000e+00" cType="1" res="-5.2384170703589916e-04" rms="4.7005277872085571e-01" purity="5.6178647279739380e-01" nType="-99"/>
            <Node pos="r" depth="3" NCoef="0" IVar="-1" Cut="0.0000000000000000e+00" cType="1" res="2.0902488380670547e-02" rms="4.3846166133880615e-01" purity="6.9432562589645386e-01" nType="-99"/>
          </Node>
          <Node pos="r" depth="2" NCoef="0" IVar="-1" Cut="0.0000000000000000e+00" cType="1" res="-2.0699026063084602e-02" rms="4.3983104825019836e-01" purity="3.0376589298248291e-01" nType="-99"/>
        </Node>
      </Node>
    </BinaryTree>
    <BinaryTree type="DecisionTree" boostWeight="1.0000000000000000e+00" itree="14">
      <Node pos="s" depth="0" NCoef="0" IVar="7" Cut="9.3505279541015625e+01" cType="1" res="3.1213869806379080e-04" rms="4.5527854561805725e-01" purity="5.0009888410568237e-01" nType="0">
        <Node pos="l" depth="1" NCoef="0" IVar="13" Cut="6.0664871215820312e+01" cType="1" res="5.3895853459835052e-02" rms="4.4840630888938904e-01" purity="6.6502124071121216e-01" nType="0">
          <Node pos="l" depth="2" NCoef="0" IVar="14" Cut="2.7620901107788086e+01" cType="1" res="9.1370724141597748e-02" rms="4.2427793145179749e-01" purity="7.5435620546340942e-01" nType="0">
            <Node pos="l" depth="3" NCoef="0" IVar="-1" Cut="0.0000000000000000e+00" cType="1" res="7.9413205385208130e-03" rms="4.5362511277198792e-01" purity="6.9265425205230713e-01" nType="-99"/>
            <Node pos="r" depth="3" NCoef="0" IVar="-1" Cut="0.0000000000000000e+00" cType="1" res="2.6374574750661850e-02" rms="4.0783363580703735e-01" purity="7.8222686052322388e-01" nType="-99"/>
          </Node>
          <Node pos="r" depth="2" NCoef="0" IVar="0" Cut="9.4258349609375000e+02" cType="1" res="-1.9897022284567356e-03" rms="4.7670936584472656e-01" purity="5.3179782629013062e-01" nType="0">
            <Node pos="l" depth="3" NCoef="0" IVar="-1" Cut="0.0000000000000000e+00" cType="1" res="-1.4239791780710220e-02" rms="4.7730970382690430e-01" purity="4.6367356181144714e-01" nType="-99"/>
            <Node pos="r" depth="3" NCoef="0" IVar="-1" Cut="0.0000000000000000e+00" cType="1" res="6.0909693129360676e-03" rms="4.7332048416137695e-01" purity="5.6387639045715332e-01" nType="-99"/>
          </Node>
        </Node>
        <Node pos="r" depth="1" NCoef="0" IVar="9" Cut="3.0231134891510010e+00" cType="1" res="-3.6350890994071960e-02" rms="4.5631027221679688e-01" purity="3.8725566864013672e-01" nType="0">
          <Node pos="l" depth="2" NCoef="0" IVar="11" Cut="3.2478394508361816e+00" cType="1" res="-6.3687786459922791e-02" rms="4.4243240356445312e-01" purity="3.3476057648658752e-01" nType="0">
            <Node pos="l" depth="3" NCoef="0" IVar="-1" Cut="0.0000000000000000e+00" cType="1" res="-1.7549572512507439e-02" rms="4.3751612305641174e-01" purity="3.1576105952262878e-01" nType="-99"/>
            <Node pos="r" depth="3" NCoef="0" IVar="-1" Cut="0.0000000000000000e+00" cType="1" res="4.5419265516102314e-03" rms="4.6053957939147949e-01" purity="4.4324716925621033e-01" nType="-99"/>
          </Node>
          <Node pos="r" depth="2" NCoef="0" IVar="1" Cut="1.8487198352813721e+00" cType="1" res="1.6443498432636261e-02" rms="4.7757339477539062e-01" purity="4.8863682150840759e-01" nType="0">
            <Node pos="l" depth="3" NCoef="0" IVar="-1" Cut="0.0000000000000000e+00" cType="1" res="-1.2388685718178749e-02" rms="4.6938940882682800e-01" purity="3.4685629606246948e-01" nType="-99"/>
            <Node pos="r" depth="3" NCoef="0" IVar="-1" Cut="0.0000000000000000e+00" cType="1" res="1.0903921909630299e-02" rms="4.7723153233528137e-01" purity="5.5659598112106323e-01" nType="-99"/>
          </Node>
        </Node>
      </Node>
    </BinaryTree>
    <BinaryTree type="DecisionTree" boostWeight="1.0000000000000000e+00" itree="15">
      <Node pos="s" depth="0" NCoef="0" IVar="7" Cut="1.6650529479980469e+02" cType="1" res="1.7742181080393493e-04" rms="4.5344176888465881e-01" purity="5.0030779838562012e-01" nType="0">
        <Node pos="l" depth="1" NCoef="0" IVar="0" Cut="8.9096173095703125e+02" cType="1" res="2.8010951355099678e-02" rms="4.6153131127357483e-01" purity="5.9267723560333252e-01" nType="0">
          <Node pos="l" depth="2" NCoef="0" IVar="13" Cut="7.3769592285156250e+01" cType="1" res="-2.8839750215411186e-02" rms="4.6605649590492249e-01" purity="5.3447270393371582e-01" nType="0">
            <Node pos="l" depth="3" NCoef="0" IVar="-1" Cut="0.0000000000000000e+00" cType="1" res="5.2370433695614338e-04" rms="4.6716222167015076e-01" purity="6.2972754240036011e-01" nType="-99"/>
            <Node pos="r" depth="3" NCoef="0" IVar="-1" Cut="0.0000000000000000e+00" cType="1" res="-1.9829129800200462e-02" rms="4.5684164762496948e-01" purity="3.3455923199653625e-01" nType="-99"/>
          </Node>
          <Node pos="r" depth="2" NCoef="0" IVar="6" Cut="3.2781136035919189e-01" cType="1" res="4.9959514290094376e-02" rms="4.5788761973381042e-01" purity="6.1514848470687866e-01" nType="0">
            <Node pos="l" depth="3" NCoef="0" IVar="-1" Cut="0.0000000000000000e+00" cType="1" res="4.1179107502102852e-03" rms="4.6803647279739380e-01" purity="5.6630957126617432e-01" nType="-99"/>
            <Node pos="r" depth="3" NCoef="0" IVar="-1" Cut="0.0000000000000000e+00" cType="1" res="2.0627275109291077e-02" rms="4.3902903795242310e-01" purity="6.8575227260589600e-01" nType="-99"/>
          </Node>
        </Node>
        <Node pos="r" depth="1" NCoef="0" IVar="16" Cut="1.6284117126464844e+02" cType="1" res="-6.9936998188495636e-02" rms="4.2437779903411865e-01" purity="2.6762348413467407e-01" nType="0">
          <Node pos="l" depth="2" NCoef="0" IVar="9" Cut="3.2479228973388672e+00" cType="1" res="-4.5520484447479248e-02" rms="4.4228017330169678e-01" purity="3.0409276485443115e-01" nType="0">
            <Node pos="l" depth="3" NCoef="0" IVar="-1" Cut="0.0000000000000000e+00" cType="1" res="-1.5720002353191376e-02" rms="4.2467179894447327e-01" purity="2.5526842474937439e-01" nType="-99"/>
            <Node pos="r" depth="3" NCoef="0" IVar="-1" Cut="0.0000000000000000e+00" cType="1" res="3.6453926004469395e-03" rms="4.8415964841842651e-01" purity="4.4531968235969543e-01" nType="-99"/>
          </Node>
          <Node pos="r" depth="2" NCoef="0" IVar="-1" Cut="0.0000000000000000e+00" cType="1" res="-3.0218355357646942e-02" rms="3.7412646412849426e-01" purity="1.8390680849552155e-01" nType="-99"/>
        </Node>
      </Node>
    </BinaryTree>
    <BinaryTree type="DecisionTree" boostWeight="1.0000000000000000e+00" itree="16">
      <Node pos="s" depth="0" NCoef="0" IVar="1" Cut="2.6645402908325195e+00" cType="1" res="8.3422166062518954e-04" rms="4.5339310169219971e-01" purity="5.0073093175888062e-01" nType="0">
        <Node pos="l" depth="1" NCoef="0" IVar="9" Cut="1.9219268560409546e+00" cType="1" res="-3.5226989537477493e-02" rms="4.5415490865707397e-01" purity="3.9528959989547729e-01" nType="0">
          <Node pos="l" depth="2" NCoef="0" IVar="1" Cut="1.9273298978805542e+00" cType="1" res="-9.4409145414829254e-02" rms="4.2135584354400635e-01" purity="3.0929976701736450e-01" nType="0">
            <Node pos="l" depth="3" NCoef="0" IVar="-1" Cut="0.0000000000000000e+00" cType="1" res="-3.4991849213838577e-02" rms="3.5896685719490051e-01" purity="1.6105785965919495e-01" nType="-99"/>
            <Node pos="r" depth="3" NCoef="0" IVar="-1" Cut="0.0000000000000000e+00" cType="1" res="-1.5707857906818390e-02" rms="4.4702211022377014e-01" purity="3.8226777315139771e-01" nType="-99"/>
          </Node>
          <Node pos="r" depth="2" NCoef="0" IVar="16" Cut="1.6851994323730469e+02" cType="1" res="-1.0203375481069088e-02" rms="4.6507129073143005e-01" purity="4.3164813518524170e-01" nType="0">
            <Node pos="l" depth="3" NCoef="0" IVar="-1" Cut="0.0000000000000000e+00" cType="1" res="1.4206225750967860e-03" rms="4.7179019451141357e-01" purity="4.7230014204978943e-01" nType="-99"/>
            <Node pos="r" depth="3" NCoef="0" IVar="-1" Cut="0.0000000000000000e+00" cType="1" res="-1.8087003380060196e-02" rms="4.2952898144721985e-01" purity="2.6466619968414307e-01" nType="-99"/>
          </Node>
        </Node>
        <Node pos="r" depth="1" NCoef="0" IVar="16" Cut="1.4339707946777344e+02" cType="1" res="4.3190054595470428e-02" rms="4.4881156086921692e-01" purity="6.2457740306854248e-01" nType="0">
          <Node pos="l" depth="2" NCoef="0" IVar="6" Cut="2.9357451200485229e-01" cType="1" res="6.4707361161708832e-02" rms="4.4333860278129578e-01" purity="6.7854797840118408e-01" nType="0">
            <Node pos="l" depth="3" NCoef="0" IVar="-1" Cut="0.0000000000000000e+00" cType="1" res="4.1881408542394638e-03" rms="4.6069723367691040e-01" purity="6.1190283298492432e-01" nType="-99"/>
            <Node pos="r" depth="3" NCoef="0" IVar="-1" Cut="0.0000000000000000e+00" cType="1" res="2.1820804104208946e-02" rms="4.2797333002090454e-01" purity="7.2500795125961304e-01" nType="-99"/>
          </Node>
          <Node pos="r" depth="2" NCoef="0" IVar="-1" Cut="0.0000000000000000e+00" cType="1" res="-9.1933114454150200e-03" rms="4.6008557081222534e-01" purity="4.1047048568725586e-01" nType="-99"/>
        </Node>
      </Node>
    </BinaryTree>
    <BinaryTree type="DecisionTree" boostWeight="1.0000000000000000e+00" itree="17">
      <Node pos="s" depth="0" NCoef="0" IVar="13" Cut="1.0760260009765625e+02" cType="1" res="9.7453122725710273e-04" rms="4.5174613595008850e-01" purity="5.0088769197463989e-01" nType="0">
        <Node pos="l" depth="1" NCoef="0" IVar="18" Cut="1.4761276245117188e+02" cType="1" res="2.2637233138084412e-02" rms="4.5861676335334778e-01" purity="5.8006924390792847e-01" nType="0">
          <Node pos="l" depth="2" NCoef="0" IVar="0" Cut="8.8583825683593750e+02" cType="1" res="3.7227209657430649e-02" rms="4.6081593632698059e-01" purity="6.2345397472381592e-01" nType="0">
            <Node pos="l" depth="3" NCoef="0" IVar="-1" Cut="0.0000000000000000e+00" cType="1" res="-3.7771970964968204e-03" rms="4.7016662359237671e-01" purity="5.6272739171981812e-01" nType="-99"/>
            <Node pos="r" depth="3" NCoef="0" IVar="-1" Cut="0.0000000000000000e+00" cType="1" res="1.2628679163753986e-02" rms="4.5545709133148193e-01" purity="6.4670610427856445e-01" nType="-99"/>
          </Node>
          <Node pos="r" depth="2" NCoef="0" IVar="-1" Cut="0.0000000000000000e+00" cType="1" res="-1.6913812607526779e-02" rms="4.3110927939414978e-01" purity="2.8986218571662903e-01" nType="-99"/>
        </Node>
        <Node pos="r" depth="1" NCoef="0" IVar="3" Cut="9.1480781555175781e+01" cType="1" res="-6.6386945545673370e-02" rms="4.2264434695243835e-01" purity="2.5466799736022949e-01" nType="0">
          <Node pos="l" depth="2" NCoef="0" IVar="0" Cut="1.1804542236328125e+03" cType="1" res="-2.2413646802306175e-02" rms="4.5973050594329834e-01" purity="3.2512754201889038e-01" nType="0">
            <Node pos="l" depth="3" NCoef="0" IVar="-1" Cut="0.0000000000000000e+00" cType="1" res="-1.7736427485942841e-02" rms="4.2709562182426453e-01" purity="2.4913994967937469e-01" nType="-99"/>
            <Node pos="r" depth="3" NCoef="0" IVar="-1" Cut="0.0000000000000000e+00" cType="1" res="5.1652356050908566e-03" rms="4.8096725344657898e-01" purity="3.8965785503387451e-01" nType="-99"/>
          </Node>
          <Node pos="r" depth="2" NCoef="0" IVar="13" Cut="1.5060400390625000e+02" cType="1" res="-1.0240473598241806e-01" rms="3.8593202829360962e-01" purity="1.9695581495761871e-01" nType="0">
            <Node pos="l" depth="3" NCoef="0" IVar="-1" Cut="0.0000000000000000e+00" cType="1" res="-1.5815520659089088e-02" rms="4.2431584000587463e-01" purity="2.5587272644042969e-01" nType="-99"/>
            <Node pos="r" depth="3" NCoef="0" IVar="-1" Cut="0.0000000000000000e+00" cType="1" res="-3.4536022692918777e-02" rms="3.4183070063591003e-01" purity="1.4040605723857880e-01" nType="-99"/>
          </Node>
        </Node>
      </Node>
    </BinaryTree>
    <BinaryTree type="DecisionTree" boostWeight="1.0000000000000000e+00" itree="18">
      <Node pos="s" depth="0" NCoef="0" IVar="7" Cut="1.1363684082031250e+02" cType="1" res="-1.1942150304093957e-03" rms="4.5135253667831421e-01" purity="4.9779367446899414e-01" nType="0">
        <Node pos="l" depth="1" NCoef="0" IVar="13" Cut="6.0221782684326172e+01" cType="1" res="3.2075759023427963e-02" rms="4.5213299989700317e-01" purity="6.4225047826766968e-01" nType="0">
          <Node pos="l" depth="2" NCoef="0" IVar="14" Cut="2.6046876907348633e+01" cType="1" res="6.1093375086784363e-02" rms="4.3225902318954468e-01" purity="7.3418194055557251e-01" nType="0">
            <Node pos="l" depth="3" NCoef="0" IVar="-1" Cut="0.0000000000000000e+00" cType="1" res="-6.0003390535712242e-04" rms="4.6364194154739380e-01" purity="6.5842860937118530e-01" nType="-99"/>
            <Node pos="r" depth="3" NCoef="0" IVar="-1" Cut="0.0000000000000000e+00" cType="1" res="1.8875107169151306e-02" rms="4.1964322328567505e-01" purity="7.5849646329879761e-01" nType="-99"/>
          </Node>
          <Node pos="r" depth="2" NCoef="0" IVar="6" Cut="3.2671666145324707e-01" cType="1" res="-4.9459328874945641e-03" rms="4.7371292114257812e-01" purity="5.2496099472045898e-01" nType="0">
            <Node pos="l" depth="3" NCoef="0" IVar="-1" Cut="0.0000000000000000e+00" cType="1" res="-6.7993551492691040e-03" rms="4.7752329707145691e-01" purity="4.7531390190124512e-01" nType="-99"/>
            <Node pos="r" depth="3" NCoef="0" IVar="-1" Cut="0.0000000000000000e+00" cType="1" res="6.6843340173363686e-03" rms="4.6620824933052063e-01" purity="5.9055703878402710e-01" nType="-99"/>
          </Node>
        </Node>
        <Node pos="r" depth="1" NCoef="0" IVar="9" Cut="2.7505636215209961e+00" cType="1" res="-3.5308759659528732e-02" rms="4.4799250364303589e-01" purity="3.4966981410980225e-01" nType="0">
          <Node pos="l" depth="2" NCoef="0" IVar="6" Cut="2.5821605324745178e-01" cType="1" res="-6.6717416048049927e-02" rms="4.2486464977264404e-01" purity="2.8065738081932068e-01" nType="0">
            <Node pos="l" depth="3" NCoef="0" IVar="-1" Cut="0.0000000000000000e+00" cType="1" res="-2.5338230654597282e-02" rms="4.0301746129989624e-01" purity="2.2397254407405853e-01" nType="-99"/>
            <Node pos="r" depth="3" NCoef="0" IVar="-1" Cut="0.0000000000000000e+00" cType="1" res="-9.3510933220386505e-03" rms="4.3688708543777466e-01" purity="3.1866103410720825e-01" nType="-99"/>
          </Node>
          <Node pos="r" depth="2" NCoef="0" IVar="13" Cut="1.3696539306640625e+02" cType="1" res="7.7320034615695477e-03" rms="4.7450661659240723e-01" purity="4.4424083828926086e-01" nType="0">
            <Node pos="l" depth="3" NCoef="0" IVar="-1" Cut="0.0000000000000000e+00" cType="1" res="6.1360364779829979e-03" rms="4.8071292042732239e-01" purity="4.9421355128288269e-01" nType="-99"/>
            <Node pos="r" depth="3" NCoef="0" IVar="-1" Cut="0.0000000000000000e+00" cType="1" res="-1.2278589420020580e-02" rms="4.5005133748054504e-01" purity="2.9866936802864075e-01" nType="-99"/>
          </Node>
        </Node>
      </Node>
    </BinaryTree>
    <BinaryTree type="DecisionTree" boostWeight="1.0000000000000000e+00" itree="19">
      <Node pos="s" depth="0" NCoef="0" IVar="13" Cut="8.7747673034667969e+01" cType="1" res="-1.5080199809744954e-03" rms="4.5058745145797729e-01" purity="4.9844527244567871e-01" nType="0">
        <Node pos="l" depth="1" NCoef="0" IVar="6" Cut="1.5397946536540985e-01" cType="1" res="2.2689003497362137e-02" rms="4.5581042766571045e-01" purity="6.0673457384109497e-01" nType="0">
          <Node pos="l" depth="2" NCoef="0" IVar="-1" Cut="0.0000000000000000e+00" cType="1" res="-1.3910902664065361e-02" rms="4.7322353720664978e-01" purity="4.5515134930610657e-01" nType="-99"/>
          <Node pos="r" depth="2" NCoef="0" IVar="1" Cut="1.7857754230499268e+00" cType="1" res="3.5106334835290909e-02" rms="4.5192778110504150e-01" purity="6.2802982330322266e-01" nType="0">
            <Node pos="l" depth="3" NCoef="0" IVar="-1" Cut="0.0000000000000000e+00" cType="1" res="-1.6779163852334023e-02" rms="4.5066782832145691e-01" purity="3.0514088273048401e-01" nType="-99"/>
            <Node pos="r" depth="3" NCoef="0" IVar="-1" Cut="0.0000000000000000e+00" cType="1" res="1.0387564077973366e-02" rms="4.5051074028015137e-01" purity="6.6137117147445679e-01" nType="-99"/>
          </Node>
        </Node>
        <Node pos="r" depth="1" NCoef="0" IVar="9" Cut="2.5816290378570557e+00" cType="1" res="-4.7244194895029068e-02" rms="4.3690085411071777e-01" purity="2.9376140236854553e-01" nType="0">
          <Node pos="l" depth="2" NCoef="0" IVar="11" Cut="2.5731210708618164e+00" cType="1" res="-7.7057532966136932e-02" rms="4.0247491002082825e-01" purity="2.2151595354080200e-01" nType="0">
            <Node pos="l" depth="3" NCoef="0" IVar="-1" Cut="0.0000000000000000e+00" cType="1" res="-2.5488780811429024e-02" rms="3.7749132513999939e-01" purity="1.8537652492523193e-01" nType="-99"/>
            <Node pos="r" depth="3" NCoef="0" IVar="-1" Cut="0.0000000000000000e+00" cType="1" res="-1.2278316542506218e-02" rms="4.2636203765869141e-01" purity="2.6064747571945190e-01" nType="-99"/>
          </Node>
          <Node pos="r" depth="2" NCoef="0" IVar="14" Cut="5.9735836029052734e+01" cType="1" res="-1.3699851930141449e-02" rms="4.7039306163787842e-01" purity="3.7504807114601135e-01" nType="0">
            <Node pos="l" depth="3" NCoef="0" IVar="-1" Cut="0.0000000000000000e+00" cType="1" res="2.8504044748842716e-03" rms="4.7825998067855835e-01" purity="4.1532632708549500e-01" nType="-99"/>
            <Node pos="r" depth="3" NCoef="0" IVar="-1" Cut="0.0000000000000000e+00" cType="1" res="-1.2663445435464382e-02" rms="4.5392233133316040e-01" purity="3.0967858433723450e-01" nType="-99"/>
          </Node>
        </Node>
      </Node>
    </BinaryTree>
    <BinaryTree type="DecisionTree" boostWeight="1.0000000000000000e+00" itree="20">
      <Node pos="s" depth="0" NCoef="0" IVar="15" Cut="1.7881977558135986e+00" cType="1" res="-1.0580125490378123e-05" rms="4.5031747221946716e-01" purity="4.9958914518356323e-01" nType="0">
        <Node pos="l" depth="1" NCoef="0" IVar="9" Cut="3.6247718334197998e+00" cType="1" res="-1.4671010896563530e-02" rms="4.5352318882942200e-01" purity="4.5817306637763977e-01" nType="0">
          <Node pos="l" depth="2" NCoef="0" IVar="16" Cut="1.4313604736328125e+02" cType="1" res="-3.0927510932087898e-02" rms="4.4961413741111755e-01" purity="4.2413917183876038e-01" nType="0">
            <Node pos="l" depth="3" NCoef="0" IVar="-1" Cut="0.0000000000000000e+00" cType="1" res="-3.3948132768273354e-03" rms="4.5946156978607178e-01" purity="4.8445397615432739e-01" nType="-99"/>
            <Node pos="r" depth="3" NCoef="0" IVar="-1" Cut="0.0000000000000000e+00" cType="1" res="-1.7519488930702209e-02" rms="4.1933685541152954e-01" purity="2.6326158642768860e-01" nType="-99"/>
          </Node>
          <Node pos="r" depth="2" NCoef="0" IVar="1" Cut="2.2692317962646484e+00" cType="1" res="4.5924089848995209e-02" rms="4.6280214190483093e-01" purity="5.8503240346908569e-01" nType="0">
            <Node pos="l" depth="3" NCoef="0" IVar="-1" Cut="0.0000000000000000e+00" cType="1" res="-1.0276857065036893e-03" rms="4.8397853970527649e-01" purity="4.3375441431999207e-01" nType="-99"/>
            <Node pos="r" depth="3" NCoef="0" IVar="-1" Cut="0.0000000000000000e+00" cType="1" res="1.6018213704228401e-02" rms="4.4888594746589661e-01" purity="6.6499888896942139e-01" nType="-99"/>
          </Node>
        </Node>
        <Node pos="r" depth="1" NCoef="0" IVar="1" Cut="2.7003011703491211e+00" cType="1" res="6.8709500133991241e-02" rms="4.2833888530731201e-01" purity="6.9372487068176270e-01" nType="0">
          <Node pos="l" depth="2" NCoef="0" IVar="-1" Cut="0.0000000000000000e+00" cType="1" res="4.2387172579765320e-03" rms="4.5480325818061829e-01" purity="5.6901305913925171e-01" nType="-99"/>
          <Node pos="r" depth="2" NCoef="0" IVar="-1" Cut="0.0000000000000000e+00" cType="1" res="2.1376067772507668e-02" rms="4.1354101896286011e-01" purity="7.5140523910522461e-01" nType="-99"/>
        </Node>
      </Node>
    </BinaryTree>
    <BinaryTree type="DecisionTree" boostWeight="1.0000000000000000e+00" itree="21">
      <Node pos="s" depth="0" NCoef="0" IVar="16" Cut="1.4338354492187500e+02" cType="1" res="5.5589957628399134e-04" rms="4.4820016622543335e-01" purity="5.0055432319641113e-01" nType="0">
        <Node pos="l" depth="1" NCoef="0" IVar="1" Cut="2.2659575939178467e+00" cType="1" res="1.8764080479741096e-02" rms="4.5201161503791809e-01" purity="5.6279724836349487e-01" nType="0">
          <Node pos="l" depth="2" NCoef="0" IVar="10" Cut="7.1967102050781250e+01" cType="1" res="-3.6770969629287720e-02" rms="4.5532473921775818e-01" purity="3.5295894742012024e-01" nType="0">
            <Node pos="l" depth="3" NCoef="0" IVar="-1" Cut="0.0000000000000000e+00" cType="1" res="-2.2536540403962135e-02" rms="4.3717202544212341e-01" purity="3.0297857522964478e-01" nType="-99"/>
            <Node pos="r" depth="3" NCoef="0" IVar="-1" Cut="0.0000000000000000e+00" cType="1" res="-2.8460973408073187e-03" rms="4.5944485068321228e-01" purity="3.7126386165618896e-01" nType="-99"/>
          </Node>
          <Node pos="r" depth="2" NCoef="0" IVar="6" Cut="2.1667894721031189e-01" cType="1" res="3.9329964667558670e-02" rms="4.4903916120529175e-01" purity="6.4050507545471191e-01" nType="0">
            <Node pos="l" depth="3" NCoef="0" IVar="-1" Cut="0.0000000000000000e+00" cType="1" res="-4.6356786042451859e-03" rms="4.6632856130599976e-01" purity="5.2918159961700439e-01" nType="-99"/>
            <Node pos="r" depth="3" NCoef="0" IVar="-1" Cut="0.0000000000000000e+00" cType="1" res="1.3342116959393024e-02" rms="4.4178017973899841e-01" purity="6.7529422044754028e-01" nType="-99"/>
          </Node>
        </Node>
        <Node pos="r" depth="1" NCoef="0" IVar="3" Cut="8.0271408081054688e+01" cType="1" res="-5.2691984921693802e-02" rms="4.3248653411865234e-01" purity="3.1853139400482178e-01" nType="0">
          <Node pos="l" depth="2" NCoef="0" IVar="-1" Cut="0.0000000000000000e+00" cType="1" res="-1.5160907059907913e-03" rms="4.7232937812805176e-01" purity="3.8505938649177551e-01" nType="-99"/>
          <Node pos="r" depth="2" NCoef="0" IVar="16" Cut="1.7294989013671875e+02" cType="1" res="-7.6973415911197662e-02" rms="4.0775656700134277e-01" purity="2.8332954645156860e-01" nType="0">
            <Node pos="l" depth="3" NCoef="0" IVar="-1" Cut="0.0000000000000000e+00" cType="1" res="-7.1147503331303596e-03" rms="4.4561848044395447e-01" purity="4.0616902709007263e-01" nType="-99"/>
            <Node pos="r" depth="3" NCoef="0" IVar="-1" Cut="0.0000000000000000e+00" cType="1" res="-2.7617339044809341e-02" rms="3.7397894263267517e-01" purity="1.9307661056518555e-01" nType="-99"/>
          </Node>
        </Node>
      </Node>
    </BinaryTree>
    <BinaryTree type="DecisionTree" boostWeight="1.0000000000000000e+00" itree="22">
      <Node pos="s" depth="0" NCoef="0" IVar="9" Cut="3.7110226154327393e+00" cType="1" res="2.6506796712055802e-04" rms="4.4834816455841064e-01" purity="5.0121480226516724e-01" nType="0">
        <Node pos="l" depth="1" NCoef="0" IVar="1" Cut="2.7241706848144531e+00" cType="1" res="-1.4478350989520550e-02" rms="4.4671908020973206e-01" purity="4.6779236197471619e-01" nType="0">
          <Node pos="l" depth="2" NCoef="0" IVar="11" Cut="2.3420467376708984e+00" cType="1" res="-3.7839971482753754e-02" rms="4.4436737895011902e-01" purity="3.7298658490180969e-01" nType="0">
            <Node pos="l" depth="3" NCoef="0" IVar="-1" Cut="0.0000000000000000e+00" cType="1" res="-1.5728322789072990e-02" rms="4.3276572227478027e-01" purity="3.3282527327537537e-01" nType="-99"/>
            <Node pos="r" depth="3" NCoef="0" IVar="-1" Cut="0.0000000000000000e+00" cType="1" res="-2.6670927181839943e-03" rms="4.5261701941490173e-01" purity="4.0801396965980530e-01" nType="-99"/>
          </Node>
          <Node pos="r" depth="2" NCoef="0" IVar="14" Cut="5.2299240112304688e+01" cType="1" res="1.8776059150695801e-02" rms="4.4794884324073792e-01" purity="6.0274487733840942e-01" nType="0">
            <Node pos="l" depth="3" NCoef="0" IVar="-1" Cut="0.0000000000000000e+00" cType="1" res="8.5927648469805717e-03" rms="4.4594708085060120e-01" purity="6.5201699733734131e-01" nType="-99"/>
            <Node pos="r" depth="3" NCoef="0" IVar="-1" Cut="0.0000000000000000e+00" cType="1" res="-1.5909217298030853e-02" rms="4.4675201177597046e-01" purity="3.6538767814636230e-01" nType="-99"/>
          </Node>
        </Node>
        <Node pos="r" depth="1" NCoef="0" IVar="1" Cut="2.1561887264251709e+00" cType="1" res="5.6511163711547852e-02" rms="4.5009559392929077e-01" purity="6.2872147560119629e-01" nType="0">
          <Node pos="l" depth="2" NCoef="0" IVar="-1" Cut="0.0000000000000000e+00" cType="1" res="-1.0479086777195334e-03" rms="4.8491996526718140e-01" purity="4.2646694183349609e-01" nType="-99"/>
          <Node pos="r" depth="2" NCoef="0" IVar="12" Cut="1.7263076305389404e+00" cType="1" res="7.6660841703414917e-02" rms="4.3620607256889343e-01" purity="6.9496500492095947e-01" nType="0">
            <Node pos="l" depth="3" NCoef="0" IVar="-1" Cut="0.0000000000000000e+00" cType="1" res="2.7510592713952065e-02" rms="4.1029834747314453e-01" purity="7.6438122987747192e-01" nType="-99"/>
            <Node pos="r" depth="3" NCoef="0" IVar="-1" Cut="0.0000000000000000e+00" cType="1" res="8.6364103481173515e-03" rms="4.5395916700363159e-01" purity="6.3505989313125610e-01" nType="-99"/>
          </Node>
        </Node>
      </Node>
    </BinaryTree>
    <BinaryTree type="DecisionTree" boostWeight="1.0000000000000000e+00" itree="23">
      <Node pos="s" depth="0" NCoef="0" IVar="16" Cut="1.3650271606445312e+02" cType="1" res="1.2492663518059999e-04" rms="4.4803449511528015e-01" purity="4.9999156594276428e-01" nType="0">
        <Node pos="l" depth="1" NCoef="0" IVar="1" Cut="1.7513606548309326e+00" cType="1" res="1.9400315359234810e-02" rms="4.5195078849792480e-01" purity="5.6846839189529419e-01" nType="0">
          <Node pos="l" depth="2" NCoef="0" IVar="-1" Cut="0.0000000000000000e+00" cType="1" res="-1.1581008322536945e-02" rms="4.4361552596092224e-01" purity="2.9058307409286499e-01" nType="-99"/>
          <Node pos="r" depth="2" NCoef="0" IVar="9" Cut="3.5918192863464355e+00" cType="1" res="2.9597597196698189e-02" rms="4.5227566361427307e-01" purity="6.0949444770812988e-01" nType="0">
            <Node pos="l" depth="3" NCoef="0" IVar="-1" Cut="0.0000000000000000e+00" cType="1" res="3.0507855117321014e-03" rms="4.5680740475654602e-01" purity="5.7491135597229004e-01" nType="-99"/>
            <Node pos="r" depth="3" NCoef="0" IVar="-1" Cut="0.0000000000000000e+00" cType="1" res="1.8589582294225693e-02" rms="4.3325254321098328e-01" purity="7.2133213281631470e-01" nType="-99"/>
          </Node>
        </Node>
        <Node pos="r" depth="1" NCoef="0" IVar="2" Cut="1.1507579040527344e+02" cType="1" res="-4.6285327523946762e-02" rms="4.3497130274772644e-01" purity="3.3511674404144287e-01" nType="0">
          <Node pos="l" depth="2" NCoef="0" IVar="-1" Cut="0.0000000000000000e+00" cType="1" res="2.7700786013156176e-03" rms="4.8241007328033447e-01" purity="4.4490015506744385e-01" nType="-99"/>
          <Node pos="r" depth="2" NCoef="0" IVar="16" Cut="1.9225985717773438e+02" cType="1" res="-5.9500336647033691e-02" rms="4.2247053980827332e-01" purity="3.1048122048377991e-01" nType="0">
            <Node pos="l" depth="3" NCoef="0" IVar="-1" Cut="0.0000000000000000e+00" cType="1" res="-7.2112735360860825e-03" rms="4.4761383533477783e-01" purity="3.8807207345962524e-01" nType="-99"/>
            <Node pos="r" depth="3" NCoef="0" IVar="-1" Cut="0.0000000000000000e+00" cType="1" res="-2.7632161974906921e-02" rms="3.7005999684333801e-01" purity="1.7634944617748260e-01" nType="-99"/>
          </Node>
        </Node>
      </Node>
    </BinaryTree>
    <BinaryTree type="DecisionTree" boostWeight="1.0000000000000000e+00" itree="24">
      <Node pos="s" depth="0" NCoef="0" IVar="9" Cut="3.8040833473205566e+00" cType="1" res="-5.8904610341414809e-04" rms="4.4892358779907227e-01" purity="4.9827775359153748e-01" nType="0">
        <Node pos="l" depth="1" NCoef="0" IVar="7" Cut="8.5059020996093750e+01" cType="1" res="-1.1395496316254139e-02" rms="4.4829228520393372e-01" purity="4.6844148635864258e-01" nType="0">
          <Node pos="l" depth="2" NCoef="0" IVar="13" Cut="5.6680126190185547e+01" cType="1" res="2.1097227931022644e-02" rms="4.4685167074203491e-01" purity="6.5843111276626587e-01" nType="0">
            <Node pos="l" depth="3" NCoef="0" IVar="-1" Cut="0.0000000000000000e+00" cType="1" res="1.2838116846978664e-02" rms="4.2427757382392883e-01" purity="7.5268751382827759e-01" nType="-99"/>
            <Node pos="r" depth="3" NCoef="0" IVar="-1" Cut="0.0000000000000000e+00" cType="1" res="-4.3982015922665596e-03" rms="4.7086870670318604e-01" purity="5.3840243816375732e-01" nType="-99"/>
          </Node>
          <Node pos="r" depth="2" NCoef="0" IVar="10" Cut="1.2875158691406250e+02" cType="1" res="-2.7471559122204781e-02" rms="4.4813302159309387e-01" purity="3.7444239854812622e-01" nType="0">
            <Node pos="l" depth="3" NCoef="0" IVar="-1" Cut="0.0000000000000000e+00" cType="1" res="-1.1949918232858181e-02" rms="4.5292529463768005e-01" purity="3.9038571715354919e-01" nType="-99"/>
            <Node pos="r" depth="3" NCoef="0" IVar="-1" Cut="0.0000000000000000e+00" cType="1" res="-1.9469211110845208e-04" rms="4.4157686829566956e-01" purity="3.5808792710304260e-01" nType="-99"/>
          </Node>
        </Node>
        <Node pos="r" depth="1" NCoef="0" IVar="0" Cut="1.3779664306640625e+03" cType="1" res="4.6570386737585068e-02" rms="4.4863188266754150e-01" purity="6.2848359346389771e-01" nType="0">
          <Node pos="l" depth="2" NCoef="0" IVar="-1" Cut="0.0000000000000000e+00" cType="1" res="-1.6090577701106668e-03" rms="4.4850513339042664e-01" purity="5.9382492303848267e-01" nType="-99"/>
          <Node pos="r" depth="2" NCoef="0" IVar="9" Cut="4.4218149185180664e+00" cType="1" res="6.9890633225440979e-02" rms="4.4668278098106384e-01" purity="6.4355444908142090e-01" nType="0">
            <Node pos="l" depth="3" NCoef="0" IVar="-1" Cut="0.0000000000000000e+00" cType="1" res="9.9278464913368225e-03" rms="4.5501497387886047e-01" purity="5.9767019748687744e-01" nType="-99"/>
            <Node pos="r" depth="3" NCoef="0" IVar="-1" Cut="0.0000000000000000e+00" cType="1" res="2.0480684936046600e-02" rms="4.3855732679367065e-01" purity="6.8175125122070312e-01" nType="-99"/>
          </Node>
        </Node>
      </Node>
    </BinaryTree>
    <BinaryTree type="DecisionTree" boostWeight="1.0000000000000000e+00" itree="25">
      <Node pos="s" depth="0" NCoef="0" IVar="7" Cut="2.5502442932128906e+02" cType="1" res="1.8001286080107093e-03" rms="4.4798406958580017e-01" purity="5.0149255990982056e-01" nType="0">
        <Node pos="l" depth="1" NCoef="0" IVar="0" Cut="7.5378601074218750e+02" cType="1" res="1.0256448760628700e-02" rms="4.5541742444038391e-01" purity="5.4074394702911377e-01" nType="0">
          <Node pos="l" depth="2" NCoef="0" IVar="17" Cut="5.1555900573730469e+01" cType="1" res="-4.1714426130056381e-02" rms="4.5378106832504272e-01" purity="4.8036080598831177e-01" nType="0">
            <Node pos="l" depth="3" NCoef="0" IVar="-1" Cut="0.0000000000000000e+00" cType="1" res="-1.8160678446292877e-02" rms="4.5742678642272949e-01" purity="4.1528484225273132e-01" nType="-99"/>
            <Node pos="r" depth="3" NCoef="0" IVar="-1" Cut="0.0000000000000000e+00" cType="1" res="-3.0649944674223661e-03" rms="4.4899985194206238e-01" purity="5.2762228250503540e-01" nType="-99"/>
          </Node>
          <Node pos="r" depth="2" NCoef="0" IVar="6" Cut="3.1174764037132263e-01" cType="1" res="2.1349331364035606e-02" rms="4.5499786734580994e-01" purity="5.5363237857818604e-01" nType="0">
            <Node pos="l" depth="3" NCoef="0" IVar="-1" Cut="0.0000000000000000e+00" cType="1" res="8.6197161408563261e-07" rms="4.6123021841049194e-01" purity="5.0300997495651245e-01" nType="-99"/>
            <Node pos="r" depth="3" NCoef="0" IVar="-1" Cut="0.0000000000000000e+00" cType="1" res="1.0496917180716991e-02" rms="4.4648084044456482e-01" purity="6.1173975467681885e-01" nType="-99"/>
          </Node>
        </Node>
        <Node pos="r" depth="1" NCoef="0" IVar="3" Cut="1.1570610809326172e+02" cType="1" res="-6.5192893147468567e-02" rms="3.7740531563758850e-01" purity="1.9053360819816589e-01" nType="0">
          <Node pos="l" depth="2" NCoef="0" IVar="-1" Cut="0.0000000000000000e+00" cType="1" res="-7.5422395020723343e-03" rms="4.2025387287139893e-01" purity="2.5564607977867126e-01" nType="-99"/>
          <Node pos="r" depth="2" NCoef="0" IVar="-1" Cut="0.0000000000000000e+00" cType="1" res="-2.9492495581507683e-02" rms="3.2528281211853027e-01" purity="1.2559978663921356e-01" nType="-99"/>
        </Node>
      </Node>
    </BinaryTree>
    <BinaryTree type="DecisionTree" boostWeight="1.0000000000000000e+00" itree="26">
      <Node pos="s" depth="0" NCoef="0" IVar="1" Cut="2.6927862167358398e+00" cType="1" res="2.3246142081916332e-03" rms="4.4764828681945801e-01" purity="5.0226187705993652e-01" nType="0">
        <Node pos="l" depth="1" NCoef="0" IVar="3" Cut="8.1748512268066406e+01" cType="1" res="-1.8307331949472427e-02" rms="4.5018714666366577e-01" purity="4.0085145831108093e-01" nType="0">
          <Node pos="l" depth="2" NCoef="0" IVar="0" Cut="8.2602117919921875e+02" cType="1" res="1.0107173584401608e-02" rms="4.7316446900367737e-01" purity="4.6860891580581665e-01" nType="0">
            <Node pos="l" depth="3" NCoef="0" IVar="-1" Cut="0.0000000000000000e+00" cType="1" res="-1.1403395794332027e-02" rms="4.5567753911018372e-01" purity="3.9049115777015686e-01" nType="-99"/>
            <Node pos="r" depth="3" NCoef="0" IVar="-1" Cut="0.0000000000000000e+00" cType="1" res="7.6956469565629959e-03" rms="4.7790339589118958e-01" purity="5.0071871280670166e-01" nType="-99"/>
          </Node>
          <Node pos="r" depth="2" NCoef="0" IVar="13" Cut="1.2176115417480469e+02" cType="1" res="-3.9863720536231995e-02" rms="4.3069228529930115e-01" purity="3.4944787621498108e-01" nType="0">
            <Node pos="l" depth="3" NCoef="0" IVar="-1" Cut="0.0000000000000000e+00" cType="1" res="-4.9431123770773411e-03" rms="4.5617160201072693e-01" purity="4.2801341414451599e-01" nType="-99"/>
            <Node pos="r" depth="3" NCoef="0" IVar="-1" Cut="0.0000000000000000e+00" cType="1" res="-2.2975571453571320e-02" rms="3.5921040177345276e-01" purity="1.6210778057575226e-01" nType="-99"/>
          </Node>
        </Node>
        <Node pos="r" depth="1" NCoef="0" IVar="6" Cut="2.3049411177635193e-01" cType="1" res="2.8236618265509605e-02" rms="4.4308024644851685e-01" purity="6.2962496280670166e-01" nType="0">
          <Node pos="l" depth="2" NCoef="0" IVar="9" Cut="2.4689393043518066e+00" cType="1" res="-2.5323990732431412e-02" rms="4.6184781193733215e-01" purity="5.1519685983657837e-01" nType="0">
            <Node pos="l" depth="3" NCoef="0" IVar="-1" Cut="0.0000000000000000e+00" cType="1" res="-1.5313906595110893e-02" rms="4.5551985502243042e-01" purity="4.4583609700202942e-01" nType="-99"/>
            <Node pos="r" depth="3" NCoef="0" IVar="-1" Cut="0.0000000000000000e+00" cType="1" res="4.7094388864934444e-03" rms="4.6409833431243896e-01" purity="5.9050154685974121e-01" nType="-99"/>
          </Node>
          <Node pos="r" depth="2" NCoef="0" IVar="14" Cut="5.2826641082763672e+01" cType="1" res="4.7196589410305023e-02" rms="4.3466445803642273e-01" purity="6.7013144493103027e-01" nType="0">
            <Node pos="l" depth="3" NCoef="0" IVar="-1" Cut="0.0000000000000000e+00" cType="1" res="1.3993931002914906e-02" rms="4.2821362614631653e-01" purity="7.0978486537933350e-01" nType="-99"/>
            <Node pos="r" depth="3" NCoef="0" IVar="-1" Cut="0.0000000000000000e+00" cType="1" res="-2.4818878155201674e-03" rms="4.6265417337417603e-01" purity="4.6238535642623901e-01" nType="-99"/>
          </Node>
        </Node>
      </Node>
    </BinaryTree>
    <BinaryTree type="DecisionTree" boostWeight="1.0000000000000000e+00" itree="27">
      <Node pos="s" depth="0" NCoef="0" IVar="15" Cut="1.3720523118972778e+00" cType="1" res="7.4823165778070688e-04" rms="4.4569620490074158e-01" purity="5.0117212533950806e-01" nType="0">
        <Node pos="l" depth="1" NCoef="0" IVar="0" Cut="1.0454742431640625e+03" cType="1" res="-1.4538600109517574e-02" rms="4.4947019219398499e-01" purity="4.3501204252243042e-01" nType="0">
          <Node pos="l" depth="2" NCoef="0" IVar="1" Cut="1.7230066061019897e+00" cType="1" res="-4.4856842607259750e-02" rms="4.4446414709091187e-01" purity="4.0231472253799438e-01" nType="0">
            <Node pos="l" depth="3" NCoef="0" IVar="-1" Cut="0.0000000000000000e+00" cType="1" res="-2.3977324366569519e-02" rms="3.9067894220352173e-01" purity="1.9442157447338104e-01" nType="-99"/>
            <Node pos="r" depth="3" NCoef="0" IVar="-1" Cut="0.0000000000000000e+00" cType="1" res="-6.9541949778795242e-03" rms="4.5784369111061096e-01" purity="4.6229788661003113e-01" nType="-99"/>
          </Node>
          <Node pos="r" depth="2" NCoef="0" IVar="6" Cut="2.7853795886039734e-01" cType="1" res="6.0403981478884816e-04" rms="4.5118749141693115e-01" purity="4.5134294033050537e-01" nType="0">
            <Node pos="l" depth="3" NCoef="0" IVar="-1" Cut="0.0000000000000000e+00" cType="1" res="-6.4777247607707977e-03" rms="4.4995498657226562e-01" purity="3.8776203989982605e-01" nType="-99"/>
            <Node pos="r" depth="3" NCoef="0" IVar="-1" Cut="0.0000000000000000e+00" cType="1" res="6.0741528868675232e-03" rms="4.5074850320816040e-01" purity="5.0827240943908691e-01" nType="-99"/>
          </Node>
        </Node>
        <Node pos="r" depth="1" NCoef="0" IVar="13" Cut="9.0055511474609375e+01" cType="1" res="3.5313446074724197e-02" rms="4.3506684899330139e-01" purity="6.5076738595962524e-01" nType="0">
          <Node pos="l" depth="2" NCoef="0" IVar="14" Cut="2.6693216323852539e+01" cType="1" res="5.0264976918697357e-02" rms="4.3045437335968018e-01" purity="7.2073727846145630e-01" nType="0">
            <Node pos="l" depth="3" NCoef="0" IVar="-1" Cut="0.0000000000000000e+00" cType="1" res="1.0113253956660628e-03" rms="4.5281454920768738e-01" purity="6.6645300388336182e-01" nType="-99"/>
            <Node pos="r" depth="3" NCoef="0" IVar="-1" Cut="0.0000000000000000e+00" cType="1" res="1.5197553671896458e-02" rms="4.2247653007507324e-01" purity="7.3715680837631226e-01" nType="-99"/>
          </Node>
          <Node pos="r" depth="2" NCoef="0" IVar="-1" Cut="0.0000000000000000e+00" cType="1" res="-7.1334578096866608e-03" rms="4.4910371303558350e-01" purity="3.3674409985542297e-01" nType="-99"/>
        </Node>
      </Node>
    </BinaryTree>
    <BinaryTree type="DecisionTree" boostWeight="1.0000000000000000e+00" itree="28">
      <Node pos="s" depth="0" NCoef="0" IVar="7" Cut="2.0042533874511719e+02" cType="1" res="-1.6969690332189202e-03" rms="4.4597232341766357e-01" purity="4.9847480654716492e-01" nType="0">
        <Node pos="l" depth="1" NCoef="0" IVar="14" Cut="2.5109907150268555e+01" cType="1" res="9.9270921200513840e-03" rms="4.5658335089683533e-01" purity="5.6662160158157349e-01" nType="0">
          <Node pos="l" depth="2" NCoef="0" IVar="6" Cut="3.1008729338645935e-01" cType="1" res="-4.2713146656751633e-02" rms="4.6406155824661255e-01" purity="5.4218107461929321e-01" nType="0">
            <Node pos="l" depth="3" NCoef="0" IVar="-1" Cut="0.0000000000000000e+00" cType="1" res="-1.9556639716029167e-02" rms="4.6669638156890869e-01" purity="4.6040478348731995e-01" nType="-99"/>
            <Node pos="r" depth="3" NCoef="0" IVar="-1" Cut="0.0000000000000000e+00" cType="1" res="-4.8441253602504730e-04" rms="4.5790323615074158e-01" purity="6.1339592933654785e-01" nType="-99"/>
          </Node>
          <Node pos="r" depth="2" NCoef="0" IVar="14" Cut="6.0661785125732422e+01" cType="1" res="1.8601428717374802e-02" rms="4.5475485920906067e-01" purity="5.7064902782440186e-01" nType="0">
            <Node pos="l" depth="3" NCoef="0" IVar="-1" Cut="0.0000000000000000e+00" cType="1" res="6.2460405752062798e-03" rms="4.5262479782104492e-01" purity="6.0731863975524902e-01" nType="-99"/>
            <Node pos="r" depth="3" NCoef="0" IVar="-1" Cut="0.0000000000000000e+00" cType="1" res="-7.3641296476125717e-03" rms="4.6348941326141357e-01" purity="3.5927531123161316e-01" nType="-99"/>
          </Node>
        </Node>
        <Node pos="r" depth="1" NCoef="0" IVar="3" Cut="7.8569877624511719e+01" cType="1" res="-4.8848677426576614e-02" rms="3.9657506346702576e-01" purity="2.2204479575157166e-01" nType="0">
          <Node pos="l" depth="2" NCoef="0" IVar="-1" Cut="0.0000000000000000e+00" cType="1" res="-9.9946488626301289e-04" rms="4.4875216484069824e-01" purity="3.2147458195686340e-01" nType="-99"/>
          <Node pos="r" depth="2" NCoef="0" IVar="10" Cut="1.2869979858398438e+02" cType="1" res="-6.4711913466453552e-02" rms="3.7502074241638184e-01" purity="1.8671688437461853e-01" nType="0">
            <Node pos="l" depth="3" NCoef="0" IVar="-1" Cut="0.0000000000000000e+00" cType="1" res="-2.4150254204869270e-02" rms="3.6432206630706787e-01" purity="1.7801654338836670e-01" nType="-99"/>
            <Node pos="r" depth="3" NCoef="0" IVar="-1" Cut="0.0000000000000000e+00" cType="1" res="-1.3399277813732624e-02" rms="3.8103556632995605e-01" purity="1.9257205724716187e-01" nType="-99"/>
          </Node>
        </Node>
      </Node>
    </BinaryTree>
    <BinaryTree type="DecisionTree" boostWeight="1.0000000000000000e+00" itree="29">
      <Node pos="s" depth="0" NCoef="0" IVar="0" Cut="1.1855631103515625e+03" cType="1" res="-1.7384134698659182e-03" rms="4.4721242785453796e-01" purity="4.9720081686973572e-01" nType="0">
        <Node pos="l" depth="1" NCoef="0" IVar="14" Cut="6.3445766448974609e+01" cType="1" res="-2.7672659605741501e-02" rms="4.4664812088012695e-01" purity="4.7234195470809937e-01" nType="0">
          <Node pos="l" depth="2" NCoef="0" IVar="10" Cut="6.4749519348144531e+01" cType="1" res="-1.7602389678359032e-02" rms="4.5306593179702759e-01" purity="5.1172208786010742e-01" nType="0">
            <Node pos="l" depth="3" NCoef="0" IVar="-1" Cut="0.0000000000000000e+00" cType="1" res="-1.6326252371072769e-02" rms="4.5333573222160339e-01" purity="4.9493303894996643e-01" nType="-99"/>
            <Node pos="r" depth="3" NCoef="0" IVar="-1" Cut="0.0000000000000000e+00" cType="1" res="3.6168811493553221e-04" rms="4.5143949985504150e-01" purity="5.1778960227966309e-01" nType="-99"/>
          </Node>
          <Node pos="r" depth="2" NCoef="0" IVar="-1" Cut="0.0000000000000000e+00" cType="1" res="-2.3084109649062157e-02" rms="3.9690229296684265e-01" purity="2.1918125450611115e-01" nType="-99"/>
        </Node>
        <Node pos="r" depth="1" NCoef="0" IVar="7" Cut="2.4136492919921875e+02" cType="1" res="1.7797822132706642e-02" rms="4.4664371013641357e-01" purity="5.1592695713043213e-01" nType="0">
          <Node pos="l" depth="2" NCoef="0" IVar="6" Cut="3.5991862416267395e-01" cType="1" res="2.8099836781620979e-02" rms="4.5427131652832031e-01" purity="5.7124745845794678e-01" nType="0">
            <Node pos="l" depth="3" NCoef="0" IVar="-1" Cut="0.0000000000000000e+00" cType="1" res="3.3326880075037479e-03" rms="4.5923519134521484e-01" purity="5.3882944583892822e-01" nType="-99"/>
            <Node pos="r" depth="3" NCoef="0" IVar="-1" Cut="0.0000000000000000e+00" cType="1" res="1.3896727934479713e-02" rms="4.4048038125038147e-01" purity="6.4916747808456421e-01" nType="-99"/>
          </Node>
          <Node pos="r" depth="2" NCoef="0" IVar="-1" Cut="0.0000000000000000e+00" cType="1" res="-1.0218180716037750e-02" rms="3.9893123507499695e-01" purity="2.2013480961322784e-01" nType="-99"/>
        </Node>
      </Node>
    </BinaryTree>
    <BinaryTree type="DecisionTree" boostWeight="1.0000000000000000e+00" itree="30">
      <Node pos="s" depth="0" NCoef="0" IVar="15" Cut="1.5514931678771973e+00" cType="1" res="9.7443361300975084e-04" rms="4.4632217288017273e-01" purity="5.0054442882537842e-01" nType="0">
        <Node pos="l" depth="1" NCoef="0" IVar="14" Cut="2.7727260589599609e+01" cType="1" res="-1.0635651648044586e-02" rms="4.5064041018486023e-01" purity="4.4599184393882751e-01" nType="0">
          <Node pos="l" depth="2" NCoef="0" IVar="10" Cut="6.5338539123535156e+01" cType="1" res="-4.8303995281457901e-02" rms="4.5403471589088440e-01" purity="4.5430189371109009e-01" nType="0">
            <Node pos="l" depth="3" NCoef="0" IVar="-1" Cut="0.0000000000000000e+00" cType="1" res="-2.0289748907089233e-02" rms="4.5408084988594055e-01" purity="4.2689469456672668e-01" nType="-99"/>
            <Node pos="r" depth="3" NCoef="0" IVar="-1" Cut="0.0000000000000000e+00" cType="1" res="-5.4609412327408791e-03" rms="4.5220753550529480e-01" purity="4.7033643722534180e-01" nType="-99"/>
          </Node>
          <Node pos="r" depth="2" NCoef="0" IVar="14" Cut="5.4609966278076172e+01" cType="1" res="-1.6993548488244414e-03" rms="4.4936820864677429e-01" purity="4.4402047991752625e-01" nType="0">
            <Node pos="l" depth="3" NCoef="0" IVar="-1" Cut="0.0000000000000000e+00" cType="1" res="2.8411329258233309e-03" rms="4.5560747385025024e-01" purity="5.0583988428115845e-01" nType="-99"/>
            <Node pos="r" depth="3" NCoef="0" IVar="-1" Cut="0.0000000000000000e+00" cType="1" res="-7.8008738346397877e-03" rms="4.3403193354606628e-01" purity="3.1044423580169678e-01" nType="-99"/>
          </Node>
        </Node>
        <Node pos="r" depth="1" NCoef="0" IVar="13" Cut="5.8158668518066406e+01" cType="1" res="3.6229245364665985e-02" rms="4.3103343248367310e-01" purity="6.6619700193405151e-01" nType="0">
          <Node pos="l" depth="2" NCoef="0" IVar="14" Cut="3.0533252716064453e+01" cType="1" res="6.4357630908489227e-02" rms="4.0545156598091125e-01" purity="7.7591234445571899e-01" nType="0">
            <Node pos="l" depth="3" NCoef="0" IVar="-1" Cut="0.0000000000000000e+00" cType="1" res="9.4352541491389275e-03" rms="4.2829781770706177e-01" purity="7.3558604717254639e-01" nType="-99"/>
            <Node pos="r" depth="3" NCoef="0" IVar="-1" Cut="0.0000000000000000e+00" cType="1" res="2.2227119654417038e-02" rms="3.8291251659393311e-01" purity="8.1123387813568115e-01" nType="-99"/>
          </Node>
          <Node pos="r" depth="2" NCoef="0" IVar="6" Cut="3.1356692314147949e-01" cType="1" res="3.4427526406943798e-03" rms="4.5687541365623474e-01" purity="5.3831261396408081e-01" nType="0">
            <Node pos="l" depth="3" NCoef="0" IVar="-1" Cut="0.0000000000000000e+00" cType="1" res="-7.2700516320765018e-03" rms="4.5755514502525330e-01" purity="4.7177842259407043e-01" nType="-99"/>
            <Node pos="r" depth="3" NCoef="0" IVar="-1" Cut="0.0000000000000000e+00" cType="1" res="9.1646788641810417e-03" rms="4.5322570204734802e-01" purity="6.0581839084625244e-01" nType="-99"/>
          </Node>
        </Node>
      </Node>
    </BinaryTree>
    <BinaryTree type="DecisionTree" boostWeight="1.0000000000000000e+00" itree="31">
      <Node pos="s" depth="0" NCoef="0" IVar="0" Cut="7.9206207275390625e+02" cType="1" res="-4.4118659570813179e-04" rms="4.4601407647132874e-01" purity="4.9979692697525024e-01" nType="0">
        <Node pos="l" depth="1" NCoef="0" IVar="1" Cut="2.0870661735534668e+00" cType="1" res="-4.0976624935865402e-02" rms="4.4318658113479614e-01" purity="4.5748600363731384e-01" nType="0">
          <Node pos="l" depth="2" NCoef="0" IVar="-1" Cut="0.0000000000000000e+00" cType="1" res="-2.1616196259856224e-02" rms="4.0249612927436829e-01" purity="2.2506621479988098e-01" nType="-99"/>
          <Node pos="r" depth="2" NCoef="0" IVar="6" Cut="3.7524592876434326e-01" cType="1" res="-2.4475460872054100e-02" rms="4.5572000741958618e-01" purity="5.4056555032730103e-01" nType="0">
            <Node pos="l" depth="3" NCoef="0" IVar="-1" Cut="0.0000000000000000e+00" cType="1" res="-1.3305594213306904e-02" rms="4.5719757676124573e-01" purity="4.7651419043540955e-01" nType="-99"/>
            <Node pos="r" depth="3" NCoef="0" IVar="-1" Cut="0.0000000000000000e+00" cType="1" res="1.8124337075278163e-03" rms="4.5195060968399048e-01" purity="6.0099518299102783e-01" nType="-99"/>
          </Node>
        </Node>
        <Node pos="r" depth="1" NCoef="0" IVar="6" Cut="3.6326777935028076e-01" cType="1" res="9.1649675741791725e-03" rms="4.4614204764366150e-01" purity="5.0982385873794556e-01" nType="0">
          <Node pos="l" depth="2" NCoef="0" IVar="3" Cut="9.9016883850097656e+01" cType="1" res="-5.7826680131256580e-03" rms="4.4900304079055786e-01" purity="4.7512772679328918e-01" nType="0">
            <Node pos="l" depth="3" NCoef="0" IVar="-1" Cut="0.0000000000000000e+00" cType="1" res="3.8421158678829670e-03" rms="4.6446713805198669e-01" purity="5.2026373147964478e-01" nType="-99"/>
            <Node pos="r" depth="3" NCoef="0" IVar="-1" Cut="0.0000000000000000e+00" cType="1" res="-7.7877370640635490e-03" rms="4.2891672253608704e-01" purity="4.2291721701622009e-01" nType="-99"/>
          </Node>
          <Node pos="r" depth="2" NCoef="0" IVar="16" Cut="1.5718031311035156e+02" cType="1" res="3.7788189947605133e-02" rms="4.3919414281845093e-01" purity="5.7626348733901978e-01" nType="0">
            <Node pos="l" depth="3" NCoef="0" IVar="-1" Cut="0.0000000000000000e+00" cType="1" res="1.2189237400889397e-02" rms="4.3856465816497803e-01" purity="6.3100385665893555e-01" nType="-99"/>
            <Node pos="r" depth="3" NCoef="0" IVar="-1" Cut="0.0000000000000000e+00" cType="1" res="-5.8804983273148537e-03" rms="4.3668684363365173e-01" purity="3.2826688885688782e-01" nType="-99"/>
          </Node>
        </Node>
      </Node>
    </BinaryTree>
    <BinaryTree type="DecisionTree" boostWeight="1.0000000000000000e+00" itree="32">
      <Node pos="s" depth="0" NCoef="0" IVar="9" Cut="2.5521662235260010e+00" cType="1" res="9.7118323901668191e-04" rms="4.4528746604919434e-01" purity="5.0043880939483643e-01" nType="0">
        <Node pos="l" depth="1" NCoef="0" IVar="11" Cut="3.1618740558624268e+00" cType="1" res="-1.6787171363830566e-02" rms="4.3695694208145142e-01" purity="4.5071625709533691e-01" nType="0">
          <Node pos="l" depth="2" NCoef="0" IVar="7" Cut="6.4642570495605469e+01" cType="1" res="-2.8462830930948257e-02" rms="4.3589052557945251e-01" purity="4.2802330851554871e-01" nType="0">
            <Node pos="l" depth="3" NCoef="0" IVar="-1" Cut="0.0000000000000000e+00" cType="1" res="3.5159171093255281e-03" rms="4.4075840711593628e-01" purity="6.7123001813888550e-01" nType="-99"/>
            <Node pos="r" depth="3" NCoef="0" IVar="-1" Cut="0.0000000000000000e+00" cType="1" res="-1.0109410621225834e-02" rms="4.3356558680534363e-01" purity="3.5449880361557007e-01" nType="-99"/>
          </Node>
