<?xml version="1.0"?>
<MethodSetup Method="BDT::BDTG_vbfinc_v0">
  <GeneralInfo>
    <Info name="TMVA Release" value="4.2.1 [262657]"/>
    <Info name="ROOT Release" value="6.30/09 [400905]"/>
    <Info name="Creator" value="ceballos"/>
    <Info name="Date" value="Wed Oct 22 03:19:03 2025"/>
    <Info name="Host" value="Linux cmsbuild145.cern.ch 4.18.0-553.8.1.el8_10.x86_64 #1 SMP Tue Jul 2 07:26:33 EDT 2024 x86_64 x86_64 x86_64 GNU/Linux"/>
    <Info name="Dir" value="/scratch/submit/cms/ceballos/analysis/MitAnalysisRunIII/rdf/macros"/>
    <Info name="Training events" value="57153"/>
    <Info name="TrainingTime" value="1.91582210e+01"/>
    <Info name="AnalysisType" value="Classification"/>
  </GeneralInfo>
  <Options>
    <Option name="V" modified="Yes">False</Option>
    <Option name="VerbosityLevel" modified="No">Default</Option>
    <Option name="VarTransform" modified="No">None</Option>
    <Option name="H" modified="Yes">False</Option>
    <Option name="CreateMVAPdfs" modified="No">False</Option>
    <Option name="IgnoreNegWeightsInTraining" modified="No">False</Option>
    <Option name="NTrees" modified="Yes">1000</Option>
    <Option name="MaxDepth" modified="Yes">3</Option>
    <Option name="MinNodeSize" modified="Yes">5%</Option>
    <Option name="nCuts" modified="Yes">1000</Option>
    <Option name="BoostType" modified="Yes">Grad</Option>
    <Option name="AdaBoostR2Loss" modified="No">quadratic</Option>
    <Option name="UseBaggedBoost" modified="Yes">True</Option>
    <Option name="Shrinkage" modified="Yes">1.000000e-01</Option>
    <Option name="AdaBoostBeta" modified="No">5.000000e-01</Option>
    <Option name="UseRandomisedTrees" modified="No">False</Option>
    <Option name="UseNvars" modified="No">4</Option>
    <Option name="UsePoissonNvars" modified="No">True</Option>
    <Option name="BaggedSampleFraction" modified="No">3.000000e-01</Option>
    <Option name="UseYesNoLeaf" modified="No">True</Option>
    <Option name="NegWeightTreatment" modified="Yes">ignorenegweightsintraining</Option>
    <Option name="Css" modified="No">1.000000e+00</Option>
    <Option name="Cts_sb" modified="No">1.000000e+00</Option>
    <Option name="Ctb_ss" modified="No">1.000000e+00</Option>
    <Option name="Cbb" modified="No">1.000000e+00</Option>
    <Option name="NodePurityLimit" modified="No">5.000000e-01</Option>
    <Option name="SeparationType" modified="No">giniindex</Option>
    <Option name="RegressionLossFunctionBDTG" modified="No">huber</Option>
    <Option name="HuberQuantile" modified="No">7.000000e-01</Option>
    <Option name="DoBoostMonitor" modified="No">False</Option>
    <Option name="UseFisherCuts" modified="No">False</Option>
    <Option name="MinLinCorrForFisher" modified="No">8.000000e-01</Option>
    <Option name="UseExclusiveVars" modified="No">False</Option>
    <Option name="DoPreselection" modified="No">False</Option>
    <Option name="SigToBkgFraction" modified="No">1.000000e+00</Option>
    <Option name="PruneMethod" modified="No">nopruning</Option>
    <Option name="PruneStrength" modified="No">0.000000e+00</Option>
    <Option name="PruningValFraction" modified="No">5.000000e-01</Option>
    <Option name="SkipNormalization" modified="No">False</Option>
    <Option name="nEventsMin" modified="No">0</Option>
    <Option name="UseBaggedGrad" modified="No">False</Option>
    <Option name="GradBaggingFraction" modified="Yes">3.000000e-01</Option>
    <Option name="UseNTrainEvents" modified="No">0</Option>
    <Option name="NNodesMax" modified="No">0</Option>
  </Options>
  <Variables NVar="15">
    <Variable VarIndex="0" Expression="vbs_mjj" Label="vbs_mjj" Title="vbs_mjj" Unit="" Internal="vbs_mjj" Type="F" Min="5.00055237e+02" Max="9.50113867e+03"/>
    <Variable VarIndex="1" Expression="vbs_ptjj" Label="vbs_ptjj" Title="vbs_ptjj" Unit="" Internal="vbs_ptjj" Type="F" Min="7.56154776e-01" Max="1.76801184e+03"/>
    <Variable VarIndex="2" Expression="vbs_detajj" Label="vbs_detajj" Title="vbs_detajj" Unit="" Internal="vbs_detajj" Type="F" Min="2.50012207e+00" Max="8.98242188e+00"/>
    <Variable VarIndex="3" Expression="vbs_dphijj" Label="vbs_dphijj" Title="vbs_dphijj" Unit="" Internal="vbs_dphijj" Type="F" Min="0.00000000e+00" Max="3.14158392e+00"/>
    <Variable VarIndex="4" Expression="vbs_ptj1" Label="vbs_ptj1" Title="vbs_ptj1" Unit="" Internal="vbs_ptj1" Type="F" Min="5.00594521e+01" Max="1.75817175e+03"/>
    <Variable VarIndex="5" Expression="vbs_ptj2" Label="vbs_ptj2" Title="vbs_ptj2" Unit="" Internal="vbs_ptj2" Type="F" Min="5.00006943e+01" Max="1.02631030e+03"/>
    <Variable VarIndex="6" Expression="vbs_etaj1" Label="vbs_etaj1" Title="vbs_etaj1" Unit="" Internal="vbs_etaj1" Type="F" Min="8.02055001e-06" Max="4.86425781e+00"/>
    <Variable VarIndex="7" Expression="vbs_etaj2" Label="vbs_etaj2" Title="vbs_etaj2" Unit="" Internal="vbs_etaj2" Type="F" Min="3.99410725e-04" Max="4.89941406e+00"/>
    <Variable VarIndex="8" Expression="vbs_zepvv" Label="vbs_zepvv" Title="vbs_zepvv" Unit="" Internal="vbs_zepvv" Type="F" Min="1.39486920e-05" Max="9.99953449e-01"/>
    <Variable VarIndex="9" Expression="vbs_zepmax" Label="vbs_zepmax" Title="vbs_zepmax" Unit="" Internal="vbs_zepmax" Type="F" Min="1.70220770e-02" Max="1.67865264e+00"/>
    <Variable VarIndex="10" Expression="vbs_ptvv" Label="vbs_ptvv" Title="vbs_ptvv" Unit="" Internal="vbs_ptvv" Type="F" Min="6.79324031e-01" Max="1.75415283e+03"/>
    <Variable VarIndex="11" Expression="vbs_pttot" Label="vbs_pttot" Title="vbs_pttot" Unit="" Internal="vbs_pttot" Type="F" Min="1.43406913e-01" Max="8.81449463e+02"/>
    <Variable VarIndex="12" Expression="vbs_detavvj1" Label="vbs_detavvj1" Title="vbs_detavvj1" Unit="" Internal="vbs_detavvj1" Type="F" Min="4.52113636e-05" Max="8.18206882e+00"/>
    <Variable VarIndex="13" Expression="vbs_detavvj2" Label="vbs_detavvj2" Title="vbs_detavvj2" Unit="" Internal="vbs_detavvj2" Type="F" Min="2.38480803e-04" Max="9.03950500e+00"/>
    <Variable VarIndex="14" Expression="vbs_ptbalance" Label="vbs_ptbalance" Title="vbs_ptbalance" Unit="" Internal="vbs_ptbalance" Type="F" Min="-9.85147417e-01" Max="4.68910141e+01"/>
  </Variables>
  <Spectators NSpec="0"/>
  <Classes NClass="2">
    <Class Name="Signal" Index="0"/>
    <Class Name="Background" Index="1"/>
  </Classes>
  <Transformations NTransformations="0"/>
  <MVAPdfs/>
  <Weights NTrees="1000" AnalysisType="1">
    <BinaryTree type="DecisionTree" boostWeight="1.0000000000000000e+00" itree="0">
      <Node pos="s" depth="0" NCoef="0" IVar="0" Cut="1.2277257080078125e+03" cType="1" res="-5.9180697426199913e-03" rms="4.9996498227119446e-01" purity="4.9408191442489624e-01" nType="0">
        <Node pos="l" depth="1" NCoef="0" IVar="13" Cut="2.3089361190795898e+00" cType="1" res="-1.5207183361053467e-01" rms="4.7631308436393738e-01" purity="3.4792816638946533e-01" nType="0">
          <Node pos="l" depth="2" NCoef="0" IVar="3" Cut="2.2342507839202881e+00" cType="1" res="-1.6090404242277145e-02" rms="4.9974101781845093e-01" purity="4.8390957713127136e-01" nType="0">
            <Node pos="l" depth="3" NCoef="0" IVar="-1" Cut="0.0000000000000000e+00" cType="1" res="-2.6498079299926758e-02" rms="4.8212683200836182e-01" purity="3.6750960350036621e-01" nType="-99"/>
            <Node pos="r" depth="3" NCoef="0" IVar="-1" Cut="0.0000000000000000e+00" cType="1" res="2.8162851929664612e-02" rms="4.7976174950599670e-01" purity="6.4081424474716187e-01" nType="-99"/>
          </Node>
          <Node pos="r" depth="2" NCoef="0" IVar="3" Cut="2.2031137943267822e+00" cType="1" res="-2.6404479146003723e-01" rms="4.2459434270858765e-01" purity="2.3595520853996277e-01" nType="0">
            <Node pos="l" depth="3" NCoef="0" IVar="-1" Cut="0.0000000000000000e+00" cType="1" res="-6.6953137516975403e-02" rms="3.7139186263084412e-01" purity="1.6523429751396179e-01" nType="-99"/>
            <Node pos="r" depth="3" NCoef="0" IVar="-1" Cut="0.0000000000000000e+00" cType="1" res="-3.0192552134394646e-02" rms="4.7666576504707336e-01" purity="3.4903723001480103e-01" nType="-99"/>
          </Node>
        </Node>
        <Node pos="r" depth="1" NCoef="0" IVar="12" Cut="1.3744838237762451e+00" cType="1" res="2.4215862154960632e-01" rms="4.3744623661041260e-01" purity="7.4215859174728394e-01" nType="0">
          <Node pos="l" depth="2" NCoef="0" IVar="3" Cut="2.2278625965118408e+00" cType="1" res="5.6349646300077438e-02" rms="4.9681457877159119e-01" purity="5.5634969472885132e-01" nType="0">
            <Node pos="l" depth="3" NCoef="0" IVar="-1" Cut="0.0000000000000000e+00" cType="1" res="-2.2490749135613441e-02" rms="4.8719006776809692e-01" purity="3.8754627108573914e-01" nType="-99"/>
            <Node pos="r" depth="3" NCoef="0" IVar="-1" Cut="0.0000000000000000e+00" cType="1" res="4.0442138910293579e-02" rms="4.5728638768196106e-01" purity="7.0221066474914551e-01" nType="-99"/>
          </Node>
          <Node pos="r" depth="2" NCoef="0" IVar="3" Cut="1.7875205278396606e+00" cType="1" res="3.4015682339668274e-01" rms="3.6646056175231934e-01" purity="8.4015685319900513e-01" nType="0">
            <Node pos="l" depth="3" NCoef="0" IVar="-1" Cut="0.0000000000000000e+00" cType="1" res="4.4901061803102493e-02" rms="4.4676321744918823e-01" purity="7.2450530529022217e-01" nType="-99"/>
            <Node pos="r" depth="3" NCoef="0" IVar="-1" Cut="0.0000000000000000e+00" cType="1" res="7.8082665801048279e-02" rms="3.1237387657165527e-01" purity="8.9041334390640259e-01" nType="-99"/>
          </Node>
        </Node>
      </Node>
    </BinaryTree>
    <BinaryTree type="DecisionTree" boostWeight="1.0000000000000000e+00" itree="1">
      <Node pos="s" depth="0" NCoef="0" IVar="0" Cut="1.0106864624023438e+03" cType="1" res="7.2958548553287983e-03" rms="4.8798614740371704e-01" purity="5.0680971145629883e-01" nType="0">
        <Node pos="l" depth="1" NCoef="0" IVar="12" Cut="1.1083328723907471e+00" cType="1" res="-1.5817733108997345e-01" rms="4.6385329961776733e-01" purity="3.2673680782318115e-01" nType="0">
          <Node pos="l" depth="2" NCoef="0" IVar="3" Cut="2.5705103874206543e+00" cType="1" res="-2.7733647823333740e-01" rms="3.9691537618637085e-01" purity="1.9923327863216400e-01" nType="0">
            <Node pos="l" depth="3" NCoef="0" IVar="-1" Cut="0.0000000000000000e+00" cType="1" res="-6.5419331192970276e-02" rms="3.5240477323532104e-01" purity="1.4681576192378998e-01" nType="-99"/>
            <Node pos="r" depth="3" NCoef="0" IVar="-1" Cut="0.0000000000000000e+00" cType="1" res="-2.5393908843398094e-02" rms="4.8038110136985779e-01" purity="3.6140465736389160e-01" nType="-99"/>
          </Node>
          <Node pos="r" depth="2" NCoef="0" IVar="3" Cut="2.0023269653320312e+00" cType="1" res="-5.0523195415735245e-02" rms="4.9274480342864990e-01" purity="4.4192960858345032e-01" nType="0">
            <Node pos="l" depth="3" NCoef="0" IVar="-1" Cut="0.0000000000000000e+00" cType="1" res="-3.2098069787025452e-02" rms="4.6604189276695251e-01" purity="3.2178306579589844e-01" nType="-99"/>
            <Node pos="r" depth="3" NCoef="0" IVar="-1" Cut="0.0000000000000000e+00" cType="1" res="1.1948904953896999e-02" rms="4.9424499273300171e-01" purity="5.6262230873107910e-01" nType="-99"/>
          </Node>
        </Node>
        <Node pos="r" depth="1" NCoef="0" IVar="12" Cut="1.7808481454849243e+00" cType="1" res="1.7674304544925690e-01" rms="4.5266038179397583e-01" purity="6.9120723009109497e-01" nType="0">
          <Node pos="l" depth="2" NCoef="0" IVar="3" Cut="2.5488786697387695e+00" cType="1" res="3.7465289235115051e-02" rms="4.9120119214057922e-01" purity="5.3980642557144165e-01" nType="0">
            <Node pos="l" depth="3" NCoef="0" IVar="-1" Cut="0.0000000000000000e+00" cType="1" res="-1.3176500797271729e-02" rms="4.8973864316940308e-01" purity="4.2945551872253418e-01" nType="-99"/>
            <Node pos="r" depth="3" NCoef="0" IVar="-1" Cut="0.0000000000000000e+00" cType="1" res="4.4747348874807358e-02" rms="4.3608072400093079e-01" purity="7.3846405744552612e-01" nType="-99"/>
          </Node>
          <Node pos="r" depth="2" NCoef="0" IVar="3" Cut="1.8489636182785034e+00" cType="1" res="3.1193459033966064e-01" rms="3.6398562788963318e-01" purity="8.3816611766815186e-01" nType="0">
            <Node pos="l" depth="3" NCoef="0" IVar="-1" Cut="0.0000000000000000e+00" cType="1" res="4.3298870325088501e-02" rms="4.3977603316307068e-01" purity="7.3045140504837036e-01" nType="-99"/>
            <Node pos="r" depth="3" NCoef="0" IVar="-1" Cut="0.0000000000000000e+00" cType="1" res="7.2400107979774475e-02" rms="3.0805733799934387e-01" purity="8.9233690500259399e-01" nType="-99"/>
          </Node>
        </Node>
      </Node>
    </BinaryTree>
    <BinaryTree type="DecisionTree" boostWeight="1.0000000000000000e+00" itree="2">
      <Node pos="s" depth="0" NCoef="0" IVar="0" Cut="1.0512127685546875e+03" cType="1" res="2.3613761004526168e-04" rms="4.7722578048706055e-01" purity="5.0007933378219604e-01" nType="0">
        <Node pos="l" depth="1" NCoef="0" IVar="13" Cut="2.0973296165466309e+00" cType="1" res="-1.4534702897071838e-01" rms="4.5816740393638611e-01" purity="3.2503917813301086e-01" nType="0">
          <Node pos="l" depth="2" NCoef="0" IVar="3" Cut="1.7739031314849854e+00" cType="1" res="-2.1497542038559914e-02" rms="4.9247157573699951e-01" purity="4.7189408540725708e-01" nType="0">
            <Node pos="l" depth="3" NCoef="0" IVar="-1" Cut="0.0000000000000000e+00" cType="1" res="-3.3771399408578873e-02" rms="4.5820891857147217e-01" purity="3.0205583572387695e-01" nType="-99"/>
            <Node pos="r" depth="3" NCoef="0" IVar="-1" Cut="0.0000000000000000e+00" cType="1" res="1.4709572307765484e-02" rms="4.9057918787002563e-01" purity="5.8174037933349609e-01" nType="-99"/>
          </Node>
          <Node pos="r" depth="2" NCoef="0" IVar="1" Cut="1.0599145507812500e+02" cType="1" res="-2.3305241763591766e-01" rms="4.1020619869232178e-01" purity="2.2104223072528839e-01" nType="0">
            <Node pos="l" depth="3" NCoef="0" IVar="-1" Cut="0.0000000000000000e+00" cType="1" res="-2.0466193556785583e-02" rms="4.7920593619346619e-01" purity="3.6999455094337463e-01" nType="-99"/>
            <Node pos="r" depth="3" NCoef="0" IVar="-1" Cut="0.0000000000000000e+00" cType="1" res="-5.6442208588123322e-02" rms="3.7256181240081787e-01" purity="1.6915710270404816e-01" nType="-99"/>
          </Node>
        </Node>
        <Node pos="r" depth="1" NCoef="0" IVar="12" Cut="1.1654815673828125e+00" cType="1" res="1.6658255457878113e-01" rms="4.4297367334365845e-01" purity="7.0008391141891479e-01" nType="0">
          <Node pos="l" depth="2" NCoef="0" IVar="3" Cut="2.4591379165649414e+00" cType="1" res="-1.3622489757835865e-02" rms="4.9024447798728943e-01" purity="4.8838508129119873e-01" nType="0">
            <Node pos="l" depth="3" NCoef="0" IVar="-1" Cut="0.0000000000000000e+00" cType="1" res="-2.5410296395421028e-02" rms="4.7646719217300415e-01" purity="3.5370934009552002e-01" nType="-99"/>
            <Node pos="r" depth="3" NCoef="0" IVar="-1" Cut="0.0000000000000000e+00" cType="1" res="2.8786746785044670e-02" rms="4.6527099609375000e-01" purity="6.7506462335586548e-01" nType="-99"/>
          </Node>
          <Node pos="r" depth="2" NCoef="0" IVar="3" Cut="1.8771132230758667e+00" cType="1" res="2.5365075469017029e-01" rms="3.8941043615341187e-01" purity="8.0236876010894775e-01" nType="0">
            <Node pos="l" depth="3" NCoef="0" IVar="-1" Cut="0.0000000000000000e+00" cType="1" res="2.8920166194438934e-02" rms="4.6325004100799561e-01" purity="6.7061132192611694e-01" nType="-99"/>
            <Node pos="r" depth="3" NCoef="0" IVar="-1" Cut="0.0000000000000000e+00" cType="1" res="6.3644081354141235e-02" rms="3.2816323637962341e-01" purity="8.7338191270828247e-01" nType="-99"/>
          </Node>
        </Node>
      </Node>
    </BinaryTree>
    <BinaryTree type="DecisionTree" boostWeight="1.0000000000000000e+00" itree="3">
      <Node pos="s" depth="0" NCoef="0" IVar="0" Cut="1.2848366699218750e+03" cType="1" res="-1.0264994343742728e-03" rms="4.6859174966812134e-01" purity="4.9844050407409668e-01" nType="0">
        <Node pos="l" depth="1" NCoef="0" IVar="3" Cut="2.2910304069519043e+00" cType="1" res="-1.0278060287237167e-01" rms="4.6340483427047729e-01" purity="3.6364260315895081e-01" nType="0">
          <Node pos="l" depth="2" NCoef="0" IVar="12" Cut="1.5078805685043335e+00" cType="1" res="-1.7855525016784668e-01" rms="4.3123441934585571e-01" purity="2.6586329936981201e-01" nType="0">
            <Node pos="l" depth="3" NCoef="0" IVar="-1" Cut="0.0000000000000000e+00" cType="1" res="-5.2477832883596420e-02" rms="3.7251910567283630e-01" purity="1.6971646249294281e-01" nType="-99"/>
            <Node pos="r" depth="3" NCoef="0" IVar="-1" Cut="0.0000000000000000e+00" cType="1" res="-1.1092603206634521e-02" rms="4.8629385232925415e-01" purity="4.1935849189758301e-01" nType="-99"/>
          </Node>
          <Node pos="r" depth="2" NCoef="0" IVar="13" Cut="3.1822533607482910e+00" cType="1" res="1.7058135941624641e-02" rms="4.8664095997810364e-01" purity="5.1828199625015259e-01" nType="0">
            <Node pos="l" depth="3" NCoef="0" IVar="-1" Cut="0.0000000000000000e+00" cType="1" res="1.6566077247262001e-02" rms="4.8037582635879517e-01" purity="5.9688544273376465e-01" nType="-99"/>
            <Node pos="r" depth="3" NCoef="0" IVar="-1" Cut="0.0000000000000000e+00" cType="1" res="-2.7490349486470222e-02" rms="4.6646827459335327e-01" purity="3.3302298188209534e-01" nType="-99"/>
          </Node>
        </Node>
        <Node pos="r" depth="1" NCoef="0" IVar="12" Cut="1.5694696903228760e+00" cType="1" res="1.8937475979328156e-01" rms="4.1592928767204285e-01" purity="7.5067299604415894e-01" nType="0">
          <Node pos="l" depth="2" NCoef="0" IVar="3" Cut="2.0590167045593262e+00" cType="1" res="6.1052232980728149e-02" rms="4.8043036460876465e-01" purity="5.8199036121368408e-01" nType="0">
            <Node pos="l" depth="3" NCoef="0" IVar="-1" Cut="0.0000000000000000e+00" cType="1" res="-1.8768316134810448e-02" rms="4.8435059189796448e-01" purity="3.9149457216262817e-01" nType="-99"/>
            <Node pos="r" depth="3" NCoef="0" IVar="-1" Cut="0.0000000000000000e+00" cType="1" res="3.2273497432470322e-02" rms="4.5116904377937317e-01" purity="7.0315206050872803e-01" nType="-99"/>
          </Node>
          <Node pos="r" depth="2" NCoef="0" IVar="11" Cut="4.1339611053466797e+01" cType="1" res="2.7092429995536804e-01" rms="3.4516629576683044e-01" purity="8.5787153244018555e-01" nType="0">
            <Node pos="l" depth="3" NCoef="0" IVar="-1" Cut="0.0000000000000000e+00" cType="1" res="6.6872581839561462e-02" rms="2.8176158666610718e-01" purity="9.1079914569854736e-01" nType="-99"/>
            <Node pos="r" depth="3" NCoef="0" IVar="-1" Cut="0.0000000000000000e+00" cType="1" res="3.9483509957790375e-02" rms="4.1115319728851318e-01" purity="7.7734977006912231e-01" nType="-99"/>
          </Node>
        </Node>
      </Node>
    </BinaryTree>
    <BinaryTree type="DecisionTree" boostWeight="1.0000000000000000e+00" itree="4">
      <Node pos="s" depth="0" NCoef="0" IVar="0" Cut="9.3168579101562500e+02" cType="1" res="-5.0740019651129842e-04" rms="4.6051818132400513e-01" purity="4.9908542633056641e-01" nType="0">
        <Node pos="l" depth="1" NCoef="0" IVar="3" Cut="2.0147552490234375e+00" cType="1" res="-1.4508405327796936e-01" rms="4.4159457087516785e-01" purity="2.9688501358032227e-01" nType="0">
          <Node pos="l" depth="2" NCoef="0" IVar="13" Cut="2.3216798305511475e+00" cType="1" res="-2.1844410896301270e-01" rms="3.8862356543540955e-01" purity="1.9363769888877869e-01" nType="0">
            <Node pos="l" depth="3" NCoef="0" IVar="-1" Cut="0.0000000000000000e+00" cType="1" res="-3.0109725892543793e-02" rms="4.5355072617530823e-01" purity="2.9298275709152222e-01" nType="-99"/>
            <Node pos="r" depth="3" NCoef="0" IVar="-1" Cut="0.0000000000000000e+00" cType="1" res="-5.8528095483779907e-02" rms="3.1183820962905884e-01" purity="1.0983833670616150e-01" nType="-99"/>
          </Node>
          <Node pos="r" depth="2" NCoef="0" IVar="11" Cut="3.6025989532470703e+01" cType="1" res="-5.7767931371927261e-02" rms="4.8303201794624329e-01" purity="4.1977408528327942e-01" nType="0">
            <Node pos="l" depth="3" NCoef="0" IVar="-1" Cut="0.0000000000000000e+00" cType="1" res="4.3407003395259380e-03" rms="4.8842617869377136e-01" purity="4.9779453873634338e-01" nType="-99"/>
            <Node pos="r" depth="3" NCoef="0" IVar="-1" Cut="0.0000000000000000e+00" cType="1" res="-2.6096010580658913e-02" rms="4.6680226922035217e-01" purity="3.4965458512306213e-01" nType="-99"/>
          </Node>
        </Node>
        <Node pos="r" depth="1" NCoef="0" IVar="12" Cut="1.2439689636230469e+00" cType="1" res="1.1883039027452469e-01" rms="4.4121778011322021e-01" purity="6.6598749160766602e-01" nType="0">
          <Node pos="l" depth="2" NCoef="0" IVar="5" Cut="8.6114822387695312e+01" cType="1" res="-3.7123382091522217e-02" rms="4.7731739282608032e-01" purity="4.4958072900772095e-01" nType="0">
            <Node pos="l" depth="3" NCoef="0" IVar="-1" Cut="0.0000000000000000e+00" cType="1" res="-4.0469117462635040e-02" rms="4.3100112676620483e-01" purity="2.6883459091186523e-01" nType="-99"/>
            <Node pos="r" depth="3" NCoef="0" IVar="-1" Cut="0.0000000000000000e+00" cType="1" res="1.0219720192253590e-02" rms="4.7832694649696350e-01" purity="5.4738652706146240e-01" nType="-99"/>
          </Node>
          <Node pos="r" depth="2" NCoef="0" IVar="0" Cut="1.9504951171875000e+03" cType="1" res="2.0511449873447418e-01" rms="3.9424127340316772e-01" purity="7.8571832180023193e-01" nType="0">
            <Node pos="l" depth="3" NCoef="0" IVar="-1" Cut="0.0000000000000000e+00" cType="1" res="3.1697101891040802e-02" rms="4.3488988280296326e-01" purity="7.1939736604690552e-01" nType="-99"/>
            <Node pos="r" depth="3" NCoef="0" IVar="-1" Cut="0.0000000000000000e+00" cType="1" res="6.4356468617916107e-02" rms="2.7359437942504883e-01" purity="9.1438698768615723e-01" nType="-99"/>
          </Node>
        </Node>
      </Node>
    </BinaryTree>
    <BinaryTree type="DecisionTree" boostWeight="1.0000000000000000e+00" itree="5">
      <Node pos="s" depth="0" NCoef="0" IVar="0" Cut="1.3621171875000000e+03" cType="1" res="1.6920508351176977e-03" rms="4.5559978485107422e-01" purity="5.0081568956375122e-01" nType="0">
        <Node pos="l" depth="1" NCoef="0" IVar="12" Cut="1.4575195312500000e+00" cType="1" res="-7.3934212327003479e-02" rms="4.5931136608123779e-01" purity="3.7973466515541077e-01" nType="0">
          <Node pos="l" depth="2" NCoef="0" IVar="3" Cut="1.8388534784317017e+00" cType="1" res="-1.4702092111110687e-01" rms="4.2822965979576111e-01" purity="2.7054646611213684e-01" nType="0">
            <Node pos="l" depth="3" NCoef="0" IVar="-1" Cut="0.0000000000000000e+00" cType="1" res="-4.7824520617723465e-02" rms="3.5899189114570618e-01" purity="1.5464146435260773e-01" nType="-99"/>
            <Node pos="r" depth="3" NCoef="0" IVar="-1" Cut="0.0000000000000000e+00" cType="1" res="-1.6888828948140144e-02" rms="4.6893072128295898e-01" purity="3.6759319901466370e-01" nType="-99"/>
          </Node>
          <Node pos="r" depth="2" NCoef="0" IVar="3" Cut="1.6132336854934692e+00" cType="1" res="2.4587228894233704e-02" rms="4.8088082671165466e-01" purity="5.2692121267318726e-01" nType="0">
            <Node pos="l" depth="3" NCoef="0" IVar="-1" Cut="0.0000000000000000e+00" cType="1" res="-2.2262841463088989e-02" rms="4.6713563799858093e-01" purity="3.4615641832351685e-01" nType="-99"/>
            <Node pos="r" depth="3" NCoef="0" IVar="-1" Cut="0.0000000000000000e+00" cType="1" res="2.0017601549625397e-02" rms="4.7232675552368164e-01" purity="6.2677752971649170e-01" nType="-99"/>
          </Node>
        </Node>
        <Node pos="r" depth="1" NCoef="0" IVar="12" Cut="9.4909137487411499e-01" cType="1" res="1.6333651542663574e-01" rms="4.0244200825691223e-01" purity="7.5961583852767944e-01" nType="0">
          <Node pos="l" depth="2" NCoef="0" IVar="-1" Cut="0.0000000000000000e+00" cType="1" res="-3.5384050570428371e-03" rms="4.8257729411125183e-01" purity="4.9557203054428101e-01" nType="-99"/>
          <Node pos="r" depth="2" NCoef="0" IVar="11" Cut="5.5545192718505859e+01" cType="1" res="2.1225845813751221e-01" rms="3.6267262697219849e-01" purity="8.3105802536010742e-01" nType="0">
            <Node pos="l" depth="3" NCoef="0" IVar="-1" Cut="0.0000000000000000e+00" cType="1" res="5.3048238158226013e-02" rms="3.2660177350044250e-01" purity="8.6886531114578247e-01" nType="-99"/>
            <Node pos="r" depth="3" NCoef="0" IVar="-1" Cut="0.0000000000000000e+00" cType="1" res="2.4901034310460091e-02" rms="4.3257752060890198e-01" purity="7.2781091928482056e-01" nType="-99"/>
          </Node>
        </Node>
      </Node>
    </BinaryTree>
    <BinaryTree type="DecisionTree" boostWeight="1.0000000000000000e+00" itree="6">
      <Node pos="s" depth="0" NCoef="0" IVar="0" Cut="8.4580902099609375e+02" cType="1" res="1.0104638524353504e-02" rms="4.4894587993621826e-01" purity="5.1028853654861450e-01" nType="0">
        <Node pos="l" depth="1" NCoef="0" IVar="13" Cut="1.3535044193267822e+00" cType="1" res="-1.3421899080276489e-01" rms="4.3124404549598694e-01" purity="2.8633666038513184e-01" nType="0">
          <Node pos="l" depth="2" NCoef="0" IVar="-1" Cut="0.0000000000000000e+00" cType="1" res="-2.1168510429561138e-03" rms="4.8661938309669495e-01" purity="4.7200921177864075e-01" nType="-99"/>
          <Node pos="r" depth="2" NCoef="0" IVar="7" Cut="2.3082332611083984e+00" cType="1" res="-1.7429338395595551e-01" rms="4.0366885066032410e-01" purity="2.2621893882751465e-01" nType="0">
            <Node pos="l" depth="3" NCoef="0" IVar="-1" Cut="0.0000000000000000e+00" cType="1" res="-2.3539112880825996e-02" rms="4.4302588701248169e-01" purity="3.0050799250602722e-01" nType="-99"/>
            <Node pos="r" depth="3" NCoef="0" IVar="-1" Cut="0.0000000000000000e+00" cType="1" res="-4.9042873084545135e-02" rms="3.5580569505691528e-01" purity="1.5971891582012177e-01" nType="-99"/>
          </Node>
        </Node>
        <Node pos="r" depth="1" NCoef="0" IVar="12" Cut="9.5579302310943604e-01" cType="1" res="9.8834455013275146e-02" rms="4.3640893697738647e-01" purity="6.4797359704971313e-01" nType="0">
          <Node pos="l" depth="2" NCoef="0" IVar="3" Cut="2.3667492866516113e+00" cType="1" res="-5.1655903458595276e-02" rms="4.6709239482879639e-01" purity="4.0305364131927490e-01" nType="0">
            <Node pos="l" depth="3" NCoef="0" IVar="-1" Cut="0.0000000000000000e+00" cType="1" res="-3.0498810112476349e-02" rms="4.3350550532341003e-01" purity="2.6378193497657776e-01" nType="-99"/>
            <Node pos="r" depth="3" NCoef="0" IVar="-1" Cut="0.0000000000000000e+00" cType="1" res="1.4987278729677200e-02" rms="4.8050540685653687e-01" purity="5.8852928876876831e-01" nType="-99"/>
          </Node>
          <Node pos="r" depth="2" NCoef="0" IVar="3" Cut="2.2628264427185059e+00" cType="1" res="1.5945453941822052e-01" rms="4.0802955627441406e-01" purity="7.4663156270980835e-01" nType="0">
            <Node pos="l" depth="3" NCoef="0" IVar="-1" Cut="0.0000000000000000e+00" cType="1" res="2.0340876653790474e-02" rms="4.5381739735603333e-01" purity="6.4740681648254395e-01" nType="-99"/>
            <Node pos="r" depth="3" NCoef="0" IVar="-1" Cut="0.0000000000000000e+00" cType="1" res="4.8154424875974655e-02" rms="3.4495115280151367e-01" purity="8.4631574153900146e-01" nType="-99"/>
          </Node>
        </Node>
      </Node>
    </BinaryTree>
    <BinaryTree type="DecisionTree" boostWeight="1.0000000000000000e+00" itree="7">
      <Node pos="s" depth="0" NCoef="0" IVar="0" Cut="1.0404145507812500e+03" cType="1" res="4.5201572356745601e-04" rms="4.4462123513221741e-01" purity="4.9928587675094604e-01" nType="0">
        <Node pos="l" depth="1" NCoef="0" IVar="12" Cut="9.1644281148910522e-01" cType="1" res="-9.1863267123699188e-02" rms="4.4365787506103516e-01" purity="3.2451286911964417e-01" nType="0">
          <Node pos="l" depth="2" NCoef="0" IVar="9" Cut="4.5410236716270447e-01" cType="1" res="-1.7454944550991058e-01" rms="3.8039097189903259e-01" purity="1.8972742557525635e-01" nType="0">
            <Node pos="l" depth="3" NCoef="0" IVar="-1" Cut="0.0000000000000000e+00" cType="1" res="-1.6015017405152321e-02" rms="4.4851475954055786e-01" purity="3.0673286318778992e-01" nType="-99"/>
            <Node pos="r" depth="3" NCoef="0" IVar="-1" Cut="0.0000000000000000e+00" cType="1" res="-4.6254519373178482e-02" rms="3.4568321704864502e-01" purity="1.4763073623180389e-01" nType="-99"/>
          </Node>
          <Node pos="r" depth="2" NCoef="0" IVar="3" Cut="1.3467767238616943e+00" cType="1" res="-3.5016667097806931e-02" rms="4.7407072782516479e-01" purity="4.1717758774757385e-01" nType="0">
            <Node pos="l" depth="3" NCoef="0" IVar="-1" Cut="0.0000000000000000e+00" cType="1" res="-2.9939780011773109e-02" rms="4.2994964122772217e-01" purity="2.5319030880928040e-01" nType="-99"/>
            <Node pos="r" depth="3" NCoef="0" IVar="-1" Cut="0.0000000000000000e+00" cType="1" res="2.3833790328353643e-03" rms="4.8471811413764954e-01" purity="4.8865506052970886e-01" nType="-99"/>
          </Node>
        </Node>
        <Node pos="r" depth="1" NCoef="0" IVar="12" Cut="1.6876765489578247e+00" cType="1" res="1.0289009660482407e-01" rms="4.2271441221237183e-01" purity="6.9322359561920166e-01" nType="0">
          <Node pos="l" depth="2" NCoef="0" IVar="5" Cut="8.3792213439941406e+01" cType="1" res="1.2438504956662655e-02" rms="4.7141698002815247e-01" purity="5.3002548217773438e-01" nType="0">
            <Node pos="l" depth="3" NCoef="0" IVar="-1" Cut="0.0000000000000000e+00" cType="1" res="-2.4825271219015121e-02" rms="4.6030539274215698e-01" purity="3.6311328411102295e-01" nType="-99"/>
            <Node pos="r" depth="3" NCoef="0" IVar="-1" Cut="0.0000000000000000e+00" cType="1" res="1.5482391230762005e-02" rms="4.6360012888908386e-01" purity="6.0867244005203247e-01" nType="-99"/>
          </Node>
          <Node pos="r" depth="2" NCoef="0" IVar="3" Cut="2.0513570308685303e+00" cType="1" res="1.8380831182003021e-01" rms="3.5477280616760254e-01" purity="8.3922088146209717e-01" nType="0">
            <Node pos="l" depth="3" NCoef="0" IVar="-1" Cut="0.0000000000000000e+00" cType="1" res="2.5745039805769920e-02" rms="4.2608621716499329e-01" purity="7.4192392826080322e-01" nType="-99"/>
            <Node pos="r" depth="3" NCoef="0" IVar="-1" Cut="0.0000000000000000e+00" cType="1" res="5.2220430225133896e-02" rms="2.8930440545082092e-01" purity="9.0481692552566528e-01" nType="-99"/>
          </Node>
        </Node>
      </Node>
    </BinaryTree>
    <BinaryTree type="DecisionTree" boostWeight="1.0000000000000000e+00" itree="8">
      <Node pos="s" depth="0" NCoef="0" IVar="0" Cut="8.4177563476562500e+02" cType="1" res="-1.1950561311095953e-03" rms="4.4097197055816650e-01" purity="5.0008296966552734e-01" nType="0">
        <Node pos="l" depth="1" NCoef="0" IVar="3" Cut="1.6791733503341675e+00" cType="1" res="-1.1678364127874374e-01" rms="4.2713308334350586e-01" purity="2.8184381127357483e-01" nType="0">
          <Node pos="l" depth="2" NCoef="0" IVar="8" Cut="2.7132216095924377e-01" cType="1" res="-1.9504204392433167e-01" rms="3.4949195384979248e-01" purity="1.5085335075855255e-01" nType="0">
            <Node pos="l" depth="3" NCoef="0" IVar="-1" Cut="0.0000000000000000e+00" cType="1" res="-3.1617481261491776e-02" rms="4.1344666481018066e-01" purity="2.2255794703960419e-01" nType="-99"/>
            <Node pos="r" depth="3" NCoef="0" IVar="-1" Cut="0.0000000000000000e+00" cType="1" res="-5.4297629743814468e-02" rms="2.7767661213874817e-01" purity="9.0109698474407196e-02" nType="-99"/>
          </Node>
          <Node pos="r" depth="2" NCoef="0" IVar="8" Cut="4.9909710884094238e-01" cType="1" res="-6.1277288943529129e-02" rms="4.6667492389678955e-01" purity="3.7475144863128662e-01" nType="0">
            <Node pos="l" depth="3" NCoef="0" IVar="-1" Cut="0.0000000000000000e+00" cType="1" res="-2.0811285357922316e-03" rms="4.8467716574668884e-01" purity="4.3825957179069519e-01" nType="-99"/>
            <Node pos="r" depth="3" NCoef="0" IVar="-1" Cut="0.0000000000000000e+00" cType="1" res="-3.9259735494852066e-02" rms="3.9358782768249512e-01" purity="2.2157715260982513e-01" nType="-99"/>
          </Node>
        </Node>
        <Node pos="r" depth="1" NCoef="0" IVar="12" Cut="1.7167438268661499e+00" cType="1" res="6.9885559380054474e-02" rms="4.3425270915031433e-01" purity="6.3428795337677002e-01" nType="0">
          <Node pos="l" depth="2" NCoef="0" IVar="8" Cut="3.7392759323120117e-01" cType="1" res="-1.2286331504583359e-02" rms="4.6716925501823425e-01" purity="4.7137787938117981e-01" nType="0">
            <Node pos="l" depth="3" NCoef="0" IVar="-1" Cut="0.0000000000000000e+00" cType="1" res="1.0961847379803658e-02" rms="4.6890783309936523e-01" purity="5.6137239933013916e-01" nType="-99"/>
            <Node pos="r" depth="3" NCoef="0" IVar="-1" Cut="0.0000000000000000e+00" cType="1" res="-2.3509928956627846e-02" rms="4.4644853472709656e-01" purity="3.3250561356544495e-01" nType="-99"/>
          </Node>
          <Node pos="r" depth="2" NCoef="0" IVar="11" Cut="6.6637329101562500e+01" cType="1" res="1.5236863493919373e-01" rms="3.8106441497802734e-01" purity="7.9781502485275269e-01" nType="0">
            <Node pos="l" depth="3" NCoef="0" IVar="-1" Cut="0.0000000000000000e+00" cType="1" res="4.1442219167947769e-02" rms="3.5395047068595886e-01" purity="8.3235216140747070e-01" nType="-99"/>
            <Node pos="r" depth="3" NCoef="0" IVar="-1" Cut="0.0000000000000000e+00" cType="1" res="6.4619844779372215e-03" rms="4.5353323221206665e-01" purity="6.6014266014099121e-01" nType="-99"/>
          </Node>
        </Node>
      </Node>
    </BinaryTree>
    <BinaryTree type="DecisionTree" boostWeight="1.0000000000000000e+00" itree="9">
      <Node pos="s" depth="0" NCoef="0" IVar="0" Cut="1.4159960937500000e+03" cType="1" res="2.4732737801969051e-03" rms="4.3697306513786316e-01" purity="5.0136011838912964e-01" nType="0">
        <Node pos="l" depth="1" NCoef="0" IVar="13" Cut="2.9674303531646729e+00" cType="1" res="-5.1005285233259201e-02" rms="4.4791448116302490e-01" purity="3.8664376735687256e-01" nType="0">
          <Node pos="l" depth="2" NCoef="0" IVar="11" Cut="3.8554004669189453e+01" cType="1" res="-2.2103236988186836e-03" rms="4.6360561251640320e-01" purity="4.7357016801834106e-01" nType="0">
            <Node pos="l" depth="3" NCoef="0" IVar="-1" Cut="0.0000000000000000e+00" cType="1" res="1.5056304633617401e-02" rms="4.5665660500526428e-01" purity="5.5513125658035278e-01" nType="-99"/>
            <Node pos="r" depth="3" NCoef="0" IVar="-1" Cut="0.0000000000000000e+00" cType="1" res="-1.5557434409856796e-02" rms="4.5915934443473816e-01" purity="3.9418587088584900e-01" nType="-99"/>
          </Node>
          <Node pos="r" depth="2" NCoef="0" IVar="10" Cut="8.8040824890136719e+01" cType="1" res="-1.3246357440948486e-01" rms="4.0760290622711182e-01" purity="2.4152880907058716e-01" nType="0">
            <Node pos="l" depth="3" NCoef="0" IVar="-1" Cut="0.0000000000000000e+00" cType="1" res="1.5315918717533350e-03" rms="4.7774854302406311e-01" purity="4.3435049057006836e-01" nType="-99"/>
            <Node pos="r" depth="3" NCoef="0" IVar="-1" Cut="0.0000000000000000e+00" cType="1" res="-3.7317305803298950e-02" rms="3.8079598546028137e-01" purity="1.9437389075756073e-01" nType="-99"/>
          </Node>
        </Node>
        <Node pos="r" depth="1" NCoef="0" IVar="13" Cut="3.5261499881744385e+00" cType="1" res="1.3314923644065857e-01" rms="3.7844797968864441e-01" purity="7.8167206048965454e-01" nType="0">
          <Node pos="l" depth="2" NCoef="0" IVar="0" Cut="1.9985543212890625e+03" cType="1" res="1.8238377571105957e-01" rms="3.2544967532157898e-01" purity="8.6220175027847290e-01" nType="0">
            <Node pos="l" depth="3" NCoef="0" IVar="-1" Cut="0.0000000000000000e+00" cType="1" res="3.3720754086971283e-02" rms="3.7067949771881104e-01" purity="8.1096494197845459e-01" nType="-99"/>
            <Node pos="r" depth="3" NCoef="0" IVar="-1" Cut="0.0000000000000000e+00" cType="1" res="5.4493751376867294e-02" rms="2.5271368026733398e-01" purity="9.2498356103897095e-01" nType="-99"/>
          </Node>
          <Node pos="r" depth="2" NCoef="0" IVar="-1" Cut="0.0000000000000000e+00" cType="1" res="6.3248253427445889e-03" rms="4.5383793115615845e-01" purity="6.1195522546768188e-01" nType="-99"/>
        </Node>
      </Node>
    </BinaryTree>
    <BinaryTree type="DecisionTree" boostWeight="1.0000000000000000e+00" itree="10">
      <Node pos="s" depth="0" NCoef="0" IVar="0" Cut="1.5743677978515625e+03" cType="1" res="-1.6214595234487206e-04" rms="4.3395343422889709e-01" purity="4.9924197793006897e-01" nType="0">
        <Node pos="l" depth="1" NCoef="0" IVar="5" Cut="7.5752006530761719e+01" cType="1" res="-4.4679895043373108e-02" rms="4.4566005468368530e-01" purity="4.0148866176605225e-01" nType="0">
          <Node pos="l" depth="2" NCoef="0" IVar="12" Cut="1.9413931369781494e+00" cType="1" res="-1.2301526963710785e-01" rms="4.1796705126762390e-01" purity="2.9341775178909302e-01" nType="0">
            <Node pos="l" depth="3" NCoef="0" IVar="-1" Cut="0.0000000000000000e+00" cType="1" res="-3.6450769752264023e-02" rms="3.8320195674896240e-01" purity="2.0370770990848541e-01" nType="-99"/>
            <Node pos="r" depth="3" NCoef="0" IVar="-1" Cut="0.0000000000000000e+00" cType="1" res="-7.1637537330389023e-03" rms="4.7431915998458862e-01" purity="4.9243131279945374e-01" nType="-99"/>
          </Node>
          <Node pos="r" depth="2" NCoef="0" IVar="3" Cut="2.3069674968719482e+00" cType="1" res="9.4146616756916046e-03" rms="4.5603141188621521e-01" purity="4.7611716389656067e-01" nType="0">
            <Node pos="l" depth="3" NCoef="0" IVar="-1" Cut="0.0000000000000000e+00" cType="1" res="-1.2509474530816078e-02" rms="4.4800382852554321e-01" purity="3.5840407013893127e-01" nType="-99"/>
            <Node pos="r" depth="3" NCoef="0" IVar="-1" Cut="0.0000000000000000e+00" cType="1" res="2.1707965061068535e-02" rms="4.5074632763862610e-01" purity="6.4067822694778442e-01" nType="-99"/>
          </Node>
        </Node>
        <Node pos="r" depth="1" NCoef="0" IVar="3" Cut="2.0651428699493408e+00" cType="1" res="1.3912159204483032e-01" rms="3.6124452948570251e-01" purity="8.0508500337600708e-01" nType="0">
          <Node pos="l" depth="2" NCoef="0" IVar="-1" Cut="0.0000000000000000e+00" cType="1" res="1.5451632440090179e-02" rms="4.2041182518005371e-01" purity="6.9228255748748779e-01" nType="-99"/>
          <Node pos="r" depth="2" NCoef="0" IVar="-1" Cut="0.0000000000000000e+00" cType="1" res="4.4079847633838654e-02" rms="3.1186512112617493e-01" purity="8.7433022260665894e-01" nType="-99"/>
        </Node>
      </Node>
    </BinaryTree>
    <BinaryTree type="DecisionTree" boostWeight="1.0000000000000000e+00" itree="11">
      <Node pos="s" depth="0" NCoef="0" IVar="0" Cut="7.6982836914062500e+02" cType="1" res="8.2914410158991814e-03" rms="4.3300881981849670e-01" purity="5.0666195154190063e-01" nType="0">
        <Node pos="l" depth="1" NCoef="0" IVar="10" Cut="1.2501237487792969e+02" cType="1" res="-9.8142422735691071e-02" rms="4.2295536398887634e-01" purity="2.7744928002357483e-01" nType="0">
          <Node pos="l" depth="2" NCoef="0" IVar="5" Cut="7.3197807312011719e+01" cType="1" res="-3.3548988401889801e-02" rms="4.6907854080200195e-01" purity="3.9555814862251282e-01" nType="0">
            <Node pos="l" depth="3" NCoef="0" IVar="-1" Cut="0.0000000000000000e+00" cType="1" res="-1.9438371062278748e-02" rms="4.4670441746711731e-01" purity="3.1458237767219543e-01" nType="-99"/>
            <Node pos="r" depth="3" NCoef="0" IVar="-1" Cut="0.0000000000000000e+00" cType="1" res="6.2339440919458866e-03" rms="4.8498690128326416e-01" purity="4.8592796921730042e-01" nType="-99"/>
          </Node>
          <Node pos="r" depth="2" NCoef="0" IVar="8" Cut="4.3109074234962463e-01" cType="1" res="-1.3079638779163361e-01" rms="3.9359429478645325e-01" purity="2.1774162352085114e-01" nType="0">
            <Node pos="l" depth="3" NCoef="0" IVar="-1" Cut="0.0000000000000000e+00" cType="1" res="-2.1879805251955986e-02" rms="4.2899820208549500e-01" purity="2.7329882979393005e-01" nType="-99"/>
            <Node pos="r" depth="3" NCoef="0" IVar="-1" Cut="0.0000000000000000e+00" cType="1" res="-4.6281620860099792e-02" rms="3.0626875162124634e-01" purity="1.1157061904668808e-01" nType="-99"/>
          </Node>
        </Node>
        <Node pos="r" depth="1" NCoef="0" IVar="12" Cut="1.4819259643554688e+00" cType="1" res="5.7825207710266113e-02" rms="4.2869088053703308e-01" purity="6.1333638429641724e-01" nType="0">
          <Node pos="l" depth="2" NCoef="0" IVar="10" Cut="1.4286203002929688e+02" cType="1" res="-1.3385874219238758e-02" rms="4.5764112472534180e-01" purity="4.3667212128639221e-01" nType="0">
            <Node pos="l" depth="3" NCoef="0" IVar="-1" Cut="0.0000000000000000e+00" cType="1" res="2.4212934076786041e-02" rms="4.4817683100700378e-01" purity="6.0409301519393921e-01" nType="-99"/>
            <Node pos="r" depth="3" NCoef="0" IVar="-1" Cut="0.0000000000000000e+00" cType="1" res="-1.3676078058779240e-02" rms="4.5152729749679565e-01" purity="3.7123757600784302e-01" nType="-99"/>
          </Node>
          <Node pos="r" depth="2" NCoef="0" IVar="3" Cut="1.3177454471588135e+00" cType="1" res="1.2055034190416336e-01" rms="3.9086174964904785e-01" purity="7.6894825696945190e-01" nType="0">
            <Node pos="l" depth="3" NCoef="0" IVar="-1" Cut="0.0000000000000000e+00" cType="1" res="2.9556015506386757e-03" rms="4.6435981988906860e-01" purity="5.8499753475189209e-01" nType="-99"/>
            <Node pos="r" depth="3" NCoef="0" IVar="-1" Cut="0.0000000000000000e+00" cType="1" res="3.5252943634986877e-02" rms="3.6365234851837158e-01" purity="8.1778222322463989e-01" nType="-99"/>
          </Node>
        </Node>
      </Node>
    </BinaryTree>
    <BinaryTree type="DecisionTree" boostWeight="1.0000000000000000e+00" itree="12">
      <Node pos="s" depth="0" NCoef="0" IVar="0" Cut="7.0577465820312500e+02" cType="1" res="-4.9517303705215454e-03" rms="4.2706626653671265e-01" purity="4.9355235695838928e-01" nType="0">
        <Node pos="l" depth="1" NCoef="0" IVar="13" Cut="1.3088794946670532e+00" cType="1" res="-1.2608914077281952e-01" rms="4.0035799145698547e-01" purity="2.3945562541484833e-01" nType="0">
          <Node pos="l" depth="2" NCoef="0" IVar="-1" Cut="0.0000000000000000e+00" cType="1" res="-1.0200084187090397e-02" rms="4.7590386867523193e-01" purity="4.0673530101776123e-01" nType="-99"/>
          <Node pos="r" depth="2" NCoef="0" IVar="10" Cut="1.1165389251708984e+02" cType="1" res="-1.5122017264366150e-01" rms="3.6881366372108459e-01" purity="1.8460735678672791e-01" nType="0">
            <Node pos="l" depth="3" NCoef="0" IVar="-1" Cut="0.0000000000000000e+00" cType="1" res="-1.5172044746577740e-02" rms="4.5017367601394653e-01" purity="3.2845073938369751e-01" nType="-99"/>
            <Node pos="r" depth="3" NCoef="0" IVar="-1" Cut="0.0000000000000000e+00" cType="1" res="-4.3315693736076355e-02" rms="3.2823005318641663e-01" purity="1.3070929050445557e-01" nType="-99"/>
          </Node>
        </Node>
        <Node pos="r" depth="1" NCoef="0" IVar="12" Cut="7.8630477190017700e-01" cType="1" res="3.6241784691810608e-02" rms="4.2803448438644409e-01" purity="5.7995957136154175e-01" nType="0">
          <Node pos="l" depth="2" NCoef="0" IVar="10" Cut="1.4593229675292969e+02" cType="1" res="-8.2525812089443207e-02" rms="4.2825308442115784e-01" purity="3.1621029973030090e-01" nType="0">
            <Node pos="l" depth="3" NCoef="0" IVar="-1" Cut="0.0000000000000000e+00" cType="1" res="1.3945660553872585e-02" rms="4.5568728446960449e-01" purity="5.1860702037811279e-01" nType="-99"/>
            <Node pos="r" depth="3" NCoef="0" IVar="-1" Cut="0.0000000000000000e+00" cType="1" res="-3.2423835247755051e-02" rms="4.0000277757644653e-01" purity="2.3088228702545166e-01" nType="-99"/>
          </Node>
          <Node pos="r" depth="2" NCoef="0" IVar="5" Cut="8.2686874389648438e+01" cType="1" res="7.7325746417045593e-02" rms="4.2021593451499939e-01" purity="6.7119538784027100e-01" nType="0">
            <Node pos="l" depth="3" NCoef="0" IVar="-1" Cut="0.0000000000000000e+00" cType="1" res="-1.3650062028318644e-03" rms="4.4436129927635193e-01" purity="5.5139589309692383e-01" nType="-99"/>
            <Node pos="r" depth="3" NCoef="0" IVar="-1" Cut="0.0000000000000000e+00" cType="1" res="2.9191434383392334e-02" rms="3.9669251441955566e-01" purity="7.4311721324920654e-01" nType="-99"/>
          </Node>
        </Node>
      </Node>
    </BinaryTree>
    <BinaryTree type="DecisionTree" boostWeight="1.0000000000000000e+00" itree="13">
      <Node pos="s" depth="0" NCoef="0" IVar="0" Cut="1.4321693115234375e+03" cType="1" res="9.6087256679311395e-04" rms="4.2406186461448669e-01" purity="5.0368267297744751e-01" nType="0">
        <Node pos="l" depth="1" NCoef="0" IVar="11" Cut="2.7029325485229492e+01" cType="1" res="-4.4525630772113800e-02" rms="4.3782332539558411e-01" purity="3.8135951757431030e-01" nType="0">
          <Node pos="l" depth="2" NCoef="0" IVar="5" Cut="7.5520278930664062e+01" cType="1" res="3.3626325428485870e-02" rms="4.4330537319183350e-01" purity="4.7803798317909241e-01" nType="0">
            <Node pos="l" depth="3" NCoef="0" IVar="-1" Cut="0.0000000000000000e+00" cType="1" res="-1.2306700460612774e-02" rms="4.3394398689270020e-01" purity="3.4019890427589417e-01" nType="-99"/>
            <Node pos="r" depth="3" NCoef="0" IVar="-1" Cut="0.0000000000000000e+00" cType="1" res="2.2281847894191742e-02" rms="4.3833115696907043e-01" purity="5.8456534147262573e-01" nType="-99"/>
          </Node>
          <Node pos="r" depth="2" NCoef="0" IVar="8" Cut="5.9788644313812256e-01" cType="1" res="-8.2982242107391357e-02" rms="4.2991626262664795e-01" purity="3.3378648757934570e-01" nType="0">
            <Node pos="l" depth="3" NCoef="0" IVar="-1" Cut="0.0000000000000000e+00" cType="1" res="-1.3610182330012321e-02" rms="4.4220063090324402e-01" purity="3.6675560474395752e-01" nType="-99"/>
            <Node pos="r" depth="3" NCoef="0" IVar="-1" Cut="0.0000000000000000e+00" cType="1" res="-4.8111263662576675e-02" rms="3.2506257295608521e-01" purity="1.4503806829452515e-01" nType="-99"/>
          </Node>
        </Node>
        <Node pos="r" depth="1" NCoef="0" IVar="11" Cut="6.2953193664550781e+01" cType="1" res="1.0861613601446152e-01" rms="3.6779117584228516e-01" purity="7.9319137334823608e-01" nType="0">
          <Node pos="l" depth="2" NCoef="0" IVar="5" Cut="8.4745353698730469e+01" cType="1" res="1.3654893636703491e-01" rms="3.4297144412994385e-01" purity="8.2677584886550903e-01" nType="0">
            <Node pos="l" depth="3" NCoef="0" IVar="-1" Cut="0.0000000000000000e+00" cType="1" res="1.7933372408151627e-02" rms="3.9401814341545105e-01" purity="7.4095433950424194e-01" nType="-99"/>
            <Node pos="r" depth="3" NCoef="0" IVar="-1" Cut="0.0000000000000000e+00" cType="1" res="4.1619386523962021e-02" rms="3.1180879473686218e-01" purity="8.6724781990051270e-01" nType="-99"/>
          </Node>
          <Node pos="r" depth="2" NCoef="0" IVar="-1" Cut="0.0000000000000000e+00" cType="1" res="9.7353552700951695e-04" rms="4.3292343616485596e-01" purity="6.6756385564804077e-01" nType="-99"/>
        </Node>
      </Node>
    </BinaryTree>
    <BinaryTree type="DecisionTree" boostWeight="1.0000000000000000e+00" itree="14">
      <Node pos="s" depth="0" NCoef="0" IVar="12" Cut="1.9172462224960327e+00" cType="1" res="2.0599244162440300e-03" rms="4.2511475086212158e-01" purity="5.0104898214340210e-01" nType="0">
        <Node pos="l" depth="1" NCoef="0" IVar="5" Cut="1.2298961639404297e+02" cType="1" res="-4.3829351663589478e-02" rms="4.3086272478103638e-01" purity="3.7858408689498901e-01" nType="0">
          <Node pos="l" depth="2" NCoef="0" IVar="6" Cut="2.0507557392120361e+00" cType="1" res="-8.1636674702167511e-02" rms="4.1977080702781677e-01" purity="3.0614575743675232e-01" nType="0">
            <Node pos="l" depth="3" NCoef="0" IVar="-1" Cut="0.0000000000000000e+00" cType="1" res="-2.7816757559776306e-02" rms="3.9508280158042908e-01" purity="2.3932659626007080e-01" nType="-99"/>
            <Node pos="r" depth="3" NCoef="0" IVar="-1" Cut="0.0000000000000000e+00" cType="1" res="3.1171631999313831e-03" rms="4.6335247159004211e-01" purity="4.7650679945945740e-01" nType="-99"/>
          </Node>
          <Node pos="r" depth="2" NCoef="0" IVar="3" Cut="2.4550349712371826e+00" cType="1" res="5.8263413608074188e-02" rms="4.4366431236267090e-01" purity="5.7419246435165405e-01" nType="0">
            <Node pos="l" depth="3" NCoef="0" IVar="-1" Cut="0.0000000000000000e+00" cType="1" res="-4.8150611110031605e-03" rms="4.6033173799514771e-01" purity="4.2510846257209778e-01" nType="-99"/>
            <Node pos="r" depth="3" NCoef="0" IVar="-1" Cut="0.0000000000000000e+00" cType="1" res="3.6938879638910294e-02" rms="3.9463043212890625e-01" purity="7.7678823471069336e-01" nType="-99"/>
          </Node>
        </Node>
        <Node pos="r" depth="1" NCoef="0" IVar="4" Cut="9.6193374633789062e+01" cType="1" res="7.9120934009552002e-02" rms="4.0371477603912354e-01" purity="7.0670205354690552e-01" nType="0">
          <Node pos="l" depth="2" NCoef="0" IVar="-1" Cut="0.0000000000000000e+00" cType="1" res="-1.5810750424861908e-02" rms="4.5179501175880432e-01" purity="4.6712461113929749e-01" nType="-99"/>
          <Node pos="r" depth="2" NCoef="0" IVar="11" Cut="4.7996582031250000e+01" cType="1" res="1.0623954981565475e-01" rms="3.8827824592590332e-01" purity="7.4983340501785278e-01" nType="0">
            <Node pos="l" depth="3" NCoef="0" IVar="-1" Cut="0.0000000000000000e+00" cType="1" res="3.6487974226474762e-02" rms="3.5053694248199463e-01" purity="8.1186282634735107e-01" nType="-99"/>
            <Node pos="r" depth="3" NCoef="0" IVar="-1" Cut="0.0000000000000000e+00" cType="1" res="6.6644400358200073e-03" rms="4.3845349550247192e-01" purity="6.3701397180557251e-01" nType="-99"/>
          </Node>
        </Node>
      </Node>
    </BinaryTree>
    <BinaryTree type="DecisionTree" boostWeight="1.0000000000000000e+00" itree="15">
      <Node pos="s" depth="0" NCoef="0" IVar="8" Cut="3.8130992650985718e-01" cType="1" res="5.5648484267294407e-03" rms="4.2368400096893311e-01" purity="5.0475573539733887e-01" nType="0">
        <Node pos="l" depth="1" NCoef="0" IVar="0" Cut="8.8528845214843750e+02" cType="1" res="4.4910468161106110e-02" rms="4.2562201619148254e-01" purity="5.9373682737350464e-01" nType="0">
          <Node pos="l" depth="2" NCoef="0" IVar="11" Cut="2.7278165817260742e+01" cType="1" res="-3.0501084402203560e-02" rms="4.5294874906539917e-01" purity="3.5589480400085449e-01" nType="0">
            <Node pos="l" depth="3" NCoef="0" IVar="-1" Cut="0.0000000000000000e+00" cType="1" res="7.4990536086261272e-03" rms="4.6425667405128479e-01" purity="4.3769392371177673e-01" nType="-99"/>
            <Node pos="r" depth="3" NCoef="0" IVar="-1" Cut="0.0000000000000000e+00" cType="1" res="-1.4214368537068367e-02" rms="4.4325390458106995e-01" purity="3.1347629427909851e-01" nType="-99"/>
          </Node>
          <Node pos="r" depth="2" NCoef="0" IVar="11" Cut="6.9106704711914062e+01" cType="1" res="8.6031407117843628e-02" rms="4.0406766533851624e-01" purity="7.2342902421951294e-01" nType="0">
            <Node pos="l" depth="3" NCoef="0" IVar="-1" Cut="0.0000000000000000e+00" cType="1" res="2.7002040296792984e-02" rms="3.8649240136146545e-01" purity="7.5869798660278320e-01" nType="-99"/>
            <Node pos="r" depth="3" NCoef="0" IVar="-1" Cut="0.0000000000000000e+00" cType="1" res="-4.2697926983237267e-03" rms="4.5282855629920959e-01" purity="5.8243978023529053e-01" nType="-99"/>
          </Node>
        </Node>
        <Node pos="r" depth="1" NCoef="0" IVar="3" Cut="2.3636124134063721e+00" cType="1" res="-8.0515012145042419e-02" rms="4.0633794665336609e-01" purity="3.1008401513099670e-01" nType="0">
          <Node pos="l" depth="2" NCoef="0" IVar="11" Cut="5.0160865783691406e+01" cType="1" res="-1.2967525422573090e-01" rms="3.6579027771949768e-01" purity="1.8413403630256653e-01" nType="0">
            <Node pos="l" depth="3" NCoef="0" IVar="-1" Cut="0.0000000000000000e+00" cType="1" res="-2.4107389152050018e-02" rms="3.8832595944404602e-01" purity="2.1846520900726318e-01" nType="-99"/>
            <Node pos="r" depth="3" NCoef="0" IVar="-1" Cut="0.0000000000000000e+00" cType="1" res="-4.4853381812572479e-02" rms="3.2085782289505005e-01" purity="1.3031288981437683e-01" nType="-99"/>
          </Node>
          <Node pos="r" depth="2" NCoef="0" IVar="5" Cut="9.7892158508300781e+01" cType="1" res="-1.3273551128804684e-02" rms="4.4733279943466187e-01" purity="4.8235857486724854e-01" nType="0">
            <Node pos="l" depth="3" NCoef="0" IVar="-1" Cut="0.0000000000000000e+00" cType="1" res="-1.8126200884580612e-02" rms="4.4291394948959351e-01" purity="3.4719169139862061e-01" nType="-99"/>
            <Node pos="r" depth="3" NCoef="0" IVar="-1" Cut="0.0000000000000000e+00" cType="1" res="1.6379112377762794e-02" rms="4.3754580616950989e-01" purity="6.5178531408309937e-01" nType="-99"/>
          </Node>
        </Node>
      </Node>
    </BinaryTree>
    <BinaryTree type="DecisionTree" boostWeight="1.0000000000000000e+00" itree="16">
      <Node pos="s" depth="0" NCoef="0" IVar="5" Cut="8.7068344116210938e+01" cType="1" res="-1.7542728455737233e-03" rms="4.2226481437683105e-01" purity="4.9266147613525391e-01" nType="0">
        <Node pos="l" depth="1" NCoef="0" IVar="12" Cut="2.3541140556335449e+00" cType="1" res="-5.6206583976745605e-02" rms="4.1775938868522644e-01" purity="3.7552672624588013e-01" nType="0">
          <Node pos="l" depth="2" NCoef="0" IVar="11" Cut="2.4219829559326172e+01" cType="1" res="-8.7618105113506317e-02" rms="4.1038951277732849e-01" purity="2.8291538357734680e-01" nType="0">
            <Node pos="l" depth="3" NCoef="0" IVar="-1" Cut="0.0000000000000000e+00" cType="1" res="-2.8537323232740164e-03" rms="4.3494775891304016e-01" purity="3.7810465693473816e-01" nType="-99"/>
            <Node pos="r" depth="3" NCoef="0" IVar="-1" Cut="0.0000000000000000e+00" cType="1" res="-2.8823142871260643e-02" rms="3.9447727799415588e-01" purity="2.4081403017044067e-01" nType="-99"/>
          </Node>
          <Node pos="r" depth="2" NCoef="0" IVar="4" Cut="1.1394228363037109e+02" cType="1" res="2.7289707213640213e-02" rms="4.2561975121498108e-01" purity="6.2170094251632690e-01" nType="0">
            <Node pos="l" depth="3" NCoef="0" IVar="-1" Cut="0.0000000000000000e+00" cType="1" res="-1.5022496692836285e-02" rms="4.5050013065338135e-01" purity="4.7969043254852295e-01" nType="-99"/>
            <Node pos="r" depth="3" NCoef="0" IVar="-1" Cut="0.0000000000000000e+00" cType="1" res="2.5060804560780525e-02" rms="3.8666608929634094e-01" purity="7.3951292037963867e-01" nType="-99"/>
          </Node>
        </Node>
        <Node pos="r" depth="1" NCoef="0" IVar="11" Cut="9.3301155090332031e+01" cType="1" res="4.9973253160715103e-02" rms="4.2001241445541382e-01" purity="6.0393482446670532e-01" nType="0">
          <Node pos="l" depth="2" NCoef="0" IVar="9" Cut="5.7536059617996216e-01" cType="1" res="7.3021747171878815e-02" rms="4.1225314140319824e-01" purity="6.3643509149551392e-01" nType="0">
            <Node pos="l" depth="3" NCoef="0" IVar="-1" Cut="0.0000000000000000e+00" cType="1" res="2.4938486516475677e-02" rms="4.0086510777473450e-01" purity="7.1113210916519165e-01" nType="-99"/>
            <Node pos="r" depth="3" NCoef="0" IVar="-1" Cut="0.0000000000000000e+00" cType="1" res="-5.5471248924732208e-03" rms="4.3140608072280884e-01" purity="4.0551736950874329e-01" nType="-99"/>
          </Node>
          <Node pos="r" depth="2" NCoef="0" IVar="-1" Cut="0.0000000000000000e+00" cType="1" res="-1.8030442297458649e-02" rms="4.3924790620803833e-01" purity="4.2113569378852844e-01" nType="-99"/>
        </Node>
      </Node>
    </BinaryTree>
    <BinaryTree type="DecisionTree" boostWeight="1.0000000000000000e+00" itree="17">
      <Node pos="s" depth="0" NCoef="0" IVar="9" Cut="4.5103004574775696e-01" cType="1" res="-7.5866929255425930e-03" rms="4.1754084825515747e-01" purity="4.9187183380126953e-01" nType="0">
        <Node pos="l" depth="1" NCoef="0" IVar="3" Cut="2.5168375968933105e+00" cType="1" res="3.7900250405073166e-02" rms="4.2070874571800232e-01" purity="6.0979396104812622e-01" nType="0">
          <Node pos="l" depth="2" NCoef="0" IVar="0" Cut="1.6198623046875000e+03" cType="1" res="-1.7498717643320560e-03" rms="4.3398028612136841e-01" purity="5.2793765068054199e-01" nType="0">
            <Node pos="l" depth="3" NCoef="0" IVar="-1" Cut="0.0000000000000000e+00" cType="1" res="-7.8748948872089386e-03" rms="4.5187801122665405e-01" purity="4.2160341143608093e-01" nType="-99"/>
            <Node pos="r" depth="3" NCoef="0" IVar="-1" Cut="0.0000000000000000e+00" cType="1" res="2.1950267255306244e-02" rms="3.7041276693344116e-01" purity="8.0135190486907959e-01" nType="-99"/>
          </Node>
          <Node pos="r" depth="2" NCoef="0" IVar="11" Cut="3.5881549835205078e+01" cType="1" res="1.1506052315235138e-01" rms="3.8198012113571167e-01" purity="7.6908856630325317e-01" nType="0">
            <Node pos="l" depth="3" NCoef="0" IVar="-1" Cut="0.0000000000000000e+00" cType="1" res="4.0721341967582703e-02" rms="3.4943401813507080e-01" purity="8.3321523666381836e-01" nType="-99"/>
            <Node pos="r" depth="3" NCoef="0" IVar="-1" Cut="0.0000000000000000e+00" cType="1" res="1.5437329187989235e-02" rms="4.0842208266258240e-01" purity="6.9964486360549927e-01" nType="-99"/>
          </Node>
        </Node>
        <Node pos="r" depth="1" NCoef="0" IVar="6" Cut="1.5353810787200928e+00" cType="1" res="-7.5379170477390289e-02" rms="4.0336489677429199e-01" purity="3.1612405180931091e-01" nType="0">
          <Node pos="l" depth="2" NCoef="0" IVar="8" Cut="3.8877430558204651e-01" cType="1" res="-1.1647497117519379e-01" rms="3.7800067663192749e-01" purity="2.2638469934463501e-01" nType="0">
            <Node pos="l" depth="3" NCoef="0" IVar="-1" Cut="0.0000000000000000e+00" cType="1" res="-1.2512578628957272e-02" rms="4.3255281448364258e-01" purity="3.5737603902816772e-01" nType="-99"/>
            <Node pos="r" depth="3" NCoef="0" IVar="-1" Cut="0.0000000000000000e+00" cType="1" res="-3.8034722208976746e-02" rms="3.4094598889350891e-01" purity="1.5676130354404449e-01" nType="-99"/>
          </Node>
          <Node pos="r" depth="2" NCoef="0" IVar="3" Cut="2.1405324935913086e+00" cType="1" res="-3.7497011944651604e-03" rms="4.3493974208831787e-01" purity="4.7253850102424622e-01" nType="0">
            <Node pos="l" depth="3" NCoef="0" IVar="-1" Cut="0.0000000000000000e+00" cType="1" res="-2.1111529320478439e-02" rms="4.1567716002464294e-01" purity="3.0363586544990540e-01" nType="-99"/>
            <Node pos="r" depth="3" NCoef="0" IVar="-1" Cut="0.0000000000000000e+00" cType="1" res="1.8000055104494095e-02" rms="4.3640914559364319e-01" purity="6.3458514213562012e-01" nType="-99"/>
          </Node>
        </Node>
      </Node>
    </BinaryTree>
    <BinaryTree type="DecisionTree" boostWeight="1.0000000000000000e+00" itree="18">
      <Node pos="s" depth="0" NCoef="0" IVar="8" Cut="4.7552239894866943e-01" cType="1" res="5.2102734334766865e-03" rms="4.1761133074760437e-01" purity="5.0194394588470459e-01" nType="0">
        <Node pos="l" depth="1" NCoef="0" IVar="5" Cut="5.9496315002441406e+01" cType="1" res="3.0815813690423965e-02" rms="4.2218628525733948e-01" purity="5.6493073701858521e-01" nType="0">
          <Node pos="l" depth="2" NCoef="0" IVar="3" Cut="1.6859980821609497e+00" cType="1" res="-8.9861564338207245e-02" rms="4.1799479722976685e-01" purity="3.5300275683403015e-01" nType="0">
            <Node pos="l" depth="3" NCoef="0" IVar="-1" Cut="0.0000000000000000e+00" cType="1" res="-3.5724069923162460e-02" rms="3.7761095166206360e-01" purity="2.2004267573356628e-01" nType="-99"/>
            <Node pos="r" depth="3" NCoef="0" IVar="-1" Cut="0.0000000000000000e+00" cType="1" res="-1.0236942209303379e-02" rms="4.4198954105377197e-01" purity="4.5744854211807251e-01" nType="-99"/>
          </Node>
          <Node pos="r" depth="2" NCoef="0" IVar="3" Cut="2.2588152885437012e+00" cType="1" res="5.2285790443420410e-02" rms="4.1930407285690308e-01" purity="6.0263532400131226e-01" nType="0">
            <Node pos="l" depth="3" NCoef="0" IVar="-1" Cut="0.0000000000000000e+00" cType="1" res="2.1902637090533972e-03" rms="4.3643686175346375e-01" purity="4.8703235387802124e-01" nType="-99"/>
            <Node pos="r" depth="3" NCoef="0" IVar="-1" Cut="0.0000000000000000e+00" cType="1" res="2.5797564536333084e-02" rms="3.9009860157966614e-01" purity="7.4791890382766724e-01" nType="-99"/>
          </Node>
        </Node>
        <Node pos="r" depth="1" NCoef="0" IVar="3" Cut="2.7148215770721436e+00" cType="1" res="-9.2296108603477478e-02" rms="3.8440141081809998e-01" purity="2.6208898425102234e-01" nType="0">
          <Node pos="l" depth="2" NCoef="0" IVar="8" Cut="6.3803625106811523e-01" cType="1" res="-1.2439586222171783e-01" rms="3.5794347524642944e-01" purity="1.7948643863201141e-01" nType="0">
            <Node pos="l" depth="3" NCoef="0" IVar="-1" Cut="0.0000000000000000e+00" cType="1" res="-2.5022309273481369e-02" rms="3.7799602746963501e-01" purity="2.1687866747379303e-01" nType="-99"/>
            <Node pos="r" depth="3" NCoef="0" IVar="-1" Cut="0.0000000000000000e+00" cType="1" res="-4.2760789394378662e-02" rms="3.2337677478790283e-01" purity="1.2597478926181793e-01" nType="-99"/>
          </Node>
          <Node pos="r" depth="2" NCoef="0" IVar="-1" Cut="0.0000000000000000e+00" cType="1" res="7.7870755922049284e-04" rms="4.4057482481002808e-01" purity="5.0846135616302490e-01" nType="-99"/>
        </Node>
      </Node>
    </BinaryTree>
    <BinaryTree type="DecisionTree" boostWeight="1.0000000000000000e+00" itree="19">
      <Node pos="s" depth="0" NCoef="0" IVar="0" Cut="1.9391735839843750e+03" cType="1" res="-3.7113369908183813e-03" rms="4.1586756706237793e-01" purity="4.9673083424568176e-01" nType="0">
        <Node pos="l" depth="1" NCoef="0" IVar="11" Cut="2.5059295654296875e+01" cType="1" res="-2.6012023910880089e-02" rms="4.2856076359748840e-01" purity="4.2839685082435608e-01" nType="0">
          <Node pos="l" depth="2" NCoef="0" IVar="0" Cut="6.8770025634765625e+02" cType="1" res="4.2835149914026260e-02" rms="4.2987602949142456e-01" purity="5.3366512060165405e-01" nType="0">
            <Node pos="l" depth="3" NCoef="0" IVar="-1" Cut="0.0000000000000000e+00" cType="1" res="-1.0859910398721695e-02" rms="4.3020829558372498e-01" purity="3.0676808953285217e-01" nType="-99"/>
            <Node pos="r" depth="3" NCoef="0" IVar="-1" Cut="0.0000000000000000e+00" cType="1" res="1.7434969544410706e-02" rms="4.2536529898643494e-01" purity="6.1344063282012939e-01" nType="-99"/>
          </Node>
          <Node pos="r" depth="2" NCoef="0" IVar="5" Cut="8.4731124877929688e+01" cType="1" res="-5.6250888854265213e-02" rms="4.2446693778038025e-01" purity="3.8216125965118408e-01" nType="0">
            <Node pos="l" depth="3" NCoef="0" IVar="-1" Cut="0.0000000000000000e+00" cType="1" res="-2.3501854389905930e-02" rms="4.0146690607070923e-01" purity="2.8358703851699829e-01" nType="-99"/>
            <Node pos="r" depth="3" NCoef="0" IVar="-1" Cut="0.0000000000000000e+00" cType="1" res="-3.8099014200270176e-03" rms="4.4189208745956421e-01" purity="4.7719827294349670e-01" nType="-99"/>
          </Node>
        </Node>
        <Node pos="r" depth="1" NCoef="0" IVar="0" Cut="2.5169267578125000e+03" cType="1" res="1.1451286077499390e-01" rms="3.1545144319534302e-01" purity="8.5899448394775391e-01" nType="0">
          <Node pos="l" depth="2" NCoef="0" IVar="-1" Cut="0.0000000000000000e+00" cType="1" res="2.2881006821990013e-02" rms="3.5497638583183289e-01" purity="8.0970001220703125e-01" nType="-99"/>
          <Node pos="r" depth="2" NCoef="0" IVar="-1" Cut="0.0000000000000000e+00" cType="1" res="4.0912698954343796e-02" rms="2.7318817377090454e-01" purity="9.0242534875869751e-01" nType="-99"/>
        </Node>
      </Node>
    </BinaryTree>
    <BinaryTree type="DecisionTree" boostWeight="1.0000000000000000e+00" itree="20">
      <Node pos="s" depth="0" NCoef="0" IVar="5" Cut="7.6420249938964844e+01" cType="1" res="1.9069799454882741e-03" rms="4.1534307599067688e-01" purity="5.0019490718841553e-01" nType="0">
        <Node pos="l" depth="1" NCoef="0" IVar="12" Cut="2.6640880107879639e+00" cType="1" res="-5.3237538784742355e-02" rms="4.0919068455696106e-01" purity="3.5555776953697205e-01" nType="0">
          <Node pos="l" depth="2" NCoef="0" IVar="11" Cut="4.0499923706054688e+01" cType="1" res="-8.1705436110496521e-02" rms="3.9906743168830872e-01" purity="2.7014565467834473e-01" nType="0">
            <Node pos="l" depth="3" NCoef="0" IVar="-1" Cut="0.0000000000000000e+00" cType="1" res="-1.1343320831656456e-02" rms="4.1987732052803040e-01" purity="3.2848912477493286e-01" nType="-99"/>
            <Node pos="r" depth="3" NCoef="0" IVar="-1" Cut="0.0000000000000000e+00" cType="1" res="-3.2320596277713776e-02" rms="3.6549541354179382e-01" purity="1.9483768939971924e-01" nType="-99"/>
          </Node>
          <Node pos="r" depth="2" NCoef="0" IVar="-1" Cut="0.0000000000000000e+00" cType="1" res="9.2698391526937485e-03" rms="4.2762202024459839e-01" purity="6.3418316841125488e-01" nType="-99"/>
        </Node>
        <Node pos="r" depth="1" NCoef="0" IVar="3" Cut="2.2127058506011963e+00" cType="1" res="3.5190470516681671e-02" rms="4.1548585891723633e-01" purity="5.8749336004257202e-01" nType="0">
          <Node pos="l" depth="2" NCoef="0" IVar="8" Cut="2.9839792847633362e-01" cType="1" res="-1.0525579564273357e-02" rms="4.2851924896240234e-01" purity="4.5438599586486816e-01" nType="0">
            <Node pos="l" depth="3" NCoef="0" IVar="-1" Cut="0.0000000000000000e+00" cType="1" res="7.6665836386382580e-03" rms="4.4182720780372620e-01" purity="5.7541674375534058e-01" nType="-99"/>
            <Node pos="r" depth="3" NCoef="0" IVar="-1" Cut="0.0000000000000000e+00" cType="1" res="-1.9683428108692169e-02" rms="3.9675682783126831e-01" purity="2.6177513599395752e-01" nType="-99"/>
          </Node>
          <Node pos="r" depth="2" NCoef="0" IVar="6" Cut="1.1653447151184082e+00" cType="1" res="8.1262715160846710e-02" rms="3.9662784337997437e-01" purity="7.2163778543472290e-01" nType="0">
            <Node pos="l" depth="3" NCoef="0" IVar="-1" Cut="0.0000000000000000e+00" cType="1" res="6.3528394093737006e-04" rms="4.4795683026313782e-01" purity="5.3392827510833740e-01" nType="-99"/>
            <Node pos="r" depth="3" NCoef="0" IVar="-1" Cut="0.0000000000000000e+00" cType="1" res="2.7923924848437309e-02" rms="3.7253454327583313e-01" purity="7.8891289234161377e-01" nType="-99"/>
          </Node>
        </Node>
      </Node>
    </BinaryTree>
    <BinaryTree type="DecisionTree" boostWeight="1.0000000000000000e+00" itree="21">
      <Node pos="s" depth="0" NCoef="0" IVar="12" Cut="2.0157558917999268e+00" cType="1" res="-2.6824066881090403e-03" rms="4.1320988535881042e-01" purity="4.9415257573127747e-01" nType="0">
        <Node pos="l" depth="1" NCoef="0" IVar="3" Cut="2.5389690399169922e+00" cType="1" res="-3.6674264818429947e-02" rms="4.1966441273689270e-01" purity="3.7950032949447632e-01" nType="0">
          <Node pos="l" depth="2" NCoef="0" IVar="5" Cut="8.5788856506347656e+01" cType="1" res="-6.5742142498493195e-02" rms="4.0909892320632935e-01" purity="2.9715797305107117e-01" nType="0">
            <Node pos="l" depth="3" NCoef="0" IVar="-1" Cut="0.0000000000000000e+00" cType="1" res="-2.7517843991518021e-02" rms="3.7181371450424194e-01" purity="1.8827261030673981e-01" nType="-99"/>
            <Node pos="r" depth="3" NCoef="0" IVar="-1" Cut="0.0000000000000000e+00" cType="1" res="-6.2195197679102421e-03" rms="4.4010633230209351e-01" purity="4.0695181488990784e-01" nType="-99"/>
          </Node>
          <Node pos="r" depth="2" NCoef="0" IVar="6" Cut="2.0352811813354492e+00" cType="1" res="3.3704459667205811e-02" rms="4.3625673651695251e-01" purity="5.7886648178100586e-01" nType="0">
            <Node pos="l" depth="3" NCoef="0" IVar="-1" Cut="0.0000000000000000e+00" cType="1" res="-1.2174256844446063e-03" rms="4.4115337729454041e-01" purity="5.0579530000686646e-01" nType="-99"/>
            <Node pos="r" depth="3" NCoef="0" IVar="-1" Cut="0.0000000000000000e+00" cType="1" res="2.5140417739748955e-02" rms="4.1675731539726257e-01" purity="7.1813297271728516e-01" nType="-99"/>
          </Node>
        </Node>
        <Node pos="r" depth="1" NCoef="0" IVar="11" Cut="7.1725479125976562e+01" cType="1" res="6.1734769493341446e-02" rms="3.9270296692848206e-01" purity="7.1142727136611938e-01" nType="0">
          <Node pos="l" depth="2" NCoef="0" IVar="4" Cut="1.1270273590087891e+02" cType="1" res="8.6969487369060516e-02" rms="3.7532064318656921e-01" purity="7.5116306543350220e-01" nType="0">
            <Node pos="l" depth="3" NCoef="0" IVar="-1" Cut="0.0000000000000000e+00" cType="1" res="-1.6324592288583517e-03" rms="4.3995180726051331e-01" purity="5.5157989263534546e-01" nType="-99"/>
            <Node pos="r" depth="3" NCoef="0" IVar="-1" Cut="0.0000000000000000e+00" cType="1" res="3.1617488712072372e-02" rms="3.4630209207534790e-01" purity="8.1604170799255371e-01" nType="-99"/>
          </Node>
          <Node pos="r" depth="2" NCoef="0" IVar="-1" Cut="0.0000000000000000e+00" cType="1" res="-1.3658971525728703e-02" rms="4.4776552915573120e-01" purity="5.2113813161849976e-01" nType="-99"/>
        </Node>
      </Node>
    </BinaryTree>
    <BinaryTree type="DecisionTree" boostWeight="1.0000000000000000e+00" itree="22">
      <Node pos="s" depth="0" NCoef="0" IVar="0" Cut="1.9317501220703125e+03" cType="1" res="1.3286288594827056e-03" rms="4.1124141216278076e-01" purity="5.0048303604125977e-01" nType="0">
        <Node pos="l" depth="1" NCoef="0" IVar="13" Cut="3.4339478015899658e+00" cType="1" res="-1.6579294577240944e-02" rms="4.2433115839958191e-01" purity="4.3297371268272400e-01" nType="0">
          <Node pos="l" depth="2" NCoef="0" IVar="3" Cut="1.6607166528701782e+00" cType="1" res="7.9473555088043213e-03" rms="4.3595591187477112e-01" purity="4.9625888466835022e-01" nType="0">
            <Node pos="l" depth="3" NCoef="0" IVar="-1" Cut="0.0000000000000000e+00" cType="1" res="-1.2168471701443195e-02" rms="4.2503806948661804e-01" purity="3.2897520065307617e-01" nType="-99"/>
            <Node pos="r" depth="3" NCoef="0" IVar="-1" Cut="0.0000000000000000e+00" cType="1" res="9.5438193529844284e-03" rms="4.3858125805854797e-01" purity="5.9108704328536987e-01" nType="-99"/>
          </Node>
          <Node pos="r" depth="2" NCoef="0" IVar="10" Cut="1.6282992553710938e+02" cType="1" res="-8.4558784961700439e-02" rms="3.8216501474380493e-01" purity="2.5756886601448059e-01" nType="0">
            <Node pos="l" depth="3" NCoef="0" IVar="-1" Cut="0.0000000000000000e+00" cType="1" res="-8.7338071316480637e-03" rms="4.1199415922164917e-01" purity="3.5137832164764404e-01" nType="-99"/>
            <Node pos="r" depth="3" NCoef="0" IVar="-1" Cut="0.0000000000000000e+00" cType="1" res="-3.7765912711620331e-02" rms="3.3575674891471863e-01" purity="1.4909404516220093e-01" nType="-99"/>
          </Node>
        </Node>
        <Node pos="r" depth="1" NCoef="0" IVar="11" Cut="3.7238307952880859e+01" cType="1" res="9.4340175390243530e-02" rms="3.1936669349670410e-01" purity="8.5111796855926514e-01" nType="0">
          <Node pos="l" depth="2" NCoef="0" IVar="-1" Cut="0.0000000000000000e+00" cType="1" res="3.5898596048355103e-02" rms="2.8545957803726196e-01" purity="8.8694924116134644e-01" nType="-99"/>
          <Node pos="r" depth="2" NCoef="0" IVar="-1" Cut="0.0000000000000000e+00" cType="1" res="1.8681678920984268e-02" rms="3.5449939966201782e-01" purity="8.0720281600952148e-01" nType="-99"/>
        </Node>
      </Node>
    </BinaryTree>
    <BinaryTree type="DecisionTree" boostWeight="1.0000000000000000e+00" itree="23">
      <Node pos="s" depth="0" NCoef="0" IVar="11" Cut="4.0832504272460938e+01" cType="1" res="2.3369290865957737e-03" rms="4.1168111562728882e-01" purity="4.9806177616119385e-01" nType="0">
        <Node pos="l" depth="1" NCoef="0" IVar="0" Cut="5.7276501464843750e+02" cType="1" res="3.7500649690628052e-02" rms="4.0554374456405640e-01" purity="5.6172639131546021e-01" nType="0">
          <Node pos="l" depth="2" NCoef="0" IVar="-1" Cut="0.0000000000000000e+00" cType="1" res="-2.3714253678917885e-02" rms="3.8529470562934875e-01" purity="2.3010022938251495e-01" nType="-99"/>
          <Node pos="r" depth="2" NCoef="0" IVar="12" Cut="9.0739238262176514e-01" cType="1" res="5.1615484058856964e-02" rms="4.0507733821868896e-01" purity="5.9691035747528076e-01" nType="0">
            <Node pos="l" depth="3" NCoef="0" IVar="-1" Cut="0.0000000000000000e+00" cType="1" res="-2.6989118196070194e-03" rms="4.2212119698524475e-01" purity="3.5023939609527588e-01" nType="-99"/>
            <Node pos="r" depth="3" NCoef="0" IVar="-1" Cut="0.0000000000000000e+00" cType="1" res="1.9999532029032707e-02" rms="3.9459350705146790e-01" purity="7.0193660259246826e-01" nType="-99"/>
          </Node>
        </Node>
        <Node pos="r" depth="1" NCoef="0" IVar="0" Cut="1.8618420410156250e+03" cType="1" res="-3.9357915520668030e-02" rms="4.1499868035316467e-01" purity="4.2257252335548401e-01" nType="0">
          <Node pos="l" depth="2" NCoef="0" IVar="13" Cut="3.9591562747955322e+00" cType="1" res="-5.7535111904144287e-02" rms="4.2166277766227722e-01" purity="3.5375726222991943e-01" nType="0">
            <Node pos="l" depth="3" NCoef="0" IVar="-1" Cut="0.0000000000000000e+00" cType="1" res="-1.0423978790640831e-02" rms="4.3337494134902954e-01" purity="3.8889688253402710e-01" nType="-99"/>
            <Node pos="r" depth="3" NCoef="0" IVar="-1" Cut="0.0000000000000000e+00" cType="1" res="-3.5962443798780441e-02" rms="3.3830589056015015e-01" purity="1.5545926988124847e-01" nType="-99"/>
          </Node>
          <Node pos="r" depth="2" NCoef="0" IVar="-1" Cut="0.0000000000000000e+00" cType="1" res="1.6575796529650688e-02" rms="3.6126694083213806e-01" purity="7.9550170898437500e-01" nType="-99"/>
        </Node>
      </Node>
    </BinaryTree>
    <BinaryTree type="DecisionTree" boostWeight="1.0000000000000000e+00" itree="24">
      <Node pos="s" depth="0" NCoef="0" IVar="3" Cut="2.0432987213134766e+00" cType="1" res="7.5835636816918850e-03" rms="4.1043588519096375e-01" purity="5.0810390710830688e-01" nType="0">
        <Node pos="l" depth="1" NCoef="0" IVar="12" Cut="1.9609942436218262e+00" cType="1" res="-3.1656421720981598e-02" rms="4.0880748629570007e-01" purity="3.6903390288352966e-01" nType="0">
          <Node pos="l" depth="2" NCoef="0" IVar="11" Cut="8.0859695434570312e+01" cType="1" res="-6.2399718910455704e-02" rms="3.9406231045722961e-01" purity="2.5187942385673523e-01" nType="0">
            <Node pos="l" depth="3" NCoef="0" IVar="-1" Cut="0.0000000000000000e+00" cType="1" res="-1.3042025268077850e-02" rms="3.9879095554351807e-01" purity="2.6784104108810425e-01" nType="-99"/>
            <Node pos="r" depth="3" NCoef="0" IVar="-1" Cut="0.0000000000000000e+00" cType="1" res="-3.4211333841085434e-02" rms="3.6020696163177490e-01" purity="1.6645842790603638e-01" nType="-99"/>
          </Node>
          <Node pos="r" depth="2" NCoef="0" IVar="11" Cut="4.6279998779296875e+01" cType="1" res="3.0048774555325508e-02" rms="4.3032556772232056e-01" purity="6.0417586565017700e-01" nType="0">
            <Node pos="l" depth="3" NCoef="0" IVar="-1" Cut="0.0000000000000000e+00" cType="1" res="1.4904906041920185e-02" rms="4.1407176852226257e-01" purity="6.7288053035736084e-01" nType="-99"/>
            <Node pos="r" depth="3" NCoef="0" IVar="-1" Cut="0.0000000000000000e+00" cType="1" res="-4.6925731003284454e-03" rms="4.5152333378791809e-01" purity="4.9001345038414001e-01" nType="-99"/>
          </Node>
        </Node>
        <Node pos="r" depth="1" NCoef="0" IVar="11" Cut="5.4738754272460938e+01" cType="1" res="4.3010044842958450e-02" rms="4.0867695212364197e-01" purity="6.3365846872329712e-01" nType="0">
          <Node pos="l" depth="2" NCoef="0" IVar="5" Cut="6.4883880615234375e+01" cType="1" res="6.7626446485519409e-02" rms="3.9562219381332397e-01" purity="6.7755860090255737e-01" nType="0">
            <Node pos="l" depth="3" NCoef="0" IVar="-1" Cut="0.0000000000000000e+00" cType="1" res="-9.3032093718647957e-04" rms="4.3513625860214233e-01" purity="4.8671036958694458e-01" nType="-99"/>
            <Node pos="r" depth="3" NCoef="0" IVar="-1" Cut="0.0000000000000000e+00" cType="1" res="2.2975459694862366e-02" rms="3.8087341189384460e-01" purity="7.3298937082290649e-01" nType="-99"/>
          </Node>
          <Node pos="r" depth="2" NCoef="0" IVar="7" Cut="2.4679265022277832e+00" cType="1" res="-1.5196290798485279e-02" rms="4.3246212601661682e-01" purity="5.2985501289367676e-01" nType="0">
            <Node pos="l" depth="3" NCoef="0" IVar="-1" Cut="0.0000000000000000e+00" cType="1" res="6.6435728222131729e-03" rms="4.4184941053390503e-01" purity="5.8502912521362305e-01" nType="-99"/>
            <Node pos="r" depth="3" NCoef="0" IVar="-1" Cut="0.0000000000000000e+00" cType="1" res="-1.8215274438261986e-02" rms="4.1222664713859558e-01" purity="4.5591291785240173e-01" nType="-99"/>
          </Node>
        </Node>
      </Node>
    </BinaryTree>
    <BinaryTree type="DecisionTree" boostWeight="1.0000000000000000e+00" itree="25">
      <Node pos="s" depth="0" NCoef="0" IVar="8" Cut="6.3122081756591797e-01" cType="1" res="-5.5500265443697572e-04" rms="4.1041231155395508e-01" purity="4.9475720524787903e-01" nType="0">
        <Node pos="l" depth="1" NCoef="0" IVar="11" Cut="1.8632345199584961e+01" cType="1" res="1.2562368065118790e-02" rms="4.1549056768417358e-01" purity="5.2523624897003174e-01" nType="0">
          <Node pos="l" depth="2" NCoef="0" IVar="5" Cut="6.9520538330078125e+01" cType="1" res="8.4338396787643433e-02" rms="3.9870923757553101e-01" purity="6.4885002374649048e-01" nType="0">
            <Node pos="l" depth="3" NCoef="0" IVar="-1" Cut="0.0000000000000000e+00" cType="1" res="4.4323252514004707e-03" rms="4.1389578580856323e-01" purity="4.7814109921455383e-01" nType="-99"/>
            <Node pos="r" depth="3" NCoef="0" IVar="-1" Cut="0.0000000000000000e+00" cType="1" res="2.9562601819634438e-02" rms="3.8802471756935120e-01" purity="7.2532349824905396e-01" nType="-99"/>
          </Node>
          <Node pos="r" depth="2" NCoef="0" IVar="0" Cut="6.9475134277343750e+02" cType="1" res="-6.0947467572987080e-03" rms="4.1772812604904175e-01" purity="4.9310466647148132e-01" nType="0">
            <Node pos="l" depth="3" NCoef="0" IVar="-1" Cut="0.0000000000000000e+00" cType="1" res="-2.1699814125895500e-02" rms="3.9529970288276672e-01" purity="2.2624793648719788e-01" nType="-99"/>
            <Node pos="r" depth="3" NCoef="0" IVar="-1" Cut="0.0000000000000000e+00" cType="1" res="4.1032745502889156e-03" rms="4.2111238837242126e-01" purity="5.6849604845046997e-01" nType="-99"/>
          </Node>
        </Node>
        <Node pos="r" depth="1" NCoef="0" IVar="-1" Cut="0.0000000000000000e+00" cType="1" res="-3.4372154623270035e-02" rms="3.3300763368606567e-01" purity="2.0306867361068726e-01" nType="-99"/>
      </Node>
    </BinaryTree>
    <BinaryTree type="DecisionTree" boostWeight="1.0000000000000000e+00" itree="26">
      <Node pos="s" depth="0" NCoef="0" IVar="11" Cut="7.1688209533691406e+01" cType="1" res="4.7894156887196004e-04" rms="4.1158196330070496e-01" purity="4.9908998608589172e-01" nType="0">
        <Node pos="l" depth="1" NCoef="0" IVar="5" Cut="6.0729438781738281e+01" cType="1" res="1.7756402492523193e-02" rms="4.0839001536369324e-01" purity="5.3039222955703735e-01" nType="0">
          <Node pos="l" depth="2" NCoef="0" IVar="13" Cut="3.4535913467407227e+00" cType="1" res="-5.8246795088052750e-02" rms="4.0066230297088623e-01" purity="3.2317140698432922e-01" nType="0">
            <Node pos="l" depth="3" NCoef="0" IVar="-1" Cut="0.0000000000000000e+00" cType="1" res="-6.2795910052955151e-03" rms="4.2716825008392334e-01" purity="4.0079215168952942e-01" nType="-99"/>
            <Node pos="r" depth="3" NCoef="0" IVar="-1" Cut="0.0000000000000000e+00" cType="1" res="-2.8836566954851151e-02" rms="3.5542178153991699e-01" purity="2.1470023691654205e-01" nType="-99"/>
          </Node>
          <Node pos="r" depth="2" NCoef="0" IVar="9" Cut="7.0668739080429077e-01" cType="1" res="3.5491161048412323e-02" rms="4.0814074873924255e-01" purity="5.7874554395675659e-01" nType="0">
            <Node pos="l" depth="3" NCoef="0" IVar="-1" Cut="0.0000000000000000e+00" cType="1" res="1.2211600318551064e-02" rms="4.1103392839431763e-01" purity="6.1835467815399170e-01" nType="-99"/>
            <Node pos="r" depth="3" NCoef="0" IVar="-1" Cut="0.0000000000000000e+00" cType="1" res="-1.6535378992557526e-02" rms="3.7012735009193420e-01" purity="2.6362833380699158e-01" nType="-99"/>
          </Node>
        </Node>
        <Node pos="r" depth="1" NCoef="0" IVar="4" Cut="1.7613552856445312e+02" cType="1" res="-6.8421207368373871e-02" rms="4.1701257228851318e-01" purity="3.7426075339317322e-01" nType="0">
          <Node pos="l" depth="2" NCoef="0" IVar="-1" Cut="0.0000000000000000e+00" cType="1" res="-3.1703434884548187e-02" rms="4.0198120474815369e-01" purity="2.6011508703231812e-01" nType="-99"/>
          <Node pos="r" depth="2" NCoef="0" IVar="3" Cut="1.8416178226470947e+00" cType="1" res="-3.3956564962863922e-02" rms="4.2161312699317932e-01" purity="4.4013243913650513e-01" nType="0">
            <Node pos="l" depth="3" NCoef="0" IVar="-1" Cut="0.0000000000000000e+00" cType="1" res="-2.3583218455314636e-02" rms="3.8821354508399963e-01" purity="2.6365831494331360e-01" nType="-99"/>
            <Node pos="r" depth="3" NCoef="0" IVar="-1" Cut="0.0000000000000000e+00" cType="1" res="1.3644030550494790e-03" rms="4.3807113170623779e-01" purity="5.5809533596038818e-01" nType="-99"/>
          </Node>
        </Node>
      </Node>
    </BinaryTree>
    <BinaryTree type="DecisionTree" boostWeight="1.0000000000000000e+00" itree="27">
      <Node pos="s" depth="0" NCoef="0" IVar="3" Cut="2.1405751705169678e+00" cType="1" res="-3.4137004986405373e-03" rms="4.0648683905601501e-01" purity="4.9468222260475159e-01" nType="0">
        <Node pos="l" depth="1" NCoef="0" IVar="12" Cut="1.8662523031234741e+00" cType="1" res="-3.8406185805797577e-02" rms="4.0045422315597534e-01" purity="3.6464673280715942e-01" nType="0">
          <Node pos="l" depth="2" NCoef="0" IVar="6" Cut="2.3090887069702148e+00" cType="1" res="-6.7415058612823486e-02" rms="3.8354423642158508e-01" purity="2.3653821647167206e-01" nType="0">
            <Node pos="l" depth="3" NCoef="0" IVar="-1" Cut="0.0000000000000000e+00" cType="1" res="-2.1386696025729179e-02" rms="3.7006300687789917e-01" purity="2.0808975398540497e-01" nType="-99"/>
            <Node pos="r" depth="3" NCoef="0" IVar="-1" Cut="0.0000000000000000e+00" cType="1" res="-2.4649330880492926e-03" rms="4.4628301262855530e-01" purity="3.9306062459945679e-01" nType="-99"/>
          </Node>
          <Node pos="r" depth="2" NCoef="0" IVar="10" Cut="1.5345054626464844e+02" cType="1" res="1.3350171037018299e-02" rms="4.2407166957855225e-01" purity="5.9321230649948120e-01" nType="0">
            <Node pos="l" depth="3" NCoef="0" IVar="-1" Cut="0.0000000000000000e+00" cType="1" res="-1.8369348719716072e-02" rms="4.2998859286308289e-01" purity="4.4681882858276367e-01" nType="-99"/>
            <Node pos="r" depth="3" NCoef="0" IVar="-1" Cut="0.0000000000000000e+00" cType="1" res="1.1704847216606140e-02" rms="4.1676568984985352e-01" purity="6.4720875024795532e-01" nType="-99"/>
          </Node>
        </Node>
        <Node pos="r" depth="1" NCoef="0" IVar="6" Cut="1.5566440820693970e+00" cType="1" res="3.4452673047780991e-02" rms="4.0956121683120728e-01" purity="6.3539737462997437e-01" nType="0">
          <Node pos="l" depth="2" NCoef="0" IVar="0" Cut="6.9789282226562500e+02" cType="1" res="-8.3526335656642914e-03" rms="4.3154579401016235e-01" purity="4.9606519937515259e-01" nType="0">
            <Node pos="l" depth="3" NCoef="0" IVar="-1" Cut="0.0000000000000000e+00" cType="1" res="-2.1581355482339859e-02" rms="4.2166754603385925e-01" purity="2.7806657552719116e-01" nType="-99"/>
            <Node pos="r" depth="3" NCoef="0" IVar="-1" Cut="0.0000000000000000e+00" cType="1" res="5.3742676973342896e-03" rms="4.3101438879966736e-01" purity="5.7601344585418701e-01" nType="-99"/>
          </Node>
          <Node pos="r" depth="2" NCoef="0" IVar="5" Cut="7.1751899719238281e+01" cType="1" res="6.5210476517677307e-02" rms="3.9011630415916443e-01" purity="7.3551476001739502e-01" nType="0">
            <Node pos="l" depth="3" NCoef="0" IVar="-1" Cut="0.0000000000000000e+00" cType="1" res="7.4801297159865499e-04" rms="4.4770941138267517e-01" purity="5.6425887346267700e-01" nType="-99"/>
            <Node pos="r" depth="3" NCoef="0" IVar="-1" Cut="0.0000000000000000e+00" cType="1" res="2.4568431079387665e-02" rms="3.6340445280075073e-01" purity="7.9987972974777222e-01" nType="-99"/>
          </Node>
        </Node>
      </Node>
    </BinaryTree>
    <BinaryTree type="DecisionTree" boostWeight="1.0000000000000000e+00" itree="28">
      <Node pos="s" depth="0" NCoef="0" IVar="3" Cut="2.5796890258789062e+00" cType="1" res="-9.3998608645051718e-04" rms="4.0617269277572632e-01" purity="4.9885225296020508e-01" nType="0">
        <Node pos="l" depth="1" NCoef="0" IVar="12" Cut="2.0113761425018311e+00" cType="1" res="-2.3598061874508858e-02" rms="4.0859732031822205e-01" purity="4.1981762647628784e-01" nType="0">
          <Node pos="l" depth="2" NCoef="0" IVar="11" Cut="5.4684619903564453e+01" cType="1" res="-4.6667955815792084e-02" rms="4.0674909949302673e-01" purity="3.0444404482841492e-01" nType="0">
            <Node pos="l" depth="3" NCoef="0" IVar="-1" Cut="0.0000000000000000e+00" cType="1" res="-5.8546881191432476e-03" rms="4.2242136597633362e-01" purity="3.4416750073432922e-01" nType="-99"/>
            <Node pos="r" depth="3" NCoef="0" IVar="-1" Cut="0.0000000000000000e+00" cType="1" res="-2.5838913396000862e-02" rms="3.6648002266883850e-01" purity="2.2067852318286896e-01" nType="-99"/>
          </Node>
          <Node pos="r" depth="2" NCoef="0" IVar="4" Cut="1.8205615234375000e+02" cType="1" res="2.3231428116559982e-02" rms="4.0833482146263123e-01" purity="6.5401387214660645e-01" nType="0">
            <Node pos="l" depth="3" NCoef="0" IVar="-1" Cut="0.0000000000000000e+00" cType="1" res="-3.1848780345171690e-03" rms="4.3150374293327332e-01" purity="5.5822634696960449e-01" nType="-99"/>
            <Node pos="r" depth="3" NCoef="0" IVar="-1" Cut="0.0000000000000000e+00" cType="1" res="2.0770905539393425e-02" rms="3.6759993433952332e-01" purity="7.8772085905075073e-01" nType="-99"/>
          </Node>
        </Node>
        <Node pos="r" depth="1" NCoef="0" IVar="10" Cut="1.9925242614746094e+02" cType="1" res="5.3013540804386139e-02" rms="3.9514383673667908e-01" purity="6.8705010414123535e-01" nType="0">
          <Node pos="l" depth="2" NCoef="0" IVar="5" Cut="1.1657341766357422e+02" cType="1" res="7.4447266757488251e-02" rms="3.9363336563110352e-01" purity="7.1092271804809570e-01" nType="0">
            <Node pos="l" depth="3" NCoef="0" IVar="-1" Cut="0.0000000000000000e+00" cType="1" res="9.7603779286146164e-03" rms="4.2867863178253174e-01" purity="6.1435270309448242e-01" nType="-99"/>
            <Node pos="r" depth="3" NCoef="0" IVar="-1" Cut="0.0000000000000000e+00" cType="1" res="3.6648303270339966e-02" rms="3.2345306873321533e-01" purity="8.6352592706680298e-01" nType="-99"/>
          </Node>
          <Node pos="r" depth="2" NCoef="0" IVar="-1" Cut="0.0000000000000000e+00" cType="1" res="-8.1328814849257469e-03" rms="3.8988041877746582e-01" purity="5.9395265579223633e-01" nType="-99"/>
        </Node>
      </Node>
    </BinaryTree>
    <BinaryTree type="DecisionTree" boostWeight="1.0000000000000000e+00" itree="29">
      <Node pos="s" depth="0" NCoef="0" IVar="8" Cut="4.4135937094688416e-01" cType="1" res="1.6842992044985294e-03" rms="4.0363675355911255e-01" purity="5.0466632843017578e-01" nType="0">
        <Node pos="l" depth="1" NCoef="0" IVar="3" Cut="1.7173583507537842e+00" cType="1" res="2.3053718730807304e-02" rms="4.1111746430397034e-01" purity="5.7689839601516724e-01" nType="0">
          <Node pos="l" depth="2" NCoef="0" IVar="5" Cut="8.7625717163085938e+01" cType="1" res="-2.0808780565857887e-02" rms="4.1733339428901672e-01" purity="4.0799826383590698e-01" nType="0">
            <Node pos="l" depth="3" NCoef="0" IVar="-1" Cut="0.0000000000000000e+00" cType="1" res="-1.4277875423431396e-02" rms="4.0667283535003662e-01" purity="3.1146618723869324e-01" nType="-99"/>
            <Node pos="r" depth="3" NCoef="0" IVar="-1" Cut="0.0000000000000000e+00" cType="1" res="5.3636729717254639e-03" rms="4.2626553773880005e-01" purity="5.2729070186614990e-01" nType="-99"/>
          </Node>
          <Node pos="r" depth="2" NCoef="0" IVar="0" Cut="6.4415228271484375e+02" cType="1" res="4.9106247723102570e-02" rms="4.0513882040977478e-01" purity="6.7721813917160034e-01" nType="0">
            <Node pos="l" depth="3" NCoef="0" IVar="-1" Cut="0.0000000000000000e+00" cType="1" res="-7.9956250265240669e-03" rms="4.6086373925209045e-01" purity="3.6481174826622009e-01" nType="-99"/>
            <Node pos="r" depth="3" NCoef="0" IVar="-1" Cut="0.0000000000000000e+00" cType="1" res="1.6176979988813400e-02" rms="3.9523148536682129e-01" purity="7.2106903791427612e-01" nType="-99"/>
          </Node>
        </Node>
        <Node pos="r" depth="1" NCoef="0" IVar="1" Cut="9.8001319885253906e+01" cType="1" res="-6.4406365156173706e-02" rms="3.7187647819519043e-01" purity="2.8126925230026245e-01" nType="0">
          <Node pos="l" depth="2" NCoef="0" IVar="-1" Cut="0.0000000000000000e+00" cType="1" res="1.1006681015715003e-03" rms="4.2619183659553528e-01" purity="5.0915873050689697e-01" nType="-99"/>
          <Node pos="r" depth="2" NCoef="0" IVar="7" Cut="2.4377007484436035e+00" cType="1" res="-8.9998066425323486e-02" rms="3.4610432386398315e-01" purity="1.9671182334423065e-01" nType="0">
            <Node pos="l" depth="3" NCoef="0" IVar="-1" Cut="0.0000000000000000e+00" cType="1" res="-1.2462671846151352e-02" rms="4.0095195174217224e-01" purity="3.1768545508384705e-01" nType="-99"/>
            <Node pos="r" depth="3" NCoef="0" IVar="-1" Cut="0.0000000000000000e+00" cType="1" res="-3.7179447710514069e-02" rms="3.0059757828712463e-01" purity="1.1588089168071747e-01" nType="-99"/>
          </Node>
        </Node>
      </Node>
    </BinaryTree>
    <BinaryTree type="DecisionTree" boostWeight="1.0000000000000000e+00" itree="30">
      <Node pos="s" depth="0" NCoef="0" IVar="0" Cut="2.1154243164062500e+03" cType="1" res="3.1808845233172178e-03" rms="4.1127091646194458e-01" purity="4.9721011519432068e-01" nType="0">
        <Node pos="l" depth="1" NCoef="0" IVar="11" Cut="5.8273670196533203e+01" cType="1" res="-7.9777538776397705e-03" rms="4.2271432280540466e-01" purity="4.4625878334045410e-01" nType="0">
          <Node pos="l" depth="2" NCoef="0" IVar="1" Cut="1.1377271270751953e+02" cType="1" res="9.6152890473604202e-03" rms="4.2224842309951782e-01" purity="4.8598852753639221e-01" nType="0">
            <Node pos="l" depth="3" NCoef="0" IVar="-1" Cut="0.0000000000000000e+00" cType="1" res="1.4334555715322495e-02" rms="4.2779666185379028e-01" purity="6.1147755384445190e-01" nType="-99"/>
            <Node pos="r" depth="3" NCoef="0" IVar="-1" Cut="0.0000000000000000e+00" cType="1" res="-2.7821913827210665e-03" rms="4.1824278235435486e-01" purity="4.3400102853775024e-01" nType="-99"/>
          </Node>
          <Node pos="r" depth="2" NCoef="0" IVar="9" Cut="4.0224152803421021e-01" cType="1" res="-5.0463508814573288e-02" rms="4.2081537842750549e-01" purity="3.5031467676162720e-01" nType="0">
            <Node pos="l" depth="3" NCoef="0" IVar="-1" Cut="0.0000000000000000e+00" cType="1" res="-4.9361507408320904e-03" rms="4.5490893721580505e-01" purity="4.6737933158874512e-01" nType="-99"/>
            <Node pos="r" depth="3" NCoef="0" IVar="-1" Cut="0.0000000000000000e+00" cType="1" res="-1.9904099404811859e-02" rms="3.8944509625434875e-01" purity="2.5561636686325073e-01" nType="-99"/>
          </Node>
        </Node>
        <Node pos="r" depth="1" NCoef="0" IVar="-1" Cut="0.0000000000000000e+00" cType="1" res="2.8210779651999474e-02" rms="3.0187427997589111e-01" purity="8.7271344661712646e-01" nType="-99"/>
      </Node>
    </BinaryTree>
    <BinaryTree type="DecisionTree" boostWeight="1.0000000000000000e+00" itree="31">
      <Node pos="s" depth="0" NCoef="0" IVar="12" Cut="2.2788467407226562e+00" cType="1" res="2.3306538350880146e-03" rms="4.0824413299560547e-01" purity="4.9965116381645203e-01" nType="0">
        <Node pos="l" depth="1" NCoef="0" IVar="5" Cut="1.0653561401367188e+02" cType="1" res="-1.7526980489492416e-02" rms="4.1764447093009949e-01" purity="4.0287163853645325e-01" nType="0">
          <Node pos="l" depth="2" NCoef="0" IVar="4" Cut="2.8492657470703125e+02" cType="1" res="-4.2122874408960342e-02" rms="4.1182368993759155e-01" purity="3.0889162421226501e-01" nType="0">
            <Node pos="l" depth="3" NCoef="0" IVar="-1" Cut="0.0000000000000000e+00" cType="1" res="-6.2647289596498013e-03" rms="4.1698423027992249e-01" purity="3.2473975419998169e-01" nType="-99"/>
            <Node pos="r" depth="3" NCoef="0" IVar="-1" Cut="0.0000000000000000e+00" cType="1" res="-3.2808508723974228e-02" rms="3.7701088190078735e-01" purity="2.3772554099559784e-01" nType="-99"/>
          </Node>
          <Node pos="r" depth="2" NCoef="0" IVar="10" Cut="1.7731074523925781e+02" cType="1" res="2.6266943663358688e-02" rms="4.2429772019386292e-01" purity="5.7020670175552368e-01" nType="0">
            <Node pos="l" depth="3" NCoef="0" IVar="-1" Cut="0.0000000000000000e+00" cType="1" res="2.0292080938816071e-02" rms="3.9670729637145996e-01" purity="7.1073365211486816e-01" nType="-99"/>
            <Node pos="r" depth="3" NCoef="0" IVar="-1" Cut="0.0000000000000000e+00" cType="1" res="-2.2064997756388038e-04" rms="4.3512472510337830e-01" purity="4.9888831377029419e-01" nType="-99"/>
          </Node>
        </Node>
        <Node pos="r" depth="1" NCoef="0" IVar="4" Cut="9.7933906555175781e+01" cType="1" res="4.8741243779659271e-02" rms="3.8136970996856689e-01" purity="7.2584080696105957e-01" nType="0">
          <Node pos="l" depth="2" NCoef="0" IVar="-1" Cut="0.0000000000000000e+00" cType="1" res="-1.0648109950125217e-02" rms="4.3898603320121765e-01" purity="4.8630329966545105e-01" nType="-99"/>
          <Node pos="r" depth="2" NCoef="0" IVar="11" Cut="6.2460971832275391e+01" cType="1" res="6.8065449595451355e-02" rms="3.6548006534576416e-01" purity="7.7483779191970825e-01" nType="0">
            <Node pos="l" depth="3" NCoef="0" IVar="-1" Cut="0.0000000000000000e+00" cType="1" res="2.4601716548204422e-02" rms="3.4305354952812195e-01" purity="8.1758993864059448e-01" nType="-99"/>
            <Node pos="r" depth="3" NCoef="0" IVar="-1" Cut="0.0000000000000000e+00" cType="1" res="6.1379717662930489e-03" rms="4.2584159970283508e-01" purity="6.3969242572784424e-01" nType="-99"/>
          </Node>
        </Node>
      </Node>
    </BinaryTree>
    <BinaryTree type="DecisionTree" boostWeight="1.0000000000000000e+00" itree="32">
      <Node pos="s" depth="0" NCoef="0" IVar="0" Cut="1.6804573974609375e+03" cType="1" res="1.8154871650040150e-03" rms="4.0488123893737793e-01" purity="5.0149440765380859e-01" nType="0">
        <Node pos="l" depth="1" NCoef="0" IVar="11" Cut="3.8288486480712891e+01" cType="1" res="-1.3007318601012230e-02" rms="4.2034143209457397e-01" purity="4.1683056950569153e-01" nType="0">
          <Node pos="l" depth="2" NCoef="0" IVar="0" Cut="6.1442718505859375e+02" cType="1" res="1.7233917489647865e-02" rms="4.2232125997543335e-01" purity="4.8977687954902649e-01" nType="0">
            <Node pos="l" depth="3" NCoef="0" IVar="-1" Cut="0.0000000000000000e+00" cType="1" res="-1.6900215297937393e-02" rms="3.9229944348335266e-01" purity="2.5508657097816467e-01" nType="-99"/>
            <Node pos="r" depth="3" NCoef="0" IVar="-1" Cut="0.0000000000000000e+00" cType="1" res="8.9196367189288139e-03" rms="4.2646926641464233e-01" purity="5.4154694080352783e-01" nType="-99"/>
          </Node>
          <Node pos="r" depth="2" NCoef="0" IVar="11" Cut="1.1183058166503906e+02" cType="1" res="-4.3251607567071915e-02" rms="4.1615995764732361e-01" purity="3.4387686848640442e-01" nType="0">
            <Node pos="l" depth="3" NCoef="0" IVar="-1" Cut="0.0000000000000000e+00" cType="1" res="-8.2625830546021461e-03" rms="4.1769310832023621e-01" purity="3.5704809427261353e-01" nType="-99"/>
            <Node pos="r" depth="3" NCoef="0" IVar="-1" Cut="0.0000000000000000e+00" cType="1" res="-2.8464393690228462e-02" rms="3.9878422021865845e-01" purity="2.5810423493385315e-01" nType="-99"/>
          </Node>
        </Node>
        <Node pos="r" depth="1" NCoef="0" IVar="13" Cut="3.5459415912628174e+00" cType="1" res="5.8743253350257874e-02" rms="3.3293551206588745e-01" purity="8.2665032148361206e-01" nType="0">
          <Node pos="l" depth="2" NCoef="0" IVar="-1" Cut="0.0000000000000000e+00" cType="1" res="2.7272619307041168e-02" rms="2.8736671805381775e-01" purity="8.9356660842895508e-01" nType="-99"/>
          <Node pos="r" depth="2" NCoef="0" IVar="-1" Cut="0.0000000000000000e+00" cType="1" res="6.5003773197531700e-03" rms="4.0534910559654236e-01" purity="6.9597744941711426e-01" nType="-99"/>
        </Node>
      </Node>
    </BinaryTree>
    <BinaryTree type="DecisionTree" boostWeight="1.0000000000000000e+00" itree="33">
      <Node pos="s" depth="0" NCoef="0" IVar="8" Cut="4.6712648868560791e-01" cType="1" res="4.6209624269977212e-04" rms="4.0359869599342346e-01" purity="5.0087499618530273e-01" nType="0">
        <Node pos="l" depth="1" NCoef="0" IVar="11" Cut="2.3979280471801758e+01" cType="1" res="1.4821090735495090e-02" rms="4.0920400619506836e-01" purity="5.6458318233489990e-01" nType="0">
          <Node pos="l" depth="2" NCoef="0" IVar="0" Cut="7.2404583740234375e+02" cType="1" res="5.7235706597566605e-02" rms="3.8591793179512024e-01" purity="6.7406851053237915e-01" nType="0">
            <Node pos="l" depth="3" NCoef="0" IVar="-1" Cut="0.0000000000000000e+00" cType="1" res="-1.3213562779128551e-03" rms="4.5874619483947754e-01" purity="3.7454774975776672e-01" nType="-99"/>
            <Node pos="r" depth="3" NCoef="0" IVar="-1" Cut="0.0000000000000000e+00" cType="1" res="2.1332569420337677e-02" rms="3.6105975508689880e-01" purity="7.5761765241622925e-01" nType="-99"/>
          </Node>
          <Node pos="r" depth="2" NCoef="0" IVar="3" Cut="2.6706101894378662e+00" cType="1" res="-3.5839290358126163e-03" rms="4.1756778955459595e-01" purity="5.1707416772842407e-01" nType="0">
            <Node pos="l" depth="3" NCoef="0" IVar="-1" Cut="0.0000000000000000e+00" cType="1" res="-5.1816659979522228e-03" rms="4.2112219333648682e-01" purity="4.5345735549926758e-01" nType="-99"/>
