<?xml version="1.0"?>
<MethodSetup Method="BDT::BDTG_vbfpol_nsel1_v7">
  <GeneralInfo>
    <Info name="TMVA Release" value="4.2.1 [262657]"/>
    <Info name="ROOT Release" value="6.30/09 [400905]"/>
    <Info name="Creator" value="ceballos"/>
    <Info name="Date" value="Fri Mar 20 11:31:01 2026"/>
    <Info name="Host" value="Linux cmsbuild145.cern.ch 4.18.0-553.8.1.el8_10.x86_64 #1 SMP Tue Jul 2 07:26:33 EDT 2024 x86_64 x86_64 x86_64 GNU/Linux"/>
    <Info name="Dir" value="/home/submit/ceballos/cms/MitAnalysisRunIII/rdf/mva_training"/>
    <Info name="Training events" value="382220"/>
    <Info name="TrainingTime" value="2.14829971e+02"/>
    <Info name="AnalysisType" value="Classification"/>
  </GeneralInfo>
  <Options>
    <Option name="V" modified="Yes">False</Option>
    <Option name="VerbosityLevel" modified="No">Default</Option>
    <Option name="VarTransform" modified="No">None</Option>
    <Option name="H" modified="Yes">False</Option>
    <Option name="CreateMVAPdfs" modified="No">False</Option>
    <Option name="IgnoreNegWeightsInTraining" modified="No">False</Option>
    <Option name="NTrees" modified="Yes">1000</Option>
    <Option name="MaxDepth" modified="Yes">3</Option>
    <Option name="MinNodeSize" modified="Yes">5%</Option>
    <Option name="nCuts" modified="Yes">1000</Option>
    <Option name="BoostType" modified="Yes">Grad</Option>
    <Option name="AdaBoostR2Loss" modified="No">quadratic</Option>
    <Option name="UseBaggedBoost" modified="Yes">True</Option>
    <Option name="Shrinkage" modified="Yes">1.000000e-01</Option>
    <Option name="AdaBoostBeta" modified="No">5.000000e-01</Option>
    <Option name="UseRandomisedTrees" modified="No">False</Option>
    <Option name="UseNvars" modified="No">4</Option>
    <Option name="UsePoissonNvars" modified="No">True</Option>
    <Option name="BaggedSampleFraction" modified="No">3.000000e-01</Option>
    <Option name="UseYesNoLeaf" modified="No">True</Option>
    <Option name="NegWeightTreatment" modified="Yes">ignorenegweightsintraining</Option>
    <Option name="Css" modified="No">1.000000e+00</Option>
    <Option name="Cts_sb" modified="No">1.000000e+00</Option>
    <Option name="Ctb_ss" modified="No">1.000000e+00</Option>
    <Option name="Cbb" modified="No">1.000000e+00</Option>
    <Option name="NodePurityLimit" modified="No">5.000000e-01</Option>
    <Option name="SeparationType" modified="No">giniindex</Option>
    <Option name="RegressionLossFunctionBDTG" modified="No">huber</Option>
    <Option name="HuberQuantile" modified="No">7.000000e-01</Option>
    <Option name="DoBoostMonitor" modified="No">False</Option>
    <Option name="UseFisherCuts" modified="No">False</Option>
    <Option name="MinLinCorrForFisher" modified="No">8.000000e-01</Option>
    <Option name="UseExclusiveVars" modified="No">False</Option>
    <Option name="DoPreselection" modified="No">False</Option>
    <Option name="SigToBkgFraction" modified="No">1.000000e+00</Option>
    <Option name="PruneMethod" modified="No">nopruning</Option>
    <Option name="PruneStrength" modified="No">0.000000e+00</Option>
    <Option name="PruningValFraction" modified="No">5.000000e-01</Option>
    <Option name="SkipNormalization" modified="No">False</Option>
    <Option name="nEventsMin" modified="No">0</Option>
    <Option name="UseBaggedGrad" modified="No">False</Option>
    <Option name="GradBaggingFraction" modified="Yes">3.000000e-01</Option>
    <Option name="UseNTrainEvents" modified="No">0</Option>
    <Option name="NNodesMax" modified="No">0</Option>
  </Options>
  <Variables NVar="18">
    <Variable VarIndex="0" Expression="vbs_dphijj" Label="vbs_dphijj" Title="vbs_dphijj" Unit="" Internal="vbs_dphijj" Type="F" Min="0.00000000e+00" Max="3.14158392e+00"/>
    <Variable VarIndex="1" Expression="vbs_ptj1" Label="vbs_ptj1" Title="vbs_ptj1" Unit="" Internal="vbs_ptj1" Type="F" Min="3.02277584e+01" Max="2.04429895e+03"/>
    <Variable VarIndex="2" Expression="vbs_ptj2" Label="vbs_ptj2" Title="vbs_ptj2" Unit="" Internal="vbs_ptj2" Type="F" Min="3.00000057e+01" Max="9.67266418e+02"/>
    <Variable VarIndex="3" Expression="vbs_etaj1" Label="vbs_etaj1" Title="vbs_etaj1" Unit="" Internal="vbs_etaj1" Type="F" Min="3.24100256e-06" Max="4.69921875e+00"/>
    <Variable VarIndex="4" Expression="vbs_zepvv" Label="vbs_zepvv" Title="vbs_zepvv" Unit="" Internal="vbs_zepvv" Type="F" Min="1.61755096e-07" Max="9.99947548e-01"/>
    <Variable VarIndex="5" Expression="vbs_zepmax" Label="vbs_zepmax" Title="vbs_zepmax" Unit="" Internal="vbs_zepmax" Type="F" Min="5.24204981e-04" Max="1.76402581e+00"/>
    <Variable VarIndex="6" Expression="vbs_ptvv" Label="vbs_ptvv" Title="vbs_ptvv" Unit="" Internal="vbs_ptvv" Type="F" Min="4.27633554e-01" Max="2.01188391e+03"/>
    <Variable VarIndex="7" Expression="vbs_detavvj1" Label="vbs_detavvj1" Title="vbs_detavvj1" Unit="" Internal="vbs_detavvj1" Type="F" Min="5.36181142e-05" Max="9.67299175e+00"/>
    <Variable VarIndex="8" Expression="vbs_detavvj2" Label="vbs_detavvj2" Title="vbs_detavvj2" Unit="" Internal="vbs_detavvj2" Type="F" Min="2.82763558e-05" Max="1.04885616e+01"/>
    <Variable VarIndex="9" Expression="mllDef" Label="mllDef" Title="mllDef" Unit="" Internal="mllDef" Type="F" Min="2.00018826e+01" Max="2.98117529e+03"/>
    <Variable VarIndex="10" Expression="drllDef" Label="drllDef" Title="drllDef" Unit="" Internal="drllDef" Type="F" Min="3.92272502e-01" Max="5.79928875e+00"/>
    <Variable VarIndex="11" Expression="dphillDef" Label="dphillDef" Title="dphillDef" Unit="" Internal="dphillDef" Type="F" Min="0.00000000e+00" Max="3.14158630e+00"/>
    <Variable VarIndex="12" Expression="ptl1Def" Label="ptl1Def" Title="ptl1Def" Unit="" Internal="ptl1Def" Type="F" Min="2.50000458e+01" Max="1.62287695e+03"/>
    <Variable VarIndex="13" Expression="ptl2Def" Label="ptl2Def" Title="ptl2Def" Unit="" Internal="ptl2Def" Type="F" Min="2.00000362e+01" Max="1.30911267e+03"/>
    <Variable VarIndex="14" Expression="dPhilMETMinDef" Label="dPhilMETMinDef" Title="dPhilMETMinDef" Unit="" Internal="dPhilMETMinDef" Type="F" Min="4.52995300e-06" Max="3.13480926e+00"/>
    <Variable VarIndex="15" Expression="mtwmaxDef" Label="mtwmaxDef" Title="mtwmaxDef" Unit="" Internal="mtwmaxDef" Type="F" Min="2.12147072e-01" Max="3.11410083e+03"/>
    <Variable VarIndex="16" Expression="mtwminDef" Label="mtwminDef" Title="mtwminDef" Unit="" Internal="mtwminDef" Type="F" Min="0.00000000e+00" Max="4.50455414e+02"/>
    <Variable VarIndex="17" Expression="PuppiMET_ptDef" Label="PuppiMET_ptDef" Title="PuppiMET_ptDef" Unit="" Internal="PuppiMET_ptDef" Type="F" Min="3.00002899e+01" Max="1.66211646e+03"/>
  </Variables>
  <Spectators NSpec="0"/>
  <Classes NClass="2">
    <Class Name="Signal" Index="0"/>
    <Class Name="Background" Index="1"/>
  </Classes>
  <Transformations NTransformations="0"/>
  <MVAPdfs/>
  <Weights NTrees="1000" AnalysisType="1">
    <BinaryTree type="DecisionTree" boostWeight="1.0000000000000000e+00" itree="0">
      <Node pos="s" depth="0" NCoef="0" IVar="12" Cut="8.0564254760742188e+01" cType="1" res="8.7728496873751283e-04" rms="4.9999922513961792e-01" purity="5.0087732076644897e-01" nType="0">
        <Node pos="l" depth="1" NCoef="0" IVar="6" Cut="1.5113325500488281e+02" cType="1" res="1.2573613226413727e-01" rms="4.8393225669860840e-01" purity="6.2573611736297607e-01" nType="0">
          <Node pos="l" depth="2" NCoef="0" IVar="5" Cut="1.9706693291664124e-01" cType="1" res="1.9439579546451569e-01" rms="4.6066287159919739e-01" purity="6.9439578056335449e-01" nType="0">
            <Node pos="l" depth="3" NCoef="0" IVar="-1" Cut="0.0000000000000000e+00" cType="1" res="1.1531423777341843e-02" rms="4.9666452407836914e-01" purity="5.5765712261199951e-01" nType="-99"/>
            <Node pos="r" depth="3" NCoef="0" IVar="-1" Cut="0.0000000000000000e+00" cType="1" res="4.8717733472585678e-02" rms="4.3665152788162231e-01" purity="7.4358868598937988e-01" nType="-99"/>
          </Node>
          <Node pos="r" depth="2" NCoef="0" IVar="5" Cut="2.8000906109809875e-01" cType="1" res="-7.9565897583961487e-02" rms="4.9362868070602417e-01" purity="4.2043408751487732e-01" nType="0">
            <Node pos="l" depth="3" NCoef="0" IVar="-1" Cut="0.0000000000000000e+00" cType="1" res="-3.3500410616397858e-02" rms="4.7110834717750549e-01" purity="3.3249795436859131e-01" nType="-99"/>
            <Node pos="r" depth="3" NCoef="0" IVar="-1" Cut="0.0000000000000000e+00" cType="1" res="-6.8672420457005501e-04" rms="4.9998819828033447e-01" purity="4.9656638503074646e-01" nType="-99"/>
          </Node>
        </Node>
        <Node pos="r" depth="1" NCoef="0" IVar="13" Cut="6.7113227844238281e+01" cType="1" res="-1.2915210425853729e-01" rms="4.8303180932998657e-01" purity="3.7084791064262390e-01" nType="0">
          <Node pos="l" depth="2" NCoef="0" IVar="15" Cut="1.8164782714843750e+02" cType="1" res="-7.2168678045272827e-02" rms="4.9476426839828491e-01" purity="4.2783129215240479e-01" nType="0">
            <Node pos="l" depth="3" NCoef="0" IVar="-1" Cut="0.0000000000000000e+00" cType="1" res="-4.1046370752155781e-03" rms="4.9957862496376038e-01" purity="4.7947680950164795e-01" nType="-99"/>
            <Node pos="r" depth="3" NCoef="0" IVar="-1" Cut="0.0000000000000000e+00" cType="1" res="-4.4369410723447800e-02" rms="4.4808915257453918e-01" purity="2.7815297245979309e-01" nType="-99"/>
          </Node>
          <Node pos="r" depth="2" NCoef="0" IVar="2" Cut="7.2589035034179688e+01" cType="1" res="-2.3805771768093109e-01" rms="4.3969139456748962e-01" purity="2.6194229722023010e-01" nType="0">
            <Node pos="l" depth="3" NCoef="0" IVar="-1" Cut="0.0000000000000000e+00" cType="1" res="-3.1900193542242050e-02" rms="4.7387704253196716e-01" purity="3.4049901366233826e-01" nType="-99"/>
            <Node pos="r" depth="3" NCoef="0" IVar="-1" Cut="0.0000000000000000e+00" cType="1" res="-5.5676355957984924e-02" rms="4.1533550620079041e-01" purity="2.2161822021007538e-01" nType="-99"/>
          </Node>
        </Node>
      </Node>
    </BinaryTree>
    <BinaryTree type="DecisionTree" boostWeight="1.0000000000000000e+00" itree="1">
      <Node pos="s" depth="0" NCoef="0" IVar="12" Cut="7.7286979675292969e+01" cType="1" res="-5.9696572134271264e-04" rms="4.9368989467620850e-01" purity="4.9940636754035950e-01" nType="0">
        <Node pos="l" depth="1" NCoef="0" IVar="6" Cut="1.3499900817871094e+02" cType="1" res="1.2056244909763336e-01" rms="4.7787538170814514e-01" purity="6.3331186771392822e-01" nType="0">
          <Node pos="l" depth="2" NCoef="0" IVar="5" Cut="2.0598931610584259e-01" cType="1" res="1.9384413957595825e-01" rms="4.5088300108909607e-01" purity="7.1337813138961792e-01" nType="0">
            <Node pos="l" depth="3" NCoef="0" IVar="-1" Cut="0.0000000000000000e+00" cType="1" res="1.6435364261269569e-02" rms="4.9180245399475098e-01" purity="5.8934390544891357e-01" nType="-99"/>
            <Node pos="r" depth="3" NCoef="0" IVar="-1" Cut="0.0000000000000000e+00" cType="1" res="4.7579597681760788e-02" rms="4.2605960369110107e-01" purity="7.6167380809783936e-01" nType="-99"/>
          </Node>
          <Node pos="r" depth="2" NCoef="0" IVar="17" Cut="1.7305468750000000e+02" cType="1" res="-4.3962139636278152e-02" rms="4.9550291895866394e-01" purity="4.5355516672134399e-01" nType="0">
            <Node pos="l" depth="3" NCoef="0" IVar="-1" Cut="0.0000000000000000e+00" cType="1" res="3.8869353011250496e-03" rms="4.9750214815139771e-01" purity="5.2010130882263184e-01" nType="-99"/>
            <Node pos="r" depth="3" NCoef="0" IVar="-1" Cut="0.0000000000000000e+00" cType="1" res="-2.9014579951763153e-02" rms="4.7512954473495483e-01" purity="3.4747618436813354e-01" nType="-99"/>
          </Node>
        </Node>
        <Node pos="r" depth="1" NCoef="0" IVar="13" Cut="6.7692169189453125e+01" cType="1" res="-1.1281502991914749e-01" rms="4.8142653703689575e-01" purity="3.7538293004035950e-01" nType="0">
          <Node pos="l" depth="2" NCoef="0" IVar="15" Cut="1.9145774841308594e+02" cType="1" res="-5.9942085295915604e-02" rms="4.9382212758064270e-01" purity="4.3381598591804504e-01" nType="0">
            <Node pos="l" depth="3" NCoef="0" IVar="-1" Cut="0.0000000000000000e+00" cType="1" res="-3.3881540875881910e-03" rms="4.9917504191398621e-01" purity="4.8106524348258972e-01" nType="-99"/>
            <Node pos="r" depth="3" NCoef="0" IVar="-1" Cut="0.0000000000000000e+00" cType="1" res="-4.3104715645313263e-02" rms="4.4037914276123047e-01" purity="2.6333931088447571e-01" nType="-99"/>
          </Node>
          <Node pos="r" depth="2" NCoef="0" IVar="8" Cut="3.0254640579223633e+00" cType="1" res="-2.2110797464847565e-01" rms="4.3538311123847961e-01" purity="2.5570181012153625e-01" nType="0">
            <Node pos="l" depth="3" NCoef="0" IVar="-1" Cut="0.0000000000000000e+00" cType="1" res="-5.2345164120197296e-02" rms="4.1028469800949097e-01" purity="2.1517497301101685e-01" nType="-99"/>
            <Node pos="r" depth="3" NCoef="0" IVar="-1" Cut="0.0000000000000000e+00" cType="1" res="-2.7693906798958778e-02" rms="4.7265693545341492e-01" purity="3.3979126811027527e-01" nType="-99"/>
          </Node>
        </Node>
      </Node>
    </BinaryTree>
    <BinaryTree type="DecisionTree" boostWeight="1.0000000000000000e+00" itree="2">
      <Node pos="s" depth="0" NCoef="0" IVar="12" Cut="9.1484527587890625e+01" cType="1" res="-7.0363219128921628e-04" rms="4.8853853344917297e-01" purity="4.9946793913841248e-01" nType="0">
        <Node pos="l" depth="1" NCoef="0" IVar="6" Cut="1.1471218109130859e+02" cType="1" res="8.7775632739067078e-02" rms="4.8094320297241211e-01" purity="6.0661101341247559e-01" nType="0">
          <Node pos="l" depth="2" NCoef="0" IVar="5" Cut="2.4425901472568512e-01" cType="1" res="1.6765223443508148e-01" rms="4.5411953330039978e-01" purity="7.0064604282379150e-01" nType="0">
            <Node pos="l" depth="3" NCoef="0" IVar="-1" Cut="0.0000000000000000e+00" cType="1" res="1.6490876674652100e-02" rms="4.8728796839714050e-01" purity="6.0146820545196533e-01" nType="-99"/>
            <Node pos="r" depth="3" NCoef="0" IVar="-1" Cut="0.0000000000000000e+00" cType="1" res="4.4534754008054733e-02" rms="4.2358076572418213e-01" purity="7.6236963272094727e-01" nType="-99"/>
          </Node>
          <Node pos="r" depth="2" NCoef="0" IVar="5" Cut="2.1277014911174774e-01" cType="1" res="-1.7641836777329445e-02" rms="4.9484845995903015e-01" purity="4.8250785470008850e-01" nType="0">
            <Node pos="l" depth="3" NCoef="0" IVar="-1" Cut="0.0000000000000000e+00" cType="1" res="-2.7261404320597649e-02" rms="4.7516706585884094e-01" purity="3.5378274321556091e-01" nType="-99"/>
            <Node pos="r" depth="3" NCoef="0" IVar="-1" Cut="0.0000000000000000e+00" cType="1" res="6.6667944192886353e-03" rms="4.9443548917770386e-01" purity="5.3782695531845093e-01" nType="-99"/>
          </Node>
        </Node>
        <Node pos="r" depth="1" NCoef="0" IVar="13" Cut="7.5791969299316406e+01" cType="1" res="-1.2640511989593506e-01" rms="4.7138977050781250e-01" purity="3.4725093841552734e-01" nType="0">
          <Node pos="l" depth="2" NCoef="0" IVar="15" Cut="1.9099807739257812e+02" cType="1" res="-8.3600267767906189e-02" rms="4.8633015155792236e-01" purity="3.9866963028907776e-01" nType="0">
            <Node pos="l" depth="3" NCoef="0" IVar="-1" Cut="0.0000000000000000e+00" cType="1" res="-8.1213079392910004e-03" rms="4.9666824936866760e-01" purity="4.5105642080307007e-01" nType="-99"/>
            <Node pos="r" depth="3" NCoef="0" IVar="-1" Cut="0.0000000000000000e+00" cType="1" res="-4.0988668799400330e-02" rms="4.3443846702575684e-01" purity="2.5286871194839478e-01" nType="-99"/>
          </Node>
          <Node pos="r" depth="2" NCoef="0" IVar="2" Cut="8.7328102111816406e+01" cType="1" res="-2.2275909781455994e-01" rms="4.2022716999053955e-01" purity="2.3150721192359924e-01" nType="0">
            <Node pos="l" depth="3" NCoef="0" IVar="-1" Cut="0.0000000000000000e+00" cType="1" res="-3.3176042139530182e-02" rms="4.5471262931823730e-01" purity="2.9505482316017151e-01" nType="-99"/>
            <Node pos="r" depth="3" NCoef="0" IVar="-1" Cut="0.0000000000000000e+00" cType="1" res="-5.5149499326944351e-02" rms="3.8089838624000549e-01" purity="1.7656785249710083e-01" nType="-99"/>
          </Node>
        </Node>
      </Node>
    </BinaryTree>
    <BinaryTree type="DecisionTree" boostWeight="1.0000000000000000e+00" itree="3">
      <Node pos="s" depth="0" NCoef="0" IVar="12" Cut="8.3458480834960938e+01" cType="1" res="1.8451178912073374e-03" rms="4.8403871059417725e-01" purity="5.0186210870742798e-01" nType="0">
        <Node pos="l" depth="1" NCoef="0" IVar="6" Cut="1.4478578186035156e+02" cType="1" res="9.3896776437759399e-02" rms="4.7399595379829407e-01" purity="6.2532538175582886e-01" nType="0">
          <Node pos="l" depth="2" NCoef="0" IVar="5" Cut="2.6502248644828796e-01" cType="1" res="1.4836172759532928e-01" rms="4.5495685935020447e-01" purity="6.9690853357315063e-01" nType="0">
            <Node pos="l" depth="3" NCoef="0" IVar="-1" Cut="0.0000000000000000e+00" cType="1" res="1.5831306576728821e-02" rms="4.8482018709182739e-01" purity="6.0946148633956909e-01" nType="-99"/>
            <Node pos="r" depth="3" NCoef="0" IVar="-1" Cut="0.0000000000000000e+00" cType="1" res="4.1197489947080612e-02" rms="4.2240959405899048e-01" purity="7.6496070623397827e-01" nType="-99"/>
          </Node>
          <Node pos="r" depth="2" NCoef="0" IVar="6" Cut="2.1308111572265625e+02" cType="1" res="-4.7313060611486435e-02" rms="4.9284487962722778e-01" purity="4.3973374366760254e-01" nType="0">
            <Node pos="l" depth="3" NCoef="0" IVar="-1" Cut="0.0000000000000000e+00" cType="1" res="2.6791626587510109e-03" rms="4.9710401892662048e-01" purity="5.0574135780334473e-01" nType="-99"/>
            <Node pos="r" depth="3" NCoef="0" IVar="-1" Cut="0.0000000000000000e+00" cType="1" res="-2.7381610125303268e-02" rms="4.7257333993911743e-01" purity="3.4270024299621582e-01" nType="-99"/>
          </Node>
        </Node>
        <Node pos="r" depth="1" NCoef="0" IVar="13" Cut="7.8442153930664062e+01" cType="1" res="-1.0153523832559586e-01" rms="4.7423100471496582e-01" purity="3.6320433020591736e-01" nType="0">
          <Node pos="l" depth="2" NCoef="0" IVar="17" Cut="1.3220516967773438e+02" cType="1" res="-6.5155871212482452e-02" rms="4.8749154806137085e-01" purity="4.1077065467834473e-01" nType="0">
            <Node pos="l" depth="3" NCoef="0" IVar="-1" Cut="0.0000000000000000e+00" cType="1" res="-4.5954464003443718e-03" rms="4.9492099881172180e-01" purity="4.5810544490814209e-01" nType="-99"/>
            <Node pos="r" depth="3" NCoef="0" IVar="-1" Cut="0.0000000000000000e+00" cType="1" res="-3.3961124718189240e-02" rms="4.5254656672477722e-01" purity="2.9514801502227783e-01" nType="-99"/>
          </Node>
          <Node pos="r" depth="2" NCoef="0" IVar="6" Cut="1.8399206542968750e+02" cType="1" res="-2.0420129597187042e-01" rms="4.1788721084594727e-01" purity="2.2896766662597656e-01" nType="0">
            <Node pos="l" depth="3" NCoef="0" IVar="-1" Cut="0.0000000000000000e+00" cType="1" res="-3.1468473374843597e-02" rms="4.4776546955108643e-01" purity="2.8183299303054810e-01" nType="-99"/>
            <Node pos="r" depth="3" NCoef="0" IVar="-1" Cut="0.0000000000000000e+00" cType="1" res="-5.1536973565816879e-02" rms="3.8039800524711609e-01" purity="1.7744520306587219e-01" nType="-99"/>
          </Node>
        </Node>
      </Node>
    </BinaryTree>
    <BinaryTree type="DecisionTree" boostWeight="1.0000000000000000e+00" itree="4">
      <Node pos="s" depth="0" NCoef="0" IVar="12" Cut="7.5784332275390625e+01" cType="1" res="3.0494373640976846e-04" rms="4.8055079579353333e-01" purity="5.0064831972122192e-01" nType="0">
        <Node pos="l" depth="1" NCoef="0" IVar="6" Cut="1.2317826080322266e+02" cType="1" res="9.1265164315700531e-02" rms="4.6907818317413330e-01" purity="6.3543057441711426e-01" nType="0">
          <Node pos="l" depth="2" NCoef="0" IVar="4" Cut="2.1249130368232727e-01" cType="1" res="1.5370351076126099e-01" rms="4.4362524151802063e-01" purity="7.2278249263763428e-01" nType="0">
            <Node pos="l" depth="3" NCoef="0" IVar="-1" Cut="0.0000000000000000e+00" cType="1" res="2.1547095850110054e-02" rms="4.6888554096221924e-01" purity="6.6377550363540649e-01" nType="-99"/>
            <Node pos="r" depth="3" NCoef="0" IVar="-1" Cut="0.0000000000000000e+00" cType="1" res="4.3434102088212967e-02" rms="4.0387088060379028e-01" purity="7.9362392425537109e-01" nType="-99"/>
          </Node>
          <Node pos="r" depth="2" NCoef="0" IVar="5" Cut="3.2946649193763733e-01" cType="1" res="-2.2217873483896255e-02" rms="4.9223271012306213e-01" purity="4.7666665911674500e-01" nType="0">
            <Node pos="l" depth="3" NCoef="0" IVar="-1" Cut="0.0000000000000000e+00" cType="1" res="-1.6259003430604935e-02" rms="4.8598593473434448e-01" purity="4.0840232372283936e-01" nType="-99"/>
            <Node pos="r" depth="3" NCoef="0" IVar="-1" Cut="0.0000000000000000e+00" cType="1" res="1.1888424865901470e-02" rms="4.8926487565040588e-01" purity="5.7138270139694214e-01" nType="-99"/>
          </Node>
        </Node>
        <Node pos="r" depth="1" NCoef="0" IVar="15" Cut="1.6833087158203125e+02" cType="1" res="-8.0258831381797791e-02" rms="4.7619318962097168e-01" purity="3.8127127289772034e-01" nType="0">
          <Node pos="l" depth="2" NCoef="0" IVar="13" Cut="5.7299480438232422e+01" cType="1" res="-3.5721372812986374e-02" rms="4.8950955271720886e-01" purity="4.4268965721130371e-01" nType="0">
            <Node pos="l" depth="3" NCoef="0" IVar="-1" Cut="0.0000000000000000e+00" cType="1" res="2.7805557474493980e-03" rms="4.9760347604751587e-01" purity="5.0853270292282104e-01" nType="-99"/>
            <Node pos="r" depth="3" NCoef="0" IVar="-1" Cut="0.0000000000000000e+00" cType="1" res="-2.5501089170575142e-02" rms="4.6121665835380554e-01" purity="3.2376593351364136e-01" nType="-99"/>
          </Node>
          <Node pos="r" depth="2" NCoef="0" IVar="2" Cut="6.7915512084960938e+01" cType="1" res="-1.5788692235946655e-01" rms="4.4143214821815491e-01" purity="2.7422004938125610e-01" nType="0">
            <Node pos="l" depth="3" NCoef="0" IVar="-1" Cut="0.0000000000000000e+00" cType="1" res="-1.5969565138220787e-02" rms="4.7907647490501404e-01" purity="3.6106950044631958e-01" nType="-99"/>
            <Node pos="r" depth="3" NCoef="0" IVar="-1" Cut="0.0000000000000000e+00" cType="1" res="-3.9251301437616348e-02" rms="4.1995066404342651e-01" purity="2.3739063739776611e-01" nType="-99"/>
          </Node>
        </Node>
      </Node>
    </BinaryTree>
    <BinaryTree type="DecisionTree" boostWeight="1.0000000000000000e+00" itree="5">
      <Node pos="s" depth="0" NCoef="0" IVar="12" Cut="9.4571601867675781e+01" cType="1" res="1.3413882115855813e-03" rms="4.7733438014984131e-01" purity="5.0158804655075073e-01" nType="0">
        <Node pos="l" depth="1" NCoef="0" IVar="6" Cut="1.8802432250976562e+02" cType="1" res="6.5641902387142181e-02" rms="4.7370508313179016e-01" purity="6.0492479801177979e-01" nType="0">
          <Node pos="l" depth="2" NCoef="0" IVar="5" Cut="2.6786419749259949e-01" cType="1" res="9.8244264721870422e-02" rms="4.6589952707290649e-01" purity="6.5230536460876465e-01" nType="0">
            <Node pos="l" depth="3" NCoef="0" IVar="-1" Cut="0.0000000000000000e+00" cType="1" res="6.6435742191970348e-03" rms="4.8858112096786499e-01" purity="5.6283509731292725e-01" nType="-99"/>
            <Node pos="r" depth="3" NCoef="0" IVar="-1" Cut="0.0000000000000000e+00" cType="1" res="3.1009441241621971e-02" rms="4.4011729955673218e-01" purity="7.2356432676315308e-01" nType="-99"/>
          </Node>
          <Node pos="r" depth="2" NCoef="0" IVar="-1" Cut="0.0000000000000000e+00" cType="1" res="-1.9326442852616310e-02" rms="4.7893002629280090e-01" purity="3.7015530467033386e-01" nType="-99"/>
        </Node>
        <Node pos="r" depth="1" NCoef="0" IVar="8" Cut="3.4669840335845947e+00" cType="1" res="-9.6985705196857452e-02" rms="4.6597799658775330e-01" purity="3.4356743097305298e-01" nType="0">
          <Node pos="l" depth="2" NCoef="0" IVar="13" Cut="5.7653217315673828e+01" cType="1" res="-1.2643608450889587e-01" rms="4.5495888590812683e-01" purity="3.1321588158607483e-01" nType="0">
            <Node pos="l" depth="3" NCoef="0" IVar="-1" Cut="0.0000000000000000e+00" cType="1" res="-1.5187758021056652e-02" rms="4.8268631100654602e-01" purity="3.9086750149726868e-01" nType="-99"/>
            <Node pos="r" depth="3" NCoef="0" IVar="-1" Cut="0.0000000000000000e+00" cType="1" res="-3.7871863692998886e-02" rms="4.1527831554412842e-01" purity="2.2807471454143524e-01" nType="-99"/>
          </Node>
          <Node pos="r" depth="2" NCoef="0" IVar="-1" Cut="0.0000000000000000e+00" cType="1" res="1.1049823369830847e-03" rms="4.8879417777061462e-01" purity="4.4911172986030579e-01" nType="-99"/>
        </Node>
      </Node>
    </BinaryTree>
    <BinaryTree type="DecisionTree" boostWeight="1.0000000000000000e+00" itree="6">
      <Node pos="s" depth="0" NCoef="0" IVar="6" Cut="1.5953581237792969e+02" cType="1" res="3.3918346161954105e-04" rms="4.7439453005790710e-01" purity="5.0036627054214478e-01" nType="0">
        <Node pos="l" depth="1" NCoef="0" IVar="15" Cut="1.3841038513183594e+02" cType="1" res="5.9675969183444977e-02" rms="4.6940401196479797e-01" purity="5.9459340572357178e-01" nType="0">
          <Node pos="l" depth="2" NCoef="0" IVar="13" Cut="5.4800636291503906e+01" cType="1" res="1.0640249401330948e-01" rms="4.5786333084106445e-01" purity="6.6750574111938477e-01" nType="0">
            <Node pos="l" depth="3" NCoef="0" IVar="-1" Cut="0.0000000000000000e+00" cType="1" res="2.6301894336938858e-02" rms="4.5006427168846130e-01" purity="6.9885313510894775e-01" nType="-99"/>
            <Node pos="r" depth="3" NCoef="0" IVar="-1" Cut="0.0000000000000000e+00" cType="1" res="-7.9860258847475052e-03" rms="4.8367285728454590e-01" purity="4.5267122983932495e-01" nType="-99"/>
          </Node>
          <Node pos="r" depth="2" NCoef="0" IVar="14" Cut="1.5526216030120850e+00" cType="1" res="-5.0860024988651276e-02" rms="4.7777804732322693e-01" purity="4.2211240530014038e-01" nType="0">
            <Node pos="l" depth="3" NCoef="0" IVar="-1" Cut="0.0000000000000000e+00" cType="1" res="-1.7794659361243248e-02" rms="4.7292876243591309e-01" purity="3.7215948104858398e-01" nType="-99"/>
            <Node pos="r" depth="3" NCoef="0" IVar="-1" Cut="0.0000000000000000e+00" cType="1" res="8.8199544697999954e-03" rms="4.7778826951980591e-01" purity="5.5394059419631958e-01" nType="-99"/>
          </Node>
        </Node>
        <Node pos="r" depth="1" NCoef="0" IVar="8" Cut="3.2485015392303467e+00" cType="1" res="-9.3840859830379486e-02" rms="4.6697726845741272e-01" purity="3.5080787539482117e-01" nType="0">
          <Node pos="l" depth="2" NCoef="0" IVar="13" Cut="6.1280757904052734e+01" cType="1" res="-1.2458977848291397e-01" rms="4.5562207698822021e-01" purity="3.1679269671440125e-01" nType="0">
            <Node pos="l" depth="3" NCoef="0" IVar="-1" Cut="0.0000000000000000e+00" cType="1" res="-1.8746860325336456e-02" rms="4.7795885801315308e-01" purity="3.7165823578834534e-01" nType="-99"/>
            <Node pos="r" depth="3" NCoef="0" IVar="-1" Cut="0.0000000000000000e+00" cType="1" res="-4.0765445679426193e-02" rms="3.9448717236518860e-01" purity="1.9815772771835327e-01" nType="-99"/>
          </Node>
          <Node pos="r" depth="2" NCoef="0" IVar="-1" Cut="0.0000000000000000e+00" cType="1" res="5.9882568893954158e-04" rms="4.8856955766677856e-01" purity="4.5788061618804932e-01" nType="-99"/>
        </Node>
      </Node>
    </BinaryTree>
    <BinaryTree type="DecisionTree" boostWeight="1.0000000000000000e+00" itree="7">
      <Node pos="s" depth="0" NCoef="0" IVar="12" Cut="6.8289016723632812e+01" cType="1" res="-5.1037426601396874e-05" rms="4.7242504358291626e-01" purity="5.0017780065536499e-01" nType="0">
        <Node pos="l" depth="1" NCoef="0" IVar="6" Cut="9.2813713073730469e+01" cType="1" res="8.2448355853557587e-02" rms="4.5881879329681396e-01" purity="6.5138816833496094e-01" nType="0">
          <Node pos="l" depth="2" NCoef="0" IVar="5" Cut="3.0113759636878967e-01" cType="1" res="1.5851587057113647e-01" rms="4.1842898726463318e-01" purity="7.6540821790695190e-01" nType="0">
            <Node pos="l" depth="3" NCoef="0" IVar="-1" Cut="0.0000000000000000e+00" cType="1" res="2.3616425693035126e-02" rms="4.5626002550125122e-01" purity="6.9821524620056152e-01" nType="-99"/>
            <Node pos="r" depth="3" NCoef="0" IVar="-1" Cut="0.0000000000000000e+00" cType="1" res="4.5167431235313416e-02" rms="3.6313593387603760e-01" purity="8.4325456619262695e-01" nType="-99"/>
          </Node>
          <Node pos="r" depth="2" NCoef="0" IVar="5" Cut="2.5184863805770874e-01" cType="1" res="8.1343874335289001e-03" rms="4.8368826508522034e-01" purity="5.3999662399291992e-01" nType="0">
            <Node pos="l" depth="3" NCoef="0" IVar="-1" Cut="0.0000000000000000e+00" cType="1" res="-1.3012801297008991e-02" rms="4.8637107014656067e-01" purity="4.3527424335479736e-01" nType="-99"/>
            <Node pos="r" depth="3" NCoef="0" IVar="-1" Cut="0.0000000000000000e+00" cType="1" res="1.1148991994559765e-02" rms="4.7629141807556152e-01" purity="6.0657608509063721e-01" nType="-99"/>
          </Node>
        </Node>
        <Node pos="r" depth="1" NCoef="0" IVar="15" Cut="1.8247689819335938e+02" cType="1" res="-5.5489912629127502e-02" rms="4.7334226965904236e-01" purity="3.9856564998626709e-01" nType="0">
          <Node pos="l" depth="2" NCoef="0" IVar="5" Cut="2.2877711057662964e-01" cType="1" res="-2.4206623435020447e-02" rms="4.8473730683326721e-01" purity="4.5311266183853149e-01" nType="0">
            <Node pos="l" depth="3" NCoef="0" IVar="-1" Cut="0.0000000000000000e+00" cType="1" res="-1.9964177161455154e-02" rms="4.7323790192604065e-01" purity="3.6728876829147339e-01" nType="-99"/>
            <Node pos="r" depth="3" NCoef="0" IVar="-1" Cut="0.0000000000000000e+00" cType="1" res="3.3231189008802176e-03" rms="4.8618119955062866e-01" purity="5.0012063980102539e-01" nType="-99"/>
          </Node>
          <Node pos="r" depth="2" NCoef="0" IVar="2" Cut="7.1348991394042969e+01" cType="1" res="-1.3488835096359253e-01" rms="4.3307760357856750e-01" purity="2.6012286543846130e-01" nType="0">
            <Node pos="l" depth="3" NCoef="0" IVar="-1" Cut="0.0000000000000000e+00" cType="1" res="-1.4291455037891865e-02" rms="4.7101050615310669e-01" purity="3.4145304560661316e-01" nType="-99"/>
            <Node pos="r" depth="3" NCoef="0" IVar="-1" Cut="0.0000000000000000e+00" cType="1" res="-3.5396151244640350e-02" rms="4.0956562757492065e-01" purity="2.2059909999370575e-01" nType="-99"/>
          </Node>
        </Node>
      </Node>
    </BinaryTree>
    <BinaryTree type="DecisionTree" boostWeight="1.0000000000000000e+00" itree="8">
      <Node pos="s" depth="0" NCoef="0" IVar="6" Cut="2.0561494445800781e+02" cType="1" res="6.9694055127911270e-05" rms="4.6998828649520874e-01" purity="5.0048357248306274e-01" nType="0">
        <Node pos="l" depth="1" NCoef="0" IVar="15" Cut="1.3867390441894531e+02" cType="1" res="3.5448543727397919e-02" rms="4.6993798017501831e-01" purity="5.6272292137145996e-01" nType="0">
          <Node pos="l" depth="2" NCoef="0" IVar="5" Cut="2.1204602718353271e-01" cType="1" res="7.5826056301593781e-02" rms="4.6348172426223755e-01" purity="6.3648462295532227e-01" nType="0">
            <Node pos="l" depth="3" NCoef="0" IVar="-1" Cut="0.0000000000000000e+00" cType="1" res="-1.3014526339247823e-03" rms="4.8911771178245544e-01" purity="5.1161235570907593e-01" nType="-99"/>
            <Node pos="r" depth="3" NCoef="0" IVar="-1" Cut="0.0000000000000000e+00" cType="1" res="2.3511825129389763e-02" rms="4.4699877500534058e-01" purity="6.9135004281997681e-01" nType="-99"/>
          </Node>
          <Node pos="r" depth="2" NCoef="0" IVar="11" Cut="1.5691705942153931e+00" cType="1" res="-5.3729776293039322e-02" rms="4.7180300951004028e-01" purity="3.9981168508529663e-01" nType="0">
            <Node pos="l" depth="3" NCoef="0" IVar="-1" Cut="0.0000000000000000e+00" cType="1" res="1.1507090181112289e-02" rms="4.7535431385040283e-01" purity="5.5880224704742432e-01" nType="-99"/>
            <Node pos="r" depth="3" NCoef="0" IVar="-1" Cut="0.0000000000000000e+00" cType="1" res="-1.7471760511398315e-02" rms="4.6629950404167175e-01" purity="3.5593101382255554e-01" nType="-99"/>
          </Node>
        </Node>
        <Node pos="r" depth="1" NCoef="0" IVar="8" Cut="2.7869660854339600e+00" cType="1" res="-1.0614559054374695e-01" rms="4.5386290550231934e-01" purity="3.1362718343734741e-01" nType="0">
          <Node pos="l" depth="2" NCoef="0" IVar="5" Cut="2.8216251730918884e-01" cType="1" res="-1.4445103704929352e-01" rms="4.3407535552978516e-01" purity="2.6825821399688721e-01" nType="0">
            <Node pos="l" depth="3" NCoef="0" IVar="-1" Cut="0.0000000000000000e+00" cType="1" res="-3.8800776004791260e-02" rms="4.0540811419487000e-01" purity="2.1794146299362183e-01" nType="-99"/>
            <Node pos="r" depth="3" NCoef="0" IVar="-1" Cut="0.0000000000000000e+00" cType="1" res="-2.1267561241984367e-02" rms="4.5822852849960327e-01" purity="3.2052603363990784e-01" nType="-99"/>
          </Node>
          <Node pos="r" depth="2" NCoef="0" IVar="-1" Cut="0.0000000000000000e+00" cType="1" res="-8.4309708327054977e-03" rms="4.7867798805236816e-01" purity="3.9078232645988464e-01" nType="-99"/>
        </Node>
      </Node>
    </BinaryTree>
    <BinaryTree type="DecisionTree" boostWeight="1.0000000000000000e+00" itree="9">
      <Node pos="s" depth="0" NCoef="0" IVar="15" Cut="1.4565390014648438e+02" cType="1" res="-9.0346415527164936e-04" rms="4.6789550781250000e-01" purity="4.9923989176750183e-01" nType="0">
        <Node pos="l" depth="1" NCoef="0" IVar="6" Cut="1.6508454895019531e+02" cType="1" res="3.9380375295877457e-02" rms="4.6859383583068848e-01" purity="5.7834529876708984e-01" nType="0">
          <Node pos="l" depth="2" NCoef="0" IVar="5" Cut="1.8670007586479187e-01" cType="1" res="7.8772902488708496e-02" rms="4.5784670114517212e-01" purity="6.5776079893112183e-01" nType="0">
            <Node pos="l" depth="3" NCoef="0" IVar="-1" Cut="0.0000000000000000e+00" cType="1" res="-1.2107453076168895e-03" rms="4.9134558439254761e-01" purity="5.1727318763732910e-01" nType="-99"/>
            <Node pos="r" depth="3" NCoef="0" IVar="-1" Cut="0.0000000000000000e+00" cType="1" res="2.2540001198649406e-02" rms="4.4302582740783691e-01" purity="7.0317703485488892e-01" nType="-99"/>
          </Node>
          <Node pos="r" depth="2" NCoef="0" IVar="8" Cut="2.8973724842071533e+00" cType="1" res="-4.9214784055948257e-02" rms="4.8024350404739380e-01" purity="3.9973706007003784e-01" nType="0">
            <Node pos="l" depth="3" NCoef="0" IVar="-1" Cut="0.0000000000000000e+00" cType="1" res="-1.8633926287293434e-02" rms="4.6858030557632446e-01" purity="3.4948602318763733e-01" nType="-99"/>
            <Node pos="r" depth="3" NCoef="0" IVar="-1" Cut="0.0000000000000000e+00" cType="1" res="6.2406375072896481e-03" rms="4.9208205938339233e-01" purity="4.9625730514526367e-01" nType="-99"/>
          </Node>
        </Node>
        <Node pos="r" depth="1" NCoef="0" IVar="8" Cut="3.7567396163940430e+00" cType="1" res="-8.6307913064956665e-02" rms="4.5475858449935913e-01" purity="3.3153113722801208e-01" nType="0">
          <Node pos="l" depth="2" NCoef="0" IVar="5" Cut="3.8165983557701111e-01" cType="1" res="-1.0678331553936005e-01" rms="4.4572523236274719e-01" purity="3.0567669868469238e-01" nType="0">
            <Node pos="l" depth="3" NCoef="0" IVar="-1" Cut="0.0000000000000000e+00" cType="1" res="-2.6871653273701668e-02" rms="4.3723404407501221e-01" purity="2.8049516677856445e-01" nType="-99"/>
            <Node pos="r" depth="3" NCoef="0" IVar="-1" Cut="0.0000000000000000e+00" cType="1" res="-8.6274584755301476e-03" rms="4.6629548072814941e-01" purity="3.8769236207008362e-01" nType="-99"/>
          </Node>
          <Node pos="r" depth="2" NCoef="0" IVar="-1" Cut="0.0000000000000000e+00" cType="1" res="1.9202954135835171e-03" rms="4.8341077566146851e-01" purity="4.5223158597946167e-01" nType="-99"/>
        </Node>
      </Node>
    </BinaryTree>
    <BinaryTree type="DecisionTree" boostWeight="1.0000000000000000e+00" itree="10">
      <Node pos="s" depth="0" NCoef="0" IVar="12" Cut="6.8289741516113281e+01" cType="1" res="-1.0135192424058914e-03" rms="4.6643644571304321e-01" purity="4.9937313795089722e-01" nType="0">
        <Node pos="l" depth="1" NCoef="0" IVar="6" Cut="1.0750491333007812e+02" cType="1" res="6.3640840351581573e-02" rms="4.5466753840446472e-01" purity="6.4916914701461792e-01" nType="0">
          <Node pos="l" depth="2" NCoef="0" IVar="14" Cut="1.7162309885025024e+00" cType="1" res="1.1740507185459137e-01" rms="4.2507180571556091e-01" purity="7.5089073181152344e-01" nType="0">
            <Node pos="l" depth="3" NCoef="0" IVar="-1" Cut="0.0000000000000000e+00" cType="1" res="1.7914943397045135e-02" rms="4.4449305534362793e-01" purity="7.1351259946823120e-01" nType="-99"/>
            <Node pos="r" depth="3" NCoef="0" IVar="-1" Cut="0.0000000000000000e+00" cType="1" res="3.8073807954788208e-02" rms="3.8437929749488831e-01" purity="8.1220120191574097e-01" nType="-99"/>
          </Node>
          <Node pos="r" depth="2" NCoef="0" IVar="5" Cut="3.2946789264678955e-01" cType="1" res="-1.0041124187409878e-02" rms="4.8271545767784119e-01" purity="5.0976318120956421e-01" nType="0">
            <Node pos="l" depth="3" NCoef="0" IVar="-1" Cut="0.0000000000000000e+00" cType="1" res="-1.0991478338837624e-02" rms="4.8323276638984680e-01" purity="4.4139006733894348e-01" nType="-99"/>
            <Node pos="r" depth="3" NCoef="0" IVar="-1" Cut="0.0000000000000000e+00" cType="1" res="1.0494177229702473e-02" rms="4.7536340355873108e-01" purity="6.0493767261505127e-01" nType="-99"/>
          </Node>
        </Node>
        <Node pos="r" depth="1" NCoef="0" IVar="8" Cut="3.5931839942932129e+00" cType="1" res="-4.4573348015546799e-02" rms="4.6920430660247803e-01" purity="3.9845055341720581e-01" nType="0">
          <Node pos="l" depth="2" NCoef="0" IVar="13" Cut="6.2991577148437500e+01" cType="1" res="-6.8104274570941925e-02" rms="4.6296894550323486e-01" purity="3.6678984761238098e-01" nType="0">
            <Node pos="l" depth="3" NCoef="0" IVar="-1" Cut="0.0000000000000000e+00" cType="1" res="-8.4275053814053535e-03" rms="4.7983321547508240e-01" purity="4.2702698707580566e-01" nType="-99"/>
            <Node pos="r" depth="3" NCoef="0" IVar="-1" Cut="0.0000000000000000e+00" cType="1" res="-2.6552096009254456e-02" rms="4.2251116037368774e-01" purity="2.4746173620223999e-01" nType="-99"/>
          </Node>
          <Node pos="r" depth="2" NCoef="0" IVar="9" Cut="1.6942944335937500e+02" cType="1" res="4.4947549700737000e-02" rms="4.8181420564651489e-01" purity="5.1890027523040771e-01" nType="0">
            <Node pos="l" depth="3" NCoef="0" IVar="-1" Cut="0.0000000000000000e+00" cType="1" res="2.2915039211511612e-02" rms="4.7281971573829651e-01" purity="6.1877512931823730e-01" nType="-99"/>
            <Node pos="r" depth="3" NCoef="0" IVar="-1" Cut="0.0000000000000000e+00" cType="1" res="-3.5814389120787382e-03" rms="4.8168253898620605e-01" purity="4.2645612359046936e-01" nType="-99"/>
          </Node>
        </Node>
      </Node>
    </BinaryTree>
    <BinaryTree type="DecisionTree" boostWeight="1.0000000000000000e+00" itree="11">
      <Node pos="s" depth="0" NCoef="0" IVar="6" Cut="1.7535830688476562e+02" cType="1" res="-2.5773893576115370e-03" rms="4.6549862623214722e-01" purity="4.9753427505493164e-01" nType="0">
        <Node pos="l" depth="1" NCoef="0" IVar="15" Cut="1.3601585388183594e+02" cType="1" res="3.1187603250145912e-02" rms="4.6498256921768188e-01" purity="5.7739651203155518e-01" nType="0">
          <Node pos="l" depth="2" NCoef="0" IVar="5" Cut="2.7390608191490173e-01" cType="1" res="6.1767928302288055e-02" rms="4.5847088098526001e-01" purity="6.5249186754226685e-01" nType="0">
            <Node pos="l" depth="3" NCoef="0" IVar="-1" Cut="0.0000000000000000e+00" cType="1" res="2.6534539647400379e-03" rms="4.8261466622352600e-01" purity="5.6469470262527466e-01" nType="-99"/>
            <Node pos="r" depth="3" NCoef="0" IVar="-1" Cut="0.0000000000000000e+00" cType="1" res="2.2749351337552071e-02" rms="4.3200552463531494e-01" purity="7.2860109806060791e-01" nType="-99"/>
          </Node>
          <Node pos="r" depth="2" NCoef="0" IVar="11" Cut="1.6822179555892944e+00" cType="1" res="-3.4340258687734604e-02" rms="4.7201299667358398e-01" purity="4.1648131608963013e-01" nType="0">
            <Node pos="l" depth="3" NCoef="0" IVar="-1" Cut="0.0000000000000000e+00" cType="1" res="9.7844041883945465e-03" rms="4.7355103492736816e-01" purity="5.6282579898834229e-01" nType="-99"/>
            <Node pos="r" depth="3" NCoef="0" IVar="-1" Cut="0.0000000000000000e+00" cType="1" res="-1.3095313683152199e-02" rms="4.6826905012130737e-01" purity="3.6671635508537292e-01" nType="-99"/>
          </Node>
        </Node>
        <Node pos="r" depth="1" NCoef="0" IVar="8" Cut="3.5282697677612305e+00" cType="1" res="-7.0116773247718811e-02" rms="4.5913770794868469e-01" purity="3.3778759837150574e-01" nType="0">
          <Node pos="l" depth="2" NCoef="0" IVar="13" Cut="5.8074237823486328e+01" cType="1" res="-8.7833039462566376e-02" rms="4.5132833719253540e-01" purity="3.1161057949066162e-01" nType="0">
            <Node pos="l" depth="3" NCoef="0" IVar="-1" Cut="0.0000000000000000e+00" cType="1" res="-1.2633119709789753e-02" rms="4.7581639885902405e-01" purity="3.7013828754425049e-01" nType="-99"/>
            <Node pos="r" depth="3" NCoef="0" IVar="-1" Cut="0.0000000000000000e+00" cType="1" res="-3.0135037377476692e-02" rms="4.0020143985748291e-01" purity="2.0812895894050598e-01" nType="-99"/>
          </Node>
          <Node pos="r" depth="2" NCoef="0" IVar="-1" Cut="0.0000000000000000e+00" cType="1" res="4.4915084727108479e-03" rms="4.8750922083854675e-01" purity="4.7393772006034851e-01" nType="-99"/>
        </Node>
      </Node>
    </BinaryTree>
    <BinaryTree type="DecisionTree" boostWeight="1.0000000000000000e+00" itree="12">
      <Node pos="s" depth="0" NCoef="0" IVar="6" Cut="2.0547334289550781e+02" cType="1" res="1.4953258214518428e-03" rms="4.6436583995819092e-01" purity="5.0169998407363892e-01" nType="0">
        <Node pos="l" depth="1" NCoef="0" IVar="15" Cut="1.3138630676269531e+02" cType="1" res="2.7558669447898865e-02" rms="4.6572208404541016e-01" purity="5.6388890743255615e-01" nType="0">
          <Node pos="l" depth="2" NCoef="0" IVar="8" Cut="3.5625858306884766e+00" cType="1" res="5.9361424297094345e-02" rms="4.5916017889976501e-01" purity="6.4460146427154541e-01" nType="0">
            <Node pos="l" depth="3" NCoef="0" IVar="-1" Cut="0.0000000000000000e+00" cType="1" res="7.4464092031121254e-03" rms="4.6758553385734558e-01" purity="6.1210459470748901e-01" nType="-99"/>
            <Node pos="r" depth="3" NCoef="0" IVar="-1" Cut="0.0000000000000000e+00" cType="1" res="2.8963524848222733e-02" rms="4.2344018816947937e-01" purity="7.4492132663726807e-01" nType="-99"/>
          </Node>
          <Node pos="r" depth="2" NCoef="0" IVar="14" Cut="1.7520867586135864e+00" cType="1" res="-2.8802506625652313e-02" rms="4.7189357876777649e-01" purity="4.2084941267967224e-01" nType="0">
            <Node pos="l" depth="3" NCoef="0" IVar="-1" Cut="0.0000000000000000e+00" cType="1" res="-1.0742628946900368e-02" rms="4.7067534923553467e-01" purity="3.7989765405654907e-01" nType="-99"/>
            <Node pos="r" depth="3" NCoef="0" IVar="-1" Cut="0.0000000000000000e+00" cType="1" res="1.4119879342615604e-02" rms="4.6511742472648621e-01" purity="5.9936475753784180e-01" nType="-99"/>
          </Node>
        </Node>
        <Node pos="r" depth="1" NCoef="0" IVar="5" Cut="3.2648968696594238e-01" cType="1" res="-7.7479623258113861e-02" rms="4.5112958550453186e-01" purity="3.1326040625572205e-01" nType="0">
          <Node pos="l" depth="2" NCoef="0" IVar="2" Cut="1.1306249237060547e+02" cType="1" res="-1.0918146371841431e-01" rms="4.3199914693832397e-01" purity="2.6787811517715454e-01" nType="0">
            <Node pos="l" depth="3" NCoef="0" IVar="-1" Cut="0.0000000000000000e+00" cType="1" res="-1.6534553840756416e-02" rms="4.5076125860214233e-01" purity="3.0852609872817993e-01" nType="-99"/>
            <Node pos="r" depth="3" NCoef="0" IVar="-1" Cut="0.0000000000000000e+00" cType="1" res="-3.2461505383253098e-02" rms="4.0430811047554016e-01" purity="2.1789301931858063e-01" nType="-99"/>
          </Node>
          <Node pos="r" depth="2" NCoef="0" IVar="-1" Cut="0.0000000000000000e+00" cType="1" res="-7.2311884723603725e-03" rms="4.7249615192413330e-01" purity="3.7492394447326660e-01" nType="-99"/>
        </Node>
      </Node>
    </BinaryTree>
    <BinaryTree type="DecisionTree" boostWeight="1.0000000000000000e+00" itree="13">
      <Node pos="s" depth="0" NCoef="0" IVar="12" Cut="1.0322275543212891e+02" cType="1" res="-2.9099455568939447e-03" rms="4.6231311559677124e-01" purity="4.9680909514427185e-01" nType="0">
        <Node pos="l" depth="1" NCoef="0" IVar="0" Cut="2.2409901618957520e+00" cType="1" res="2.9983624815940857e-02" rms="4.6398609876632690e-01" purity="5.8922696113586426e-01" nType="0">
          <Node pos="l" depth="2" NCoef="0" IVar="8" Cut="3.3792839050292969e+00" cType="1" res="-4.0316205471754074e-02" rms="4.7959551215171814e-01" purity="4.6033027768135071e-01" nType="0">
            <Node pos="l" depth="3" NCoef="0" IVar="-1" Cut="0.0000000000000000e+00" cType="1" res="-1.4489487744867802e-02" rms="4.7701668739318848e-01" purity="4.1438171267509460e-01" nType="-99"/>
            <Node pos="r" depth="3" NCoef="0" IVar="-1" Cut="0.0000000000000000e+00" cType="1" res="7.6963747851550579e-03" rms="4.7783878445625305e-01" purity="5.8185523748397827e-01" nType="-99"/>
          </Node>
          <Node pos="r" depth="2" NCoef="0" IVar="5" Cut="1.5148806571960449e-01" cType="1" res="5.9982601553201675e-02" rms="4.5386019349098206e-01" purity="6.4423090219497681e-01" nType="0">
            <Node pos="l" depth="3" NCoef="0" IVar="-1" Cut="0.0000000000000000e+00" cType="1" res="-9.9920015782117844e-03" rms="4.8299887776374817e-01" purity="4.6949175000190735e-01" nType="-99"/>
            <Node pos="r" depth="3" NCoef="0" IVar="-1" Cut="0.0000000000000000e+00" cType="1" res="1.7302725464105606e-02" rms="4.4548159837722778e-01" purity="6.7612373828887939e-01" nType="-99"/>
          </Node>
        </Node>
        <Node pos="r" depth="1" NCoef="0" IVar="2" Cut="5.2477771759033203e+01" cType="1" res="-6.4191699028015137e-02" rms="4.5285215973854065e-01" purity="3.2463169097900391e-01" nType="0">
          <Node pos="l" depth="2" NCoef="0" IVar="-1" Cut="0.0000000000000000e+00" cType="1" res="4.8777558840811253e-03" rms="4.8657554388046265e-01" purity="4.3200618028640747e-01" nType="-99"/>
          <Node pos="r" depth="2" NCoef="0" IVar="13" Cut="8.1821876525878906e+01" cType="1" res="-7.9508639872074127e-02" rms="4.4491413235664368e-01" purity="3.0580922961235046e-01" nType="0">
            <Node pos="l" depth="3" NCoef="0" IVar="-1" Cut="0.0000000000000000e+00" cType="1" res="-1.1127276346087456e-02" rms="4.6727430820465088e-01" purity="3.5879004001617432e-01" nType="-99"/>
            <Node pos="r" depth="3" NCoef="0" IVar="-1" Cut="0.0000000000000000e+00" cType="1" res="-3.2991275191307068e-02" rms="3.7901660799980164e-01" purity="1.7955639958381653e-01" nType="-99"/>
          </Node>
        </Node>
      </Node>
    </BinaryTree>
    <BinaryTree type="DecisionTree" boostWeight="1.0000000000000000e+00" itree="14">
      <Node pos="s" depth="0" NCoef="0" IVar="14" Cut="1.7206478118896484e+00" cType="1" res="-1.9390348461456597e-04" rms="4.6198523044586182e-01" purity="4.9979436397552490e-01" nType="0">
        <Node pos="l" depth="1" NCoef="0" IVar="5" Cut="3.3230102062225342e-01" cType="1" res="-1.7626348882913589e-02" rms="4.6567857265472412e-01" purity="4.6408173441886902e-01" nType="0">
          <Node pos="l" depth="2" NCoef="0" IVar="8" Cut="2.8345608711242676e+00" cType="1" res="-4.7015752643346786e-02" rms="4.6508657932281494e-01" purity="4.1430425643920898e-01" nType="0">
            <Node pos="l" depth="3" NCoef="0" IVar="-1" Cut="0.0000000000000000e+00" cType="1" res="-1.6243629157543182e-02" rms="4.5633253455162048e-01" purity="3.7086877226829529e-01" nType="-99"/>
            <Node pos="r" depth="3" NCoef="0" IVar="-1" Cut="0.0000000000000000e+00" cType="1" res="2.5591583107598126e-04" rms="4.7560158371925354e-01" purity="4.8752796649932861e-01" nType="-99"/>
          </Node>
          <Node pos="r" depth="2" NCoef="0" IVar="15" Cut="1.5544348144531250e+02" cType="1" res="3.0151328071951866e-02" rms="4.6267205476760864e-01" purity="5.4500383138656616e-01" nType="0">
            <Node pos="l" depth="3" NCoef="0" IVar="-1" Cut="0.0000000000000000e+00" cType="1" res="1.2614720501005650e-02" rms="4.5991048216819763e-01" purity="6.1802828311920166e-01" nType="-99"/>
            <Node pos="r" depth="3" NCoef="0" IVar="-1" Cut="0.0000000000000000e+00" cType="1" res="-1.0692513547837734e-02" rms="4.6102342009544373e-01" purity="3.4177654981613159e-01" nType="-99"/>
          </Node>
        </Node>
        <Node pos="r" depth="1" NCoef="0" IVar="12" Cut="5.9856487274169922e+01" cType="1" res="9.9731504917144775e-02" rms="4.2668953537940979e-01" purity="7.0450472831726074e-01" nType="0">
          <Node pos="l" depth="2" NCoef="0" IVar="-1" Cut="0.0000000000000000e+00" cType="1" res="3.2967887818813324e-02" rms="3.8066956400871277e-01" purity="8.1227731704711914e-01" nType="-99"/>
          <Node pos="r" depth="2" NCoef="0" IVar="-1" Cut="0.0000000000000000e+00" cType="1" res="1.0943182744085789e-02" rms="4.6648204326629639e-01" purity="5.8853209018707275e-01" nType="-99"/>
        </Node>
      </Node>
    </BinaryTree>
    <BinaryTree type="DecisionTree" boostWeight="1.0000000000000000e+00" itree="15">
      <Node pos="s" depth="0" NCoef="0" IVar="8" Cut="3.3682272434234619e+00" cType="1" res="-4.6940086758695543e-04" rms="4.6209359169006348e-01" purity="4.9948152899742126e-01" nType="0">
        <Node pos="l" depth="1" NCoef="0" IVar="14" Cut="1.5087710618972778e+00" cType="1" res="-2.2982290014624596e-02" rms="4.6214243769645691e-01" purity="4.6097123622894287e-01" nType="0">
          <Node pos="l" depth="2" NCoef="0" IVar="15" Cut="1.2216146087646484e+02" cType="1" res="-4.0853105485439301e-02" rms="4.6379309892654419e-01" purity="4.1819685697555542e-01" nType="0">
            <Node pos="l" depth="3" NCoef="0" IVar="-1" Cut="0.0000000000000000e+00" cType="1" res="-2.4653121363371611e-03" rms="4.7574698925018311e-01" purity="5.0897020101547241e-01" nType="-99"/>
            <Node pos="r" depth="3" NCoef="0" IVar="-1" Cut="0.0000000000000000e+00" cType="1" res="-1.6181571409106255e-02" rms="4.4769594073295593e-01" purity="3.1607949733734131e-01" nType="-99"/>
          </Node>
          <Node pos="r" depth="2" NCoef="0" IVar="5" Cut="3.1886434555053711e-01" cType="1" res="5.1465630531311035e-02" rms="4.4758868217468262e-01" purity="6.3916498422622681e-01" nType="0">
            <Node pos="l" depth="3" NCoef="0" IVar="-1" Cut="0.0000000000000000e+00" cType="1" res="2.2674601059406996e-03" rms="4.6738657355308533e-01" purity="5.7044571638107300e-01" nType="-99"/>
            <Node pos="r" depth="3" NCoef="0" IVar="-1" Cut="0.0000000000000000e+00" cType="1" res="2.6341099292039871e-02" rms="4.0667352080345154e-01" purity="7.4646043777465820e-01" nType="-99"/>
          </Node>
        </Node>
        <Node pos="r" depth="1" NCoef="0" IVar="9" Cut="1.4754525756835938e+02" cType="1" res="6.2504649162292480e-02" rms="4.5609283447265625e-01" purity="6.0720431804656982e-01" nType="0">
          <Node pos="l" depth="2" NCoef="0" IVar="0" Cut="2.2159442901611328e+00" cType="1" res="1.0617628693580627e-01" rms="4.3550029397010803e-01" purity="6.9778794050216675e-01" nType="0">
            <Node pos="l" depth="3" NCoef="0" IVar="-1" Cut="0.0000000000000000e+00" cType="1" res="6.8013858981430531e-03" rms="4.7825080156326294e-01" purity="5.7101625204086304e-01" nType="-99"/>
            <Node pos="r" depth="3" NCoef="0" IVar="-1" Cut="0.0000000000000000e+00" cType="1" res="3.1255263835191727e-02" rms="4.0851187705993652e-01" purity="7.5910407304763794e-01" nType="-99"/>
          </Node>
          <Node pos="r" depth="2" NCoef="0" IVar="9" Cut="2.1738812255859375e+02" cType="1" res="9.0056465705856681e-04" rms="4.7690090537071228e-01" purity="4.7942522168159485e-01" nType="0">
            <Node pos="l" depth="3" NCoef="0" IVar="-1" Cut="0.0000000000000000e+00" cType="1" res="8.5049094632267952e-03" rms="4.7916656732559204e-01" purity="5.5477565526962280e-01" nType="-99"/>
            <Node pos="r" depth="3" NCoef="0" IVar="-1" Cut="0.0000000000000000e+00" cType="1" res="-6.9785215891897678e-03" rms="4.7234052419662476e-01" purity="4.1486769914627075e-01" nType="-99"/>
          </Node>
        </Node>
      </Node>
    </BinaryTree>
    <BinaryTree type="DecisionTree" boostWeight="1.0000000000000000e+00" itree="16">
      <Node pos="s" depth="0" NCoef="0" IVar="12" Cut="6.4907791137695312e+01" cType="1" res="9.0758799342438579e-04" rms="4.5953196287155151e-01" purity="5.0059211254119873e-01" nType="0">
        <Node pos="l" depth="1" NCoef="0" IVar="6" Cut="9.1191253662109375e+01" cType="1" res="5.3678665310144424e-02" rms="4.4540184736251831e-01" purity="6.6259193420410156e-01" nType="0">
          <Node pos="l" depth="2" NCoef="0" IVar="5" Cut="2.0340467989444733e-01" cType="1" res="9.9594734609127045e-02" rms="4.0805855393409729e-01" purity="7.7355825901031494e-01" nType="0">
            <Node pos="l" depth="3" NCoef="0" IVar="-1" Cut="0.0000000000000000e+00" cType="1" res="9.7139589488506317e-03" rms="4.7570881247520447e-01" purity="6.4242434501647949e-01" nType="-99"/>
            <Node pos="r" depth="3" NCoef="0" IVar="-1" Cut="0.0000000000000000e+00" cType="1" res="2.8920443728566170e-02" rms="3.7697863578796387e-01" purity="8.2381290197372437e-01" nType="-99"/>
          </Node>
          <Node pos="r" depth="2" NCoef="0" IVar="8" Cut="2.9576921463012695e+00" cType="1" res="8.8322153314948082e-03" rms="4.7480627894401550e-01" purity="5.5421066284179688e-01" nType="0">
            <Node pos="l" depth="3" NCoef="0" IVar="-1" Cut="0.0000000000000000e+00" cType="1" res="-4.6623409725725651e-03" rms="4.7989022731781006e-01" purity="5.0748497247695923e-01" nType="-99"/>
            <Node pos="r" depth="3" NCoef="0" IVar="-1" Cut="0.0000000000000000e+00" cType="1" res="1.3469141907989979e-02" rms="4.6071237325668335e-01" purity="6.3635551929473877e-01" nType="-99"/>
          </Node>
        </Node>
        <Node pos="r" depth="1" NCoef="0" IVar="8" Cut="3.6434884071350098e+00" cType="1" res="-2.9737856239080429e-02" rms="4.6479988098144531e-01" purity="4.0651494264602661e-01" nType="0">
          <Node pos="l" depth="2" NCoef="0" IVar="17" Cut="1.8610102844238281e+02" cType="1" res="-4.6450600028038025e-02" rms="4.6057632565498352e-01" purity="3.7486198544502258e-01" nType="0">
            <Node pos="l" depth="3" NCoef="0" IVar="-1" Cut="0.0000000000000000e+00" cType="1" res="-7.1041686460375786e-03" rms="4.6861684322357178e-01" purity="4.0335500240325928e-01" nType="-99"/>
            <Node pos="r" depth="3" NCoef="0" IVar="-1" Cut="0.0000000000000000e+00" cType="1" res="-2.6648255065083504e-02" rms="4.0735369920730591e-01" purity="2.2149272263050079e-01" nType="-99"/>
          </Node>
          <Node pos="r" depth="2" NCoef="0" IVar="9" Cut="1.9181529235839844e+02" cType="1" res="3.7593472748994827e-02" rms="4.7552704811096191e-01" purity="5.3403657674789429e-01" nType="0">
            <Node pos="l" depth="3" NCoef="0" IVar="-1" Cut="0.0000000000000000e+00" cType="1" res="1.6411826014518738e-02" rms="4.6968212723731995e-01" purity="6.1896979808807373e-01" nType="-99"/>
            <Node pos="r" depth="3" NCoef="0" IVar="-1" Cut="0.0000000000000000e+00" cType="1" res="-4.0455530397593975e-03" rms="4.7768127918243408e-01" purity="4.1673991084098816e-01" nType="-99"/>
          </Node>
        </Node>
      </Node>
    </BinaryTree>
    <BinaryTree type="DecisionTree" boostWeight="1.0000000000000000e+00" itree="17">
      <Node pos="s" depth="0" NCoef="0" IVar="13" Cut="5.2359043121337891e+01" cType="1" res="4.6698580263182521e-04" rms="4.5975363254547119e-01" purity="5.0005370378494263e-01" nType="0">
        <Node pos="l" depth="1" NCoef="0" IVar="17" Cut="1.1602569580078125e+02" cType="1" res="2.3475892841815948e-02" rms="4.6233496069908142e-01" purity="5.7086372375488281e-01" nType="0">
          <Node pos="l" depth="2" NCoef="0" IVar="5" Cut="3.4868824481964111e-01" cType="1" res="5.1100600510835648e-02" rms="4.5533949136734009e-01" purity="6.4436262845993042e-01" nType="0">
            <Node pos="l" depth="3" NCoef="0" IVar="-1" Cut="0.0000000000000000e+00" cType="1" res="5.0300522707402706e-03" rms="4.7065463662147522e-01" purity="5.9318029880523682e-01" nType="-99"/>
            <Node pos="r" depth="3" NCoef="0" IVar="-1" Cut="0.0000000000000000e+00" cType="1" res="2.3369882255792618e-02" rms="4.2050611972808838e-01" purity="7.3983919620513916e-01" nType="-99"/>
          </Node>
          <Node pos="r" depth="2" NCoef="0" IVar="5" Cut="2.7694064378738403e-01" cType="1" res="-3.5170346498489380e-02" rms="4.7151097655296326e-01" purity="4.1482815146446228e-01" nType="0">
            <Node pos="l" depth="3" NCoef="0" IVar="-1" Cut="0.0000000000000000e+00" cType="1" res="-1.6140278428792953e-02" rms="4.6160152554512024e-01" purity="3.3977246284484863e-01" nType="-99"/>
            <Node pos="r" depth="3" NCoef="0" IVar="-1" Cut="0.0000000000000000e+00" cType="1" res="-2.2121581423562020e-05" rms="4.7703245282173157e-01" purity="4.7899448871612549e-01" nType="-99"/>
          </Node>
        </Node>
        <Node pos="r" depth="1" NCoef="0" IVar="6" Cut="2.3112263488769531e+02" cType="1" res="-5.2638594061136246e-02" rms="4.4926345348358154e-01" purity="3.3662116527557373e-01" nType="0">
          <Node pos="l" depth="2" NCoef="0" IVar="2" Cut="5.8408271789550781e+01" cType="1" res="-3.2771475613117218e-02" rms="4.6587568521499634e-01" purity="3.8627830147743225e-01" nType="0">
            <Node pos="l" depth="3" NCoef="0" IVar="-1" Cut="0.0000000000000000e+00" cType="1" res="2.8536617755889893e-03" rms="4.9115669727325439e-01" purity="4.4753909111022949e-01" nType="-99"/>
            <Node pos="r" depth="3" NCoef="0" IVar="-1" Cut="0.0000000000000000e+00" cType="1" res="-1.0453535243868828e-02" rms="4.5636647939682007e-01" purity="3.6639344692230225e-01" nType="-99"/>
          </Node>
          <Node pos="r" depth="2" NCoef="0" IVar="-1" Cut="0.0000000000000000e+00" cType="1" res="-2.3185702040791512e-02" rms="4.0427109599113464e-01" purity="2.2115290164947510e-01" nType="-99"/>
        </Node>
      </Node>
    </BinaryTree>
    <BinaryTree type="DecisionTree" boostWeight="1.0000000000000000e+00" itree="18">
      <Node pos="s" depth="0" NCoef="0" IVar="15" Cut="1.6902713012695312e+02" cType="1" res="-1.5875786775723100e-03" rms="4.5857685804367065e-01" purity="4.9843740463256836e-01" nType="0">
        <Node pos="l" depth="1" NCoef="0" IVar="8" Cut="3.9713351726531982e+00" cType="1" res="1.5566958114504814e-02" rms="4.6271136403083801e-01" purity="5.5909490585327148e-01" nType="0">
          <Node pos="l" depth="2" NCoef="0" IVar="0" Cut="2.5390961170196533e+00" cType="1" res="1.5500930603593588e-03" rms="4.6712976694107056e-01" purity="5.3172034025192261e-01" nType="0">
            <Node pos="l" depth="3" NCoef="0" IVar="-1" Cut="0.0000000000000000e+00" cType="1" res="-6.3818106427788734e-03" rms="4.7613093256950378e-01" purity="4.5230561494827271e-01" nType="-99"/>
            <Node pos="r" depth="3" NCoef="0" IVar="-1" Cut="0.0000000000000000e+00" cType="1" res="7.5541064143180847e-03" rms="4.5525878667831421e-01" purity="6.1427843570709229e-01" nType="-99"/>
          </Node>
          <Node pos="r" depth="2" NCoef="0" IVar="9" Cut="1.2413843536376953e+02" cType="1" res="9.4757959246635437e-02" rms="4.2837992310523987e-01" purity="7.1375250816345215e-01" nType="0">
            <Node pos="l" depth="3" NCoef="0" IVar="-1" Cut="0.0000000000000000e+00" cType="1" res="3.2391931861639023e-02" rms="3.8526156544685364e-01" purity="7.9874181747436523e-01" nType="-99"/>
            <Node pos="r" depth="3" NCoef="0" IVar="-1" Cut="0.0000000000000000e+00" cType="1" res="8.1556644290685654e-03" rms="4.7035604715347290e-01" purity="6.0817331075668335e-01" nType="-99"/>
          </Node>
        </Node>
        <Node pos="r" depth="1" NCoef="0" IVar="15" Cut="2.1904853820800781e+02" cType="1" res="-6.1214722692966461e-02" rms="4.3871930241584778e-01" purity="2.8759914636611938e-01" nType="0">
          <Node pos="l" depth="2" NCoef="0" IVar="5" Cut="2.8352692723274231e-01" cType="1" res="-3.2468903809785843e-02" rms="4.6334382891654968e-01" purity="3.4841808676719666e-01" nType="0">
            <Node pos="l" depth="3" NCoef="0" IVar="-1" Cut="0.0000000000000000e+00" cType="1" res="-1.3635488227009773e-02" rms="4.4964131712913513e-01" purity="3.0068847537040710e-01" nType="-99"/>
            <Node pos="r" depth="3" NCoef="0" IVar="-1" Cut="0.0000000000000000e+00" cType="1" res="-2.7032627258449793e-04" rms="4.7574278712272644e-01" purity="4.0000048279762268e-01" nType="-99"/>
          </Node>
          <Node pos="r" depth="2" NCoef="0" IVar="-1" Cut="0.0000000000000000e+00" cType="1" res="-2.0972365513443947e-02" rms="4.1103428602218628e-01" purity="2.2761836647987366e-01" nType="-99"/>
        </Node>
      </Node>
    </BinaryTree>
    <BinaryTree type="DecisionTree" boostWeight="1.0000000000000000e+00" itree="19">
      <Node pos="s" depth="0" NCoef="0" IVar="14" Cut="1.9000371694564819e+00" cType="1" res="6.5648513555061072e-05" rms="4.5744240283966064e-01" purity="4.9957364797592163e-01" nType="0">
        <Node pos="l" depth="1" NCoef="0" IVar="15" Cut="1.1561879730224609e+02" cType="1" res="-1.0923077352344990e-02" rms="4.6122661232948303e-01" purity="4.7123265266418457e-01" nType="0">
          <Node pos="l" depth="2" NCoef="0" IVar="5" Cut="1.7873227596282959e-01" cType="1" res="2.2083921357989311e-02" rms="4.6356311440467834e-01" purity="5.7657510042190552e-01" nType="0">
            <Node pos="l" depth="3" NCoef="0" IVar="-1" Cut="0.0000000000000000e+00" cType="1" res="-7.8011984005570412e-03" rms="4.7800946235656738e-01" purity="4.4823732972145081e-01" nType="-99"/>
            <Node pos="r" depth="3" NCoef="0" IVar="-1" Cut="0.0000000000000000e+00" cType="1" res="8.5506783798336983e-03" rms="4.5797106623649597e-01" purity="6.1295640468597412e-01" nType="-99"/>
          </Node>
          <Node pos="r" depth="2" NCoef="0" IVar="5" Cut="4.0629264712333679e-01" cType="1" res="-4.1942492127418518e-02" rms="4.5685151219367981e-01" purity="3.7223365902900696e-01" nType="0">
            <Node pos="l" depth="3" NCoef="0" IVar="-1" Cut="0.0000000000000000e+00" cType="1" res="-1.2117142789065838e-02" rms="4.5341852307319641e-01" purity="3.4883713722229004e-01" nType="-99"/>
            <Node pos="r" depth="3" NCoef="0" IVar="-1" Cut="0.0000000000000000e+00" cType="1" res="1.1851016897708178e-03" rms="4.6615919470787048e-01" purity="4.5795243978500366e-01" nType="-99"/>
          </Node>
        </Node>
        <Node pos="r" depth="1" NCoef="0" IVar="12" Cut="5.9379318237304688e+01" cType="1" res="8.9875236153602600e-02" rms="4.1447362303733826e-01" purity="7.3120117187500000e-01" nType="0">
          <Node pos="l" depth="2" NCoef="0" IVar="-1" Cut="0.0000000000000000e+00" cType="1" res="2.8791017830371857e-02" rms="3.7240830063819885e-01" purity="8.2578009366989136e-01" nType="-99"/>
          <Node pos="r" depth="2" NCoef="0" IVar="-1" Cut="0.0000000000000000e+00" cType="1" res="1.2553492560982704e-02" rms="4.5684784650802612e-01" purity="6.2040436267852783e-01" nType="-99"/>
        </Node>
      </Node>
    </BinaryTree>
    <BinaryTree type="DecisionTree" boostWeight="1.0000000000000000e+00" itree="20">
      <Node pos="s" depth="0" NCoef="0" IVar="13" Cut="6.2577152252197266e+01" cType="1" res="-7.2715280111879110e-05" rms="4.5748484134674072e-01" purity="4.9935141205787659e-01" nType="0">
        <Node pos="l" depth="1" NCoef="0" IVar="17" Cut="1.4820689392089844e+02" cType="1" res="1.4969850890338421e-02" rms="4.6219655871391296e-01" purity="5.5659925937652588e-01" nType="0">
          <Node pos="l" depth="2" NCoef="0" IVar="5" Cut="2.9217925667762756e-01" cType="1" res="3.0592637136578560e-02" rms="4.6075573563575745e-01" purity="6.0779178142547607e-01" nType="0">
            <Node pos="l" depth="3" NCoef="0" IVar="-1" Cut="0.0000000000000000e+00" cType="1" res="-3.8670590583933517e-05" rms="4.7671222686767578e-01" purity="5.3507989645004272e-01" nType="-99"/>
            <Node pos="r" depth="3" NCoef="0" IVar="-1" Cut="0.0000000000000000e+00" cType="1" res="1.4298885129392147e-02" rms="4.4102987647056580e-01" purity="6.8431448936462402e-01" nType="-99"/>
          </Node>
          <Node pos="r" depth="2" NCoef="0" IVar="17" Cut="2.2233418273925781e+02" cType="1" res="-4.7973990440368652e-02" rms="4.6264258027076721e-01" purity="3.5034573078155518e-01" nType="0">
            <Node pos="l" depth="3" NCoef="0" IVar="-1" Cut="0.0000000000000000e+00" cType="1" res="-5.2262428216636181e-03" rms="4.7284415364265442e-01" purity="3.9198422431945801e-01" nType="-99"/>
            <Node pos="r" depth="3" NCoef="0" IVar="-1" Cut="0.0000000000000000e+00" cType="1" res="-1.9232552498579025e-02" rms="4.4184234738349915e-01" purity="2.7922040224075317e-01" nType="-99"/>
          </Node>
        </Node>
        <Node pos="r" depth="1" NCoef="0" IVar="13" Cut="9.7747955322265625e+01" cType="1" res="-5.7226046919822693e-02" rms="4.3439862132072449e-01" purity="2.8184145689010620e-01" nType="0">
          <Node pos="l" depth="2" NCoef="0" IVar="8" Cut="2.6451663970947266e+00" cType="1" res="-3.5856358706951141e-02" rms="4.5524781942367554e-01" purity="3.2867547869682312e-01" nType="0">
            <Node pos="l" depth="3" NCoef="0" IVar="-1" Cut="0.0000000000000000e+00" cType="1" res="-1.4612733386456966e-02" rms="4.3668022751808167e-01" purity="2.7735355496406555e-01" nType="-99"/>
            <Node pos="r" depth="3" NCoef="0" IVar="-1" Cut="0.0000000000000000e+00" cType="1" res="6.1733357142657042e-05" rms="4.7636464238166809e-01" purity="3.9673992991447449e-01" nType="-99"/>
          </Node>
          <Node pos="r" depth="2" NCoef="0" IVar="-1" Cut="0.0000000000000000e+00" cType="1" res="-2.3978110402822495e-02" rms="3.8884612917900085e-01" purity="1.9343815743923187e-01" nType="-99"/>
        </Node>
      </Node>
    </BinaryTree>
    <BinaryTree type="DecisionTree" boostWeight="1.0000000000000000e+00" itree="21">
      <Node pos="s" depth="0" NCoef="0" IVar="13" Cut="5.4194396972656250e+01" cType="1" res="-2.4266594555228949e-03" rms="4.5692300796508789e-01" purity="4.9748328328132629e-01" nType="0">
        <Node pos="l" depth="1" NCoef="0" IVar="17" Cut="1.9443453979492188e+02" cType="1" res="1.5798423439264297e-02" rms="4.6076211333274841e-01" purity="5.6702798604965210e-01" nType="0">
          <Node pos="l" depth="2" NCoef="0" IVar="5" Cut="2.1217587590217590e-01" cType="1" res="2.6669882237911224e-02" rms="4.6098375320434570e-01" purity="5.9904521703720093e-01" nType="0">
            <Node pos="l" depth="3" NCoef="0" IVar="-1" Cut="0.0000000000000000e+00" cType="1" res="-3.7376587279140949e-03" rms="4.8090898990631104e-01" purity="4.8366943001747131e-01" nType="-99"/>
            <Node pos="r" depth="3" NCoef="0" IVar="-1" Cut="0.0000000000000000e+00" cType="1" res="1.0353595949709415e-02" rms="4.5062765479087830e-01" purity="6.4940237998962402e-01" nType="-99"/>
          </Node>
          <Node pos="r" depth="2" NCoef="0" IVar="-1" Cut="0.0000000000000000e+00" cType="1" res="-1.6783632338047028e-02" rms="4.4826754927635193e-01" purity="2.9381629824638367e-01" nType="-99"/>
        </Node>
        <Node pos="r" depth="1" NCoef="0" IVar="8" Cut="3.0666844844818115e+00" cType="1" res="-4.8945043236017227e-02" rms="4.4359266757965088e-01" purity="3.1997486948966980e-01" nType="0">
          <Node pos="l" depth="2" NCoef="0" IVar="7" Cut="3.2097084522247314e+00" cType="1" res="-6.8827979266643524e-02" rms="4.2851242423057556e-01" purity="2.7544254064559937e-01" nType="0">
            <Node pos="l" depth="3" NCoef="0" IVar="-1" Cut="0.0000000000000000e+00" cType="1" res="-2.0219342783093452e-02" rms="4.1472414135932922e-01" purity="2.4954442679882050e-01" nType="-99"/>
            <Node pos="r" depth="3" NCoef="0" IVar="-1" Cut="0.0000000000000000e+00" cType="1" res="-6.6182296723127365e-03" rms="4.5747020840644836e-01" purity="3.3764716982841492e-01" nType="-99"/>
          </Node>
          <Node pos="r" depth="2" NCoef="0" IVar="-1" Cut="0.0000000000000000e+00" cType="1" res="-1.6807809006422758e-03" rms="4.7062912583351135e-01" purity="4.1218036413192749e-01" nType="-99"/>
        </Node>
      </Node>
    </BinaryTree>
    <BinaryTree type="DecisionTree" boostWeight="1.0000000000000000e+00" itree="22">
      <Node pos="s" depth="0" NCoef="0" IVar="6" Cut="2.4369631958007812e+02" cType="1" res="3.7411907687783241e-03" rms="4.5700886845588684e-01" purity="5.0433146953582764e-01" nType="0">
        <Node pos="l" depth="1" NCoef="0" IVar="5" Cut="4.3707486987113953e-01" cType="1" res="1.5412239357829094e-02" rms="4.5964840054512024e-01" purity="5.4857069253921509e-01" nType="0">
          <Node pos="l" depth="2" NCoef="0" IVar="8" Cut="2.4305505752563477e+00" cType="1" res="3.5109235905110836e-03" rms="4.6380624175071716e-01" purity="5.2197939157485962e-01" nType="0">
            <Node pos="l" depth="3" NCoef="0" IVar="-1" Cut="0.0000000000000000e+00" cType="1" res="-5.7708751410245895e-03" rms="4.6227833628654480e-01" purity="4.7345024347305298e-01" nType="-99"/>
            <Node pos="r" depth="3" NCoef="0" IVar="-1" Cut="0.0000000000000000e+00" cType="1" res="6.5369079820811749e-03" rms="4.6356955170631409e-01" purity="5.6509590148925781e-01" nType="-99"/>
          </Node>
          <Node pos="r" depth="2" NCoef="0" IVar="0" Cut="2.5398349761962891e+00" cType="1" res="6.8640634417533875e-02" rms="4.3662053346633911e-01" purity="6.6749984025955200e-01" nType="0">
            <Node pos="l" depth="3" NCoef="0" IVar="-1" Cut="0.0000000000000000e+00" cType="1" res="3.8398676551878452e-03" rms="4.6659523248672485e-01" purity="5.6279379129409790e-01" nType="-99"/>
            <Node pos="r" depth="3" NCoef="0" IVar="-1" Cut="0.0000000000000000e+00" cType="1" res="2.4560296908020973e-02" rms="4.1108447313308716e-01" purity="7.3950815200805664e-01" nType="-99"/>
          </Node>
        </Node>
        <Node pos="r" depth="1" NCoef="0" IVar="8" Cut="2.2714257240295410e+00" cType="1" res="-5.2314292639493942e-02" rms="4.3981766700744629e-01" purity="2.9185271263122559e-01" nType="0">
          <Node pos="l" depth="2" NCoef="0" IVar="-1" Cut="0.0000000000000000e+00" cType="1" res="-1.9979169592261314e-02" rms="4.1363012790679932e-01" purity="2.3618456721305847e-01" nType="-99"/>
          <Node pos="r" depth="2" NCoef="0" IVar="-1" Cut="0.0000000000000000e+00" cType="1" res="-5.8359284885227680e-03" rms="4.5818740129470825e-01" purity="3.3675220608711243e-01" nType="-99"/>
        </Node>
      </Node>
    </BinaryTree>
    <BinaryTree type="DecisionTree" boostWeight="1.0000000000000000e+00" itree="23">
      <Node pos="s" depth="0" NCoef="0" IVar="14" Cut="1.9573036432266235e+00" cType="1" res="-1.2600963236764073e-03" rms="4.5717486739158630e-01" purity="4.9890851974487305e-01" nType="0">
        <Node pos="l" depth="1" NCoef="0" IVar="8" Cut="4.1495418548583984e+00" cType="1" res="-1.0124574415385723e-02" rms="4.6122401952743530e-01" purity="4.7294256091117859e-01" nType="0">
          <Node pos="l" depth="2" NCoef="0" IVar="5" Cut="3.6924168467521667e-01" cType="1" res="-1.8937183544039726e-02" rms="4.6193253993988037e-01" purity="4.5308312773704529e-01" nType="0">
            <Node pos="l" depth="3" NCoef="0" IVar="-1" Cut="0.0000000000000000e+00" cType="1" res="-7.3178494349122047e-03" rms="4.6184164285659790e-01" purity="4.1772630810737610e-01" nType="-99"/>
            <Node pos="r" depth="3" NCoef="0" IVar="-1" Cut="0.0000000000000000e+00" cType="1" res="3.7871452514082193e-03" rms="4.6021211147308350e-01" purity="5.4179495573043823e-01" nType="-99"/>
          </Node>
          <Node pos="r" depth="2" NCoef="0" IVar="9" Cut="1.4146797180175781e+02" cType="1" res="5.7216301560401917e-02" rms="4.5011240243911743e-01" purity="6.2469673156738281e-01" nType="0">
            <Node pos="l" depth="3" NCoef="0" IVar="-1" Cut="0.0000000000000000e+00" cType="1" res="2.4907609447836876e-02" rms="4.1031149029731750e-01" purity="7.6225298643112183e-01" nType="-99"/>
            <Node pos="r" depth="3" NCoef="0" IVar="-1" Cut="0.0000000000000000e+00" cType="1" res="2.0399272907525301e-03" rms="4.8038914799690247e-01" purity="4.9283048510551453e-01" nType="-99"/>
          </Node>
        </Node>
        <Node pos="r" depth="1" NCoef="0" IVar="-1" Cut="0.0000000000000000e+00" cType="1" res="1.8741857260465622e-02" rms="4.1011577844619751e-01" purity="7.3396319150924683e-01" nType="-99"/>
      </Node>
    </BinaryTree>
    <BinaryTree type="DecisionTree" boostWeight="1.0000000000000000e+00" itree="24">
      <Node pos="s" depth="0" NCoef="0" IVar="8" Cut="3.0454640388488770e+00" cType="1" res="-1.3997824862599373e-03" rms="4.5616576075553894e-01" purity="4.9836498498916626e-01" nType="0">
        <Node pos="l" depth="1" NCoef="0" IVar="12" Cut="5.3891437530517578e+01" cType="1" res="-1.8642494454979897e-02" rms="4.5593997836112976e-01" purity="4.5455574989318848e-01" nType="0">
          <Node pos="l" depth="2" NCoef="0" IVar="0" Cut="2.4500358104705811e+00" cType="1" res="2.6565182954072952e-02" rms="4.4958040118217468e-01" purity="6.3915717601776123e-01" nType="0">
            <Node pos="l" depth="3" NCoef="0" IVar="-1" Cut="0.0000000000000000e+00" cType="1" res="-8.5337078198790550e-03" rms="4.7737285494804382e-01" purity="4.8735737800598145e-01" nType="-99"/>
            <Node pos="r" depth="3" NCoef="0" IVar="-1" Cut="0.0000000000000000e+00" cType="1" res="1.3553263619542122e-02" rms="4.3211370706558228e-01" purity="7.1170037984848022e-01" nType="-99"/>
          </Node>
          <Node pos="r" depth="2" NCoef="0" IVar="5" Cut="3.8314202427864075e-01" cType="1" res="-3.2993994653224945e-02" rms="4.5700618624687195e-01" purity="3.9595270156860352e-01" nType="0">
            <Node pos="l" depth="3" NCoef="0" IVar="-1" Cut="0.0000000000000000e+00" cType="1" res="-1.0458351112902164e-02" rms="4.5390671491622925e-01" purity="3.6441513895988464e-01" nType="-99"/>
            <Node pos="r" depth="3" NCoef="0" IVar="-1" Cut="0.0000000000000000e+00" cType="1" res="2.0477622747421265e-03" rms="4.6387550234794617e-01" purity="4.9299809336662292e-01" nType="-99"/>
          </Node>
        </Node>
        <Node pos="r" depth="1" NCoef="0" IVar="15" Cut="1.2412254333496094e+02" cType="1" res="3.1396627426147461e-02" rms="4.5479419827461243e-01" purity="5.8169215917587280e-01" nType="0">
          <Node pos="l" depth="2" NCoef="0" IVar="0" Cut="2.3445427417755127e+00" cType="1" res="5.3923655301332474e-02" rms="4.3973064422607422e-01" purity="6.7548066377639771e-01" nType="0">
            <Node pos="l" depth="3" NCoef="0" IVar="-1" Cut="0.0000000000000000e+00" cType="1" res="1.5879024285823107e-03" rms="4.7674548625946045e-01" purity="5.6548029184341431e-01" nType="-99"/>
            <Node pos="r" depth="3" NCoef="0" IVar="-1" Cut="0.0000000000000000e+00" cType="1" res="2.0130695775151253e-02" rms="4.1021469235420227e-01" purity="7.4900507926940918e-01" nType="-99"/>
          </Node>
          <Node pos="r" depth="2" NCoef="0" IVar="2" Cut="6.0558944702148438e+01" cType="1" res="2.9995427466928959e-03" rms="4.7156929969787598e-01" purity="4.6346434950828552e-01" nType="0">
            <Node pos="l" depth="3" NCoef="0" IVar="-1" Cut="0.0000000000000000e+00" cType="1" res="8.3007328212261200e-03" rms="4.8723220825195312e-01" purity="5.1259952783584595e-01" nType="-99"/>
            <Node pos="r" depth="3" NCoef="0" IVar="-1" Cut="0.0000000000000000e+00" cType="1" res="-3.3136280253529549e-03" rms="4.6241393685340881e-01" purity="4.3870157003402710e-01" nType="-99"/>
          </Node>
        </Node>
      </Node>
    </BinaryTree>
    <BinaryTree type="DecisionTree" boostWeight="1.0000000000000000e+00" itree="25">
      <Node pos="s" depth="0" NCoef="0" IVar="14" Cut="1.6274687051773071e+00" cType="1" res="2.0991524215787649e-03" rms="4.5534017682075500e-01" purity="5.0168204307556152e-01" nType="0">
        <Node pos="l" depth="1" NCoef="0" IVar="8" Cut="4.1682443618774414e+00" cType="1" res="-9.3169035390019417e-03" rms="4.6079605817794800e-01" purity="4.6067476272583008e-01" nType="0">
          <Node pos="l" depth="2" NCoef="0" IVar="15" Cut="2.5339175415039062e+02" cType="1" res="-1.6497446224093437e-02" rms="4.6143469214439392e-01" purity="4.4190070033073425e-01" nType="0">
            <Node pos="l" depth="3" NCoef="0" IVar="-1" Cut="0.0000000000000000e+00" cType="1" res="-2.3567022290080786e-03" rms="4.6719589829444885e-01" purity="4.6506214141845703e-01" nType="-99"/>
            <Node pos="r" depth="3" NCoef="0" IVar="-1" Cut="0.0000000000000000e+00" cType="1" res="-2.0222237333655357e-02" rms="3.8835299015045166e-01" purity="1.9135035574436188e-01" nType="-99"/>
          </Node>
          <Node pos="r" depth="2" NCoef="0" IVar="-1" Cut="0.0000000000000000e+00" cType="1" res="1.1233827099204063e-02" rms="4.5110535621643066e-01" purity="6.1610543727874756e-01" nType="-99"/>
        </Node>
        <Node pos="r" depth="1" NCoef="0" IVar="11" Cut="1.3083643913269043e+00" cType="1" res="5.6511163711547852e-02" rms="4.2418098449707031e-01" purity="6.9713413715362549e-01" nType="0">
          <Node pos="l" depth="2" NCoef="0" IVar="5" Cut="2.9261252284049988e-01" cType="1" res="8.2775734364986420e-02" rms="4.0931895375251770e-01" purity="7.4110823869705200e-01" nType="0">
            <Node pos="l" depth="3" NCoef="0" IVar="-1" Cut="0.0000000000000000e+00" cType="1" res="1.1733621358871460e-02" rms="4.4433531165122986e-01" purity="6.6390049457550049e-01" nType="-99"/>
            <Node pos="r" depth="3" NCoef="0" IVar="-1" Cut="0.0000000000000000e+00" cType="1" res="2.9148969799280167e-02" rms="3.6838477849960327e-01" purity="8.1867665052413940e-01" nType="-99"/>
          </Node>
          <Node pos="r" depth="2" NCoef="0" IVar="-1" Cut="0.0000000000000000e+00" cType="1" res="4.0735127404332161e-03" rms="4.4241693615913391e-01" purity="6.3204479217529297e-01" nType="-99"/>
        </Node>
      </Node>
    </BinaryTree>
    <BinaryTree type="DecisionTree" boostWeight="1.0000000000000000e+00" itree="26">
      <Node pos="s" depth="0" NCoef="0" IVar="13" Cut="7.4089309692382812e+01" cType="1" res="1.2708667200058699e-03" rms="4.5586904883384705e-01" purity="5.0106680393218994e-01" nType="0">
        <Node pos="l" depth="1" NCoef="0" IVar="5" Cut="1.6037869453430176e-01" cType="1" res="1.0234880261123180e-02" rms="4.6135744452476501e-01" purity="5.4417872428894043e-01" nType="0">
          <Node pos="l" depth="2" NCoef="0" IVar="13" Cut="3.1346965789794922e+01" cType="1" res="-4.0163651108741760e-02" rms="4.7237068414688110e-01" purity="4.1303324699401855e-01" nType="0">
            <Node pos="l" depth="3" NCoef="0" IVar="-1" Cut="0.0000000000000000e+00" cType="1" res="-2.0737621933221817e-02" rms="4.6663928031921387e-01" purity="3.8148528337478638e-01" nType="-99"/>
            <Node pos="r" depth="3" NCoef="0" IVar="-1" Cut="0.0000000000000000e+00" cType="1" res="-2.0023449324071407e-03" rms="4.7247549891471863e-01" purity="4.2970404028892517e-01" nType="-99"/>
          </Node>
          <Node pos="r" depth="2" NCoef="0" IVar="0" Cut="2.3444187641143799e+00" cType="1" res="2.1485796198248863e-02" rms="4.5810636878013611e-01" purity="5.7345545291900635e-01" nType="0">
            <Node pos="l" depth="3" NCoef="0" IVar="-1" Cut="0.0000000000000000e+00" cType="1" res="-1.9898898899555206e-03" rms="4.7794398665428162e-01" purity="4.6761530637741089e-01" nType="-99"/>
            <Node pos="r" depth="3" NCoef="0" IVar="-1" Cut="0.0000000000000000e+00" cType="1" res="9.5036709681153297e-03" rms="4.4361338019371033e-01" purity="6.4218312501907349e-01" nType="-99"/>
          </Node>
        </Node>
        <Node pos="r" depth="1" NCoef="0" IVar="2" Cut="7.8543708801269531e+01" cType="1" res="-5.2610550075769424e-02" rms="4.1733810305595398e-01" purity="2.4192735552787781e-01" nType="0">
          <Node pos="l" depth="2" NCoef="0" IVar="-1" Cut="0.0000000000000000e+00" cType="1" res="-2.1691557485610247e-03" rms="4.5853561162948608e-01" purity="3.1616413593292236e-01" nType="-99"/>
          <Node pos="r" depth="2" NCoef="0" IVar="-1" Cut="0.0000000000000000e+00" cType="1" res="-2.1057717502117157e-02" rms="3.8468948006629944e-01" purity="1.9235472381114960e-01" nType="-99"/>
        </Node>
      </Node>
    </BinaryTree>
    <BinaryTree type="DecisionTree" boostWeight="1.0000000000000000e+00" itree="27">
      <Node pos="s" depth="0" NCoef="0" IVar="13" Cut="5.4771305084228516e+01" cType="1" res="-1.9992410670965910e-03" rms="4.5457267761230469e-01" purity="4.9700546264648438e-01" nType="0">
        <Node pos="l" depth="1" NCoef="0" IVar="13" Cut="2.6321771621704102e+01" cType="1" res="1.1899868957698345e-02" rms="4.5857673883438110e-01" purity="5.6657093763351440e-01" nType="0">
          <Node pos="l" depth="2" NCoef="0" IVar="5" Cut="3.0575242638587952e-01" cType="1" res="-3.7355363368988037e-02" rms="4.6270522475242615e-01" purity="5.2976942062377930e-01" nType="0">
            <Node pos="l" depth="3" NCoef="0" IVar="-1" Cut="0.0000000000000000e+00" cType="1" res="-1.5657728537917137e-02" rms="4.7017800807952881e-01" purity="4.4580674171447754e-01" nType="-99"/>
            <Node pos="r" depth="3" NCoef="0" IVar="-1" Cut="0.0000000000000000e+00" cType="1" res="8.9339382247999310e-04" rms="4.5028153061866760e-01" purity="6.2864661216735840e-01" nType="-99"/>
          </Node>
          <Node pos="r" depth="2" NCoef="0" IVar="14" Cut="1.6706039905548096e+00" cType="1" res="2.5977389886975288e-02" rms="4.5641425251960754e-01" purity="5.7708901166915894e-01" nType="0">
            <Node pos="l" depth="3" NCoef="0" IVar="-1" Cut="0.0000000000000000e+00" cType="1" res="2.6213920209556818e-03" rms="4.6684384346008301e-01" purity="5.3510975837707520e-01" nType="-99"/>
            <Node pos="r" depth="3" NCoef="0" IVar="-1" Cut="0.0000000000000000e+00" cType="1" res="2.0948471501469612e-02" rms="4.0259143710136414e-01" purity="7.5903743505477905e-01" nType="-99"/>
          </Node>
        </Node>
        <Node pos="r" depth="1" NCoef="0" IVar="2" Cut="5.6847148895263672e+01" cType="1" res="-3.8133475929498672e-02" rms="4.4195353984832764e-01" purity="3.1615263223648071e-01" nType="0">
          <Node pos="l" depth="2" NCoef="0" IVar="-1" Cut="0.0000000000000000e+00" cType="1" res="5.4035605862736702e-03" rms="4.8548424243927002e-01" purity="4.1959440708160400e-01" nType="-99"/>
          <Node pos="r" depth="2" NCoef="0" IVar="12" Cut="1.1890979003906250e+02" cType="1" res="-5.3042668849229813e-02" rms="4.2959669232368469e-01" purity="2.9151982069015503e-01" nType="0">
            <Node pos="l" depth="3" NCoef="0" IVar="-1" Cut="0.0000000000000000e+00" cType="1" res="-5.0275311805307865e-03" rms="4.6639356017112732e-01" purity="3.9765635132789612e-01" nType="-99"/>
            <Node pos="r" depth="3" NCoef="0" IVar="-1" Cut="0.0000000000000000e+00" cType="1" res="-1.9435603171586990e-02" rms="3.9652878046035767e-01" purity="2.0776163041591644e-01" nType="-99"/>
          </Node>
        </Node>
      </Node>
    </BinaryTree>
    <BinaryTree type="DecisionTree" boostWeight="1.0000000000000000e+00" itree="28">
      <Node pos="s" depth="0" NCoef="0" IVar="12" Cut="1.1939755249023438e+02" cType="1" res="3.2248713541775942e-03" rms="4.5373350381851196e-01" purity="5.0296282768249512e-01" nType="0">
        <Node pos="l" depth="1" NCoef="0" IVar="5" Cut="1.4528870582580566e-01" cType="1" res="1.6707554459571838e-02" rms="4.5736008882522583e-01" purity="5.7531511783599854e-01" nType="0">
          <Node pos="l" depth="2" NCoef="0" IVar="1" Cut="1.4081289672851562e+02" cType="1" res="-4.0375936776399612e-02" rms="4.7223064303398132e-01" purity="4.2168447375297546e-01" nType="0">
            <Node pos="l" depth="3" NCoef="0" IVar="-1" Cut="0.0000000000000000e+00" cType="1" res="-1.8229507841169834e-03" rms="4.8545822501182556e-01" purity="5.0176018476486206e-01" nType="-99"/>
            <Node pos="r" depth="3" NCoef="0" IVar="-1" Cut="0.0000000000000000e+00" cType="1" res="-1.4423390850424767e-02" rms="4.5910423994064331e-01" purity="3.5422995686531067e-01" nType="-99"/>
          </Node>
          <Node pos="r" depth="2" NCoef="0" IVar="17" Cut="1.5386897277832031e+02" cType="1" res="2.6933221146464348e-02" rms="4.5388731360435486e-01" purity="6.0283571481704712e-01" nType="0">
            <Node pos="l" depth="3" NCoef="0" IVar="-1" Cut="0.0000000000000000e+00" cType="1" res="8.3677209913730621e-03" rms="4.5018413662910461e-01" purity="6.5023970603942871e-01" nType="-99"/>
            <Node pos="r" depth="3" NCoef="0" IVar="-1" Cut="0.0000000000000000e+00" cType="1" res="-4.4293478131294250e-03" rms="4.6867305040359497e-01" purity="3.7160661816596985e-01" nType="-99"/>
          </Node>
        </Node>
        <Node pos="r" depth="1" NCoef="0" IVar="2" Cut="7.9458541870117188e+01" cType="1" res="-3.2745614647865295e-02" rms="4.4190508127212524e-01" purity="3.0993407964706421e-01" nType="0">
          <Node pos="l" depth="2" NCoef="0" IVar="-1" Cut="0.0000000000000000e+00" cType="1" res="1.2586954981088638e-03" rms="4.6880257129669189e-01" purity="3.7203973531723022e-01" nType="-99"/>
          <Node pos="r" depth="2" NCoef="0" IVar="5" Cut="2.5120005011558533e-01" cType="1" res="-5.6241072714328766e-02" rms="4.2287963628768921e-01" purity="2.7190539240837097e-01" nType="0">
            <Node pos="l" depth="3" NCoef="0" IVar="-1" Cut="0.0000000000000000e+00" cType="1" res="-2.2585630416870117e-02" rms="3.9037084579467773e-01" purity="2.0855946838855743e-01" nType="-99"/>
            <Node pos="r" depth="3" NCoef="0" IVar="-1" Cut="0.0000000000000000e+00" cType="1" res="-7.2653880342841148e-03" rms="4.4285732507705688e-01" purity="3.1692281365394592e-01" nType="-99"/>
          </Node>
        </Node>
      </Node>
    </BinaryTree>
    <BinaryTree type="DecisionTree" boostWeight="1.0000000000000000e+00" itree="29">
      <Node pos="s" depth="0" NCoef="0" IVar="8" Cut="4.2549366950988770e+00" cType="1" res="-1.6351484227925539e-03" rms="4.5425137877464294e-01" purity="4.9805551767349243e-01" nType="0">
        <Node pos="l" depth="1" NCoef="0" IVar="13" Cut="4.9359867095947266e+01" cType="1" res="-8.6268717423081398e-03" rms="4.5650792121887207e-01" purity="4.7811388969421387e-01" nType="0">
          <Node pos="l" depth="2" NCoef="0" IVar="13" Cut="2.5426275253295898e+01" cType="1" res="5.9475498273968697e-03" rms="4.6186956763267517e-01" purity="5.5317622423171997e-01" nType="0">
            <Node pos="l" depth="3" NCoef="0" IVar="-1" Cut="0.0000000000000000e+00" cType="1" res="-1.2299591675400734e-02" rms="4.6323606371879578e-01" purity="4.9523696303367615e-01" nType="-99"/>
            <Node pos="r" depth="3" NCoef="0" IVar="-1" Cut="0.0000000000000000e+00" cType="1" res="4.9383495934307575e-03" rms="4.6013504266738892e-01" purity="5.6863582134246826e-01" nType="-99"/>
          </Node>
          <Node pos="r" depth="2" NCoef="0" IVar="7" Cut="3.5600152015686035e+00" cType="1" res="-3.7178352475166321e-02" rms="4.4443446397781372e-01" purity="3.3106580376625061e-01" nType="0">
            <Node pos="l" depth="3" NCoef="0" IVar="-1" Cut="0.0000000000000000e+00" cType="1" res="-1.0657412931323051e-02" rms="4.3858456611633301e-01" purity="3.1894662976264954e-01" nType="-99"/>
            <Node pos="r" depth="3" NCoef="0" IVar="-1" Cut="0.0000000000000000e+00" cType="1" res="7.1398411819245666e-05" rms="4.6874496340751648e-01" purity="3.8715919852256775e-01" nType="-99"/>
          </Node>
        </Node>
        <Node pos="r" depth="1" NCoef="0" IVar="9" Cut="1.3244691467285156e+02" cType="1" res="5.7657465338706970e-02" rms="4.3009939789772034e-01" purity="6.6716879606246948e-01" nType="0">
          <Node pos="l" depth="2" NCoef="0" IVar="-1" Cut="0.0000000000000000e+00" cType="1" res="2.6536548510193825e-02" rms="3.7667971849441528e-01" purity="8.0979251861572266e-01" nType="-99"/>
          <Node pos="r" depth="2" NCoef="0" IVar="-1" Cut="0.0000000000000000e+00" cType="1" res="2.6227019261568785e-03" rms="4.7194898128509521e-01" purity="5.2822571992874146e-01" nType="-99"/>
        </Node>
      </Node>
    </BinaryTree>
    <BinaryTree type="DecisionTree" boostWeight="1.0000000000000000e+00" itree="30">
      <Node pos="s" depth="0" NCoef="0" IVar="8" Cut="3.3541100025177002e+00" cType="1" res="2.9329245444387197e-04" rms="4.5320984721183777e-01" purity="5.0046169757843018e-01" nType="0">
        <Node pos="l" depth="1" NCoef="0" IVar="6" Cut="8.5711692810058594e+01" cType="1" res="-1.2039881199598312e-02" rms="4.5489338040351868e-01" purity="4.6098965406417847e-01" nType="0">
          <Node pos="l" depth="2" NCoef="0" IVar="12" Cut="5.6599578857421875e+01" cType="1" res="2.0801026374101639e-02" rms="4.4416674971580505e-01" purity="6.3362663984298706e-01" nType="0">
            <Node pos="l" depth="3" NCoef="0" IVar="-1" Cut="0.0000000000000000e+00" cType="1" res="1.5085761435329914e-02" rms="4.1117289662361145e-01" purity="7.6763486862182617e-01" nType="-99"/>
            <Node pos="r" depth="3" NCoef="0" IVar="-1" Cut="0.0000000000000000e+00" cType="1" res="-3.1421249732375145e-03" rms="4.6841251850128174e-01" purity="5.1625496149063110e-01" nType="-99"/>
          </Node>
          <Node pos="r" depth="2" NCoef="0" IVar="5" Cut="4.7094798088073730e-01" cType="1" res="-2.3880252614617348e-02" rms="4.5812216401100159e-01" purity="3.9874759316444397e-01" nType="0">
            <Node pos="l" depth="3" NCoef="0" IVar="-1" Cut="0.0000000000000000e+00" cType="1" res="-7.3197395540773869e-03" rms="4.5642527937889099e-01" purity="3.7895008921623230e-01" nType="-99"/>
            <Node pos="r" depth="3" NCoef="0" IVar="-1" Cut="0.0000000000000000e+00" cType="1" res="5.9592025354504585e-03" rms="4.6480765938758850e-01" purity="5.1582461595535278e-01" nType="-99"/>
          </Node>
        </Node>
        <Node pos="r" depth="1" NCoef="0" IVar="10" Cut="3.1298320293426514e+00" cType="1" res="3.4071184694766998e-02" rms="4.4682723283767700e-01" purity="6.0856693983078003e-01" nType="0">
          <Node pos="l" depth="2" NCoef="0" IVar="0" Cut="1.8423429727554321e+00" cType="1" res="4.8979267477989197e-02" rms="4.4165661931037903e-01" purity="6.2845146656036377e-01" nType="0">
            <Node pos="l" depth="3" NCoef="0" IVar="-1" Cut="0.0000000000000000e+00" cType="1" res="9.9985720589756966e-04" rms="4.8294997215270996e-01" purity="4.8703917860984802e-01" nType="-99"/>
            <Node pos="r" depth="3" NCoef="0" IVar="-1" Cut="0.0000000000000000e+00" cType="1" res="1.4970180578529835e-02" rms="4.2592269182205200e-01" purity="6.7576497793197632e-01" nType="-99"/>
          </Node>
          <Node pos="r" depth="2" NCoef="0" IVar="-1" Cut="0.0000000000000000e+00" cType="1" res="-3.4916538279503584e-03" rms="4.6010354161262512e-01" purity="5.4271334409713745e-01" nType="-99"/>
        </Node>
      </Node>
    </BinaryTree>
    <BinaryTree type="DecisionTree" boostWeight="1.0000000000000000e+00" itree="31">
      <Node pos="s" depth="0" NCoef="0" IVar="12" Cut="5.5341796875000000e+01" cType="1" res="-2.9470477602444589e-04" rms="4.5356884598731995e-01" purity="4.9950075149536133e-01" nType="0">
        <Node pos="l" depth="1" NCoef="0" IVar="0" Cut="2.5705199241638184e+00" cType="1" res="3.0643960461020470e-02" rms="4.3604609370231628e-01" purity="6.7361426353454590e-01" nType="0">
          <Node pos="l" depth="2" NCoef="0" IVar="13" Cut="3.0788263320922852e+01" cType="1" res="-5.4897153750061989e-03" rms="4.6689930558204651e-01" purity="5.6629931926727295e-01" nType="0">
            <Node pos="l" depth="3" NCoef="0" IVar="-1" Cut="0.0000000000000000e+00" cType="1" res="-7.4141821824014187e-03" rms="4.6867024898529053e-01" purity="5.3477054834365845e-01" nType="-99"/>
            <Node pos="r" depth="3" NCoef="0" IVar="-1" Cut="0.0000000000000000e+00" cType="1" res="5.7998932898044586e-03" rms="4.6286627650260925e-01" purity="6.0216712951660156e-01" nType="-99"/>
          </Node>
          <Node pos="r" depth="2" NCoef="0" IVar="13" Cut="2.9016355514526367e+01" cType="1" res="5.6635644286870956e-02" rms="4.1046571731567383e-01" purity="7.5080811977386475e-01" nType="0">
            <Node pos="l" depth="3" NCoef="0" IVar="-1" Cut="0.0000000000000000e+00" cType="1" res="5.2227461710572243e-03" rms="4.3098092079162598e-01" purity="7.0700508356094360e-01" nType="-99"/>
            <Node pos="r" depth="3" NCoef="0" IVar="-1" Cut="0.0000000000000000e+00" cType="1" res="2.0877512171864510e-02" rms="3.9264023303985596e-01" purity="7.8303676843643188e-01" nType="-99"/>
          </Node>
        </Node>
        <Node pos="r" depth="1" NCoef="0" IVar="5" Cut="4.1871634125709534e-01" cType="1" res="-1.1599402874708176e-02" rms="4.5928534865379333e-01" purity="4.3588128685951233e-01" nType="0">
          <Node pos="l" depth="2" NCoef="0" IVar="2" Cut="4.9667232513427734e+01" cType="1" res="-2.2096760571002960e-02" rms="4.5868593454360962e-01" purity="4.0991801023483276e-01" nType="0">
            <Node pos="l" depth="3" NCoef="0" IVar="-1" Cut="0.0000000000000000e+00" cType="1" res="4.5808060094714165e-03" rms="4.8809367418289185e-01" purity="4.9357184767723083e-01" nType="-99"/>
            <Node pos="r" depth="3" NCoef="0" IVar="-1" Cut="0.0000000000000000e+00" cType="1" res="-6.6204168833792210e-03" rms="4.5327910780906677e-01" purity="3.9617407321929932e-01" nType="-99"/>
          </Node>
          <Node pos="r" depth="2" NCoef="0" IVar="0" Cut="2.1687326431274414e+00" cType="1" res="2.8476627543568611e-02" rms="4.5936581492424011e-01" purity="5.3500205278396606e-01" nType="0">
            <Node pos="l" depth="3" NCoef="0" IVar="-1" Cut="0.0000000000000000e+00" cType="1" res="-2.5516231544315815e-03" rms="4.6874153614044189e-01" purity="4.2184957861900330e-01" nType="-99"/>
            <Node pos="r" depth="3" NCoef="0" IVar="-1" Cut="0.0000000000000000e+00" cType="1" res="1.1559776030480862e-02" rms="4.5244017243385315e-01" purity="5.9869205951690674e-01" nType="-99"/>
          </Node>
        </Node>
      </Node>
    </BinaryTree>
    <BinaryTree type="DecisionTree" boostWeight="1.0000000000000000e+00" itree="32">
      <Node pos="s" depth="0" NCoef="0" IVar="17" Cut="2.2283001708984375e+02" cType="1" res="1.6323039308190346e-03" rms="4.5228332281112671e-01" purity="5.0185525417327881e-01" nType="0">
        <Node pos="l" depth="1" NCoef="0" IVar="8" Cut="2.4404921531677246e+00" cType="1" res="7.2226845659315586e-03" rms="4.5471981167793274e-01" purity="5.2449858188629150e-01" nType="0">
          <Node pos="l" depth="2" NCoef="0" IVar="5" Cut="2.2431214153766632e-01" cType="1" res="-1.2136507779359818e-02" rms="4.5384523272514343e-01" purity="4.7894221544265747e-01" nType="0">
            <Node pos="l" depth="3" NCoef="0" IVar="-1" Cut="0.0000000000000000e+00" cType="1" res="-1.0167119093239307e-02" rms="4.5340698957443237e-01" purity="3.6781042814254761e-01" nType="-99"/>
            <Node pos="r" depth="3" NCoef="0" IVar="-1" Cut="0.0000000000000000e+00" cType="1" res="1.0651240590959787e-03" rms="4.5314717292785645e-01" purity="5.3521156311035156e-01" nType="-99"/>
          </Node>
          <Node pos="r" depth="2" NCoef="0" IVar="15" Cut="1.6103735351562500e+02" cType="1" res="2.5280628353357315e-02" rms="4.5479181408882141e-01" purity="5.6699281930923462e-01" nType="0">
            <Node pos="l" depth="3" NCoef="0" IVar="-1" Cut="0.0000000000000000e+00" cType="1" res="7.9559572041034698e-03" rms="4.5213365554809570e-01" purity="6.1932140588760376e-01" nType="-99"/>
            <Node pos="r" depth="3" NCoef="0" IVar="-1" Cut="0.0000000000000000e+00" cType="1" res="-2.9273582622408867e-03" rms="4.6305233240127563e-01" purity="3.6247575283050537e-01" nType="-99"/>
          </Node>
        </Node>
        <Node pos="r" depth="1" NCoef="0" IVar="-1" Cut="0.0000000000000000e+00" cType="1" res="-1.5166793018579483e-02" rms="4.1822794079780579e-01" purity="2.4345280230045319e-01" nType="-99"/>
      </Node>
    </BinaryTree>
    <BinaryTree type="DecisionTree" boostWeight="1.0000000000000000e+00" itree="33">
      <Node pos="s" depth="0" NCoef="0" IVar="14" Cut="2.1170156002044678e+00" cType="1" res="3.8013771700207144e-05" rms="4.5367202162742615e-01" purity="5.0084060430526733e-01" nType="0">
        <Node pos="l" depth="1" NCoef="0" IVar="15" Cut="1.1470220184326172e+02" cType="1" res="-4.8940405249595642e-03" rms="4.5726665854454041e-01" purity="4.8085057735443115e-01" nType="0">
          <Node pos="l" depth="2" NCoef="0" IVar="0" Cut="2.6081311702728271e+00" cType="1" res="1.3051736168563366e-02" rms="4.5868548750877380e-01" purity="5.8365726470947266e-01" nType="0">
            <Node pos="l" depth="3" NCoef="0" IVar="-1" Cut="0.0000000000000000e+00" cType="1" res="-1.6066320240497589e-03" rms="4.7288799285888672e-01" purity="5.1180112361907959e-01" nType="-99"/>
            <Node pos="r" depth="3" NCoef="0" IVar="-1" Cut="0.0000000000000000e+00" cType="1" res="9.1605260968208313e-03" rms="4.3861359357833862e-01" purity="6.7495161294937134e-01" nType="-99"/>
          </Node>
          <Node pos="r" depth="2" NCoef="0" IVar="2" Cut="4.8124740600585938e+01" cType="1" res="-2.1251663565635681e-02" rms="4.5535379648208618e-01" purity="3.8714197278022766e-01" nType="0">
            <Node pos="l" depth="3" NCoef="0" IVar="-1" Cut="0.0000000000000000e+00" cType="1" res="7.9397298395633698e-03" rms="4.8847272992134094e-01" purity="4.8464530706405640e-01" nType="-99"/>
            <Node pos="r" depth="3" NCoef="0" IVar="-1" Cut="0.0000000000000000e+00" cType="1" res="-6.7716478370130062e-03" rms="4.4996345043182373e-01" purity="3.7355864048004150e-01" nType="-99"/>
          </Node>
        </Node>
        <Node pos="r" depth="1" NCoef="0" IVar="-1" Cut="0.0000000000000000e+00" cType="1" res="1.5966188162565231e-02" rms="4.0006661415100098e-01" purity="7.5444138050079346e-01" nType="-99"/>
      </Node>
    </BinaryTree>
    <BinaryTree type="DecisionTree" boostWeight="1.0000000000000000e+00" itree="34">
      <Node pos="s" depth="0" NCoef="0" IVar="13" Cut="9.3047111511230469e+01" cType="1" res="-5.6961634982144460e-05" rms="4.5315235853195190e-01" purity="5.0018411874771118e-01" nType="0">
        <Node pos="l" depth="1" NCoef="0" IVar="5" Cut="1.7712032794952393e-01" cType="1" res="5.1376321353018284e-03" rms="4.5808771252632141e-01" purity="5.2742940187454224e-01" nType="0">
          <Node pos="l" depth="2" NCoef="0" IVar="2" Cut="6.3931697845458984e+01" cType="1" res="-3.3306289464235306e-02" rms="4.6524682641029358e-01" purity="4.0090170502662659e-01" nType="0">
